network unknown {
}
variable SP01 {
    type discrete [ 4 ] { A, C, G, U };
}
variable SP02 {
    type discrete [ 4 ] { A, C, G, U };
}
variable SP03 {
    type discrete [ 4 ] { A, C, G, U };
}
variable SP04 {
    type discrete [ 4 ] { A, C, G, U };
}
variable SP05 {
    type discrete [ 4 ] { A, C, G, U };
}
variable SP06 {
    type discrete [ 4 ] { A, C, G, U };
}
variable SP07 {
    type discrete [ 4 ] { A, C, G, U };
}
variable SP08 {
    type discrete [ 4 ] { A, C, G, U };
}
variable SP09 {
    type discrete [ 4 ] { A, C, G, U };
}
variable SP10 {
    type discrete [ 4 ] { A, C, G, U };
}
variable SP11 {
    type discrete [ 4 ] { A, C, G, U };
}
variable SP12 {
    type discrete [ 4 ] { A, C, G, U };
}
variable SP13 {
    type discrete [ 4 ] { A, C, G, U };
}
variable SP14 {
    type discrete [ 4 ] { A, C, G, U };
}
variable SP15 {
    type discrete [ 4 ] { A, C, G, U };
}
variable SP16 {
    type discrete [ 4 ] { A, C, G, U };
}
variable SP17 {
    type discrete [ 4 ] { A, C, G, U };
}
variable SP18 {
    type discrete [ 4 ] { A, C, G, U };
}
variable SP19 {
    type discrete [ 4 ] { A, C, G, U };
}
variable SP20 {
    type discrete [ 4 ] { A, C, G, U };
}
variable SP21 {
    type discrete [ 4 ] { A, C, G, U };
}
variable SP22 {
    type discrete [ 4 ] { A, C, G, U };
}
variable SP23 {
    type discrete [ 4 ] { A, C, G, U };
}
variable SP24 {
    type discrete [ 4 ] { A, C, G, U };
}
variable SP25 {
    type discrete [ 4 ] { A, C, G, U };
}
variable SP26 {
    type discrete [ 4 ] { A, C, G, U };
}
variable SP27 {
    type discrete [ 4 ] { A, C, G, U };
}
variable SP28 {
    type discrete [ 4 ] { A, C, G, U };
}
variable SP29 {
    type discrete [ 4 ] { A, C, G, U };
}
variable SP30 {
    type discrete [ 4 ] { A, C, G, U };
}
variable mean_targeting_efficiency {
    type discrete [ 11 ] { 0.0, 0.1, 0.2, 0.3, 0.4, 0.5, 0.6, 0.7, 0.8, 0.9, 1.0 };
}
variable transcript {
    type discrete [ 7 ] { BCR-ABL, SFPQ-ABL, SNX2-ABL, Spike, TagBFP, eGFP, mCherry };
}
probability ( SP01 | mean_targeting_efficiency ) {
    ( 0.0 ) 0.0, 1.0, 0.0, 0.0;
    ( 0.1 ) 0.0, 0.3333333333333333, 0.3333333333333333, 0.3333333333333333;
    ( 0.2 ) 0.0, 0.8, 0.0, 0.2;
    ( 0.3 ) 0.09090909090909091, 0.36363636363636365, 0.18181818181818182, 0.36363636363636365;
    ( 0.4 ) 0.1111111111111111, 0.5555555555555556, 0.0, 0.3333333333333333;
    ( 0.5 ) 0.09090909090909091, 0.45454545454545453, 0.2727272727272727, 0.18181818181818182;
    ( 0.6 ) 0.0, 0.4444444444444444, 0.2222222222222222, 0.3333333333333333;
    ( 0.7 ) 0.25, 0.1875, 0.3125, 0.25;
    ( 0.8 ) 0.08823529411764706, 0.23529411764705882, 0.5, 0.17647058823529413;
    ( 0.9 ) 0.14814814814814814, 0.2037037037037037, 0.42592592592592593, 0.2222222222222222;
    ( 1.0 ) 0.07894736842105263, 0.10526315789473684, 0.7368421052631579, 0.07894736842105263;

}
probability ( SP02 | mean_targeting_efficiency ) {
    ( 0.0 ) 0.0, 0.6666666666666666, 0.0, 0.3333333333333333;
    ( 0.1 ) 0.0, 0.6666666666666666, 0.0, 0.3333333333333333;
    ( 0.2 ) 0.2, 0.2, 0.2, 0.4;
    ( 0.3 ) 0.2727272727272727, 0.45454545454545453, 0.09090909090909091, 0.18181818181818182;
    ( 0.4 ) 0.0, 0.4444444444444444, 0.1111111111111111, 0.4444444444444444;
    ( 0.5 ) 0.18181818181818182, 0.2727272727272727, 0.18181818181818182, 0.36363636363636365;
    ( 0.6 ) 0.1111111111111111, 0.2222222222222222, 0.3333333333333333, 0.3333333333333333;
    ( 0.7 ) 0.1875, 0.5, 0.25, 0.0625;
    ( 0.8 ) 0.29411764705882354, 0.08823529411764706, 0.4411764705882353, 0.17647058823529413;
    ( 0.9 ) 0.14814814814814814, 0.2222222222222222, 0.4074074074074074, 0.2222222222222222;
    ( 1.0 ) 0.13157894736842105, 0.23684210526315788, 0.5, 0.13157894736842105;

}
probability ( SP03 | mean_targeting_efficiency ) {
    ( 0.0 ) 0.0, 0.6666666666666666, 0.0, 0.3333333333333333;
    ( 0.1 ) 0.0, 1.0, 0.0, 0.0;
    ( 0.2 ) 0.0, 0.4, 0.2, 0.4;
    ( 0.3 ) 0.0, 0.5454545454545454, 0.36363636363636365, 0.09090909090909091;
    ( 0.4 ) 0.1111111111111111, 0.2222222222222222, 0.1111111111111111, 0.5555555555555556;
    ( 0.5 ) 0.09090909090909091, 0.36363636363636365, 0.2727272727272727, 0.2727272727272727;
    ( 0.6 ) 0.4444444444444444, 0.3333333333333333, 0.2222222222222222, 0.0;
    ( 0.7 ) 0.1875, 0.125, 0.3125, 0.375;
    ( 0.8 ) 0.29411764705882354, 0.14705882352941177, 0.29411764705882354, 0.2647058823529412;
    ( 0.9 ) 0.1111111111111111, 0.16666666666666666, 0.37037037037037035, 0.35185185185185186;
    ( 1.0 ) 0.10526315789473684, 0.34210526315789475, 0.3684210526315789, 0.18421052631578946;

}
probability ( SP04 | mean_targeting_efficiency ) {
    ( 0.0 ) 0.0, 0.0, 0.3333333333333333, 0.6666666666666666;
    ( 0.1 ) 0.0, 0.0, 1.0, 0.0;
    ( 0.2 ) 0.0, 0.6, 0.2, 0.2;
    ( 0.3 ) 0.2727272727272727, 0.2727272727272727, 0.18181818181818182, 0.2727272727272727;
    ( 0.4 ) 0.1111111111111111, 0.3333333333333333, 0.2222222222222222, 0.3333333333333333;
    ( 0.5 ) 0.09090909090909091, 0.36363636363636365, 0.45454545454545453, 0.09090909090909091;
    ( 0.6 ) 0.4444444444444444, 0.2222222222222222, 0.1111111111111111, 0.2222222222222222;
    ( 0.7 ) 0.1875, 0.3125, 0.3125, 0.1875;
    ( 0.8 ) 0.20588235294117646, 0.058823529411764705, 0.4411764705882353, 0.29411764705882354;
    ( 0.9 ) 0.12962962962962962, 0.2777777777777778, 0.3333333333333333, 0.25925925925925924;
    ( 1.0 ) 0.07894736842105263, 0.21052631578947367, 0.6052631578947368, 0.10526315789473684;

}
probability ( SP05 | mean_targeting_efficiency ) {
    ( 0.0 ) 0.0, 0.6666666666666666, 0.0, 0.3333333333333333;
    ( 0.1 ) 0.0, 0.6666666666666666, 0.3333333333333333, 0.0;
    ( 0.2 ) 0.2, 0.4, 0.2, 0.2;
    ( 0.3 ) 0.36363636363636365, 0.2727272727272727, 0.09090909090909091, 0.2727272727272727;
    ( 0.4 ) 0.3333333333333333, 0.2222222222222222, 0.2222222222222222, 0.2222222222222222;
    ( 0.5 ) 0.09090909090909091, 0.18181818181818182, 0.5454545454545454, 0.18181818181818182;
    ( 0.6 ) 0.1111111111111111, 0.1111111111111111, 0.3333333333333333, 0.4444444444444444;
    ( 0.7 ) 0.3125, 0.3125, 0.25, 0.125;
    ( 0.8 ) 0.17647058823529413, 0.23529411764705882, 0.2647058823529412, 0.3235294117647059;
    ( 0.9 ) 0.2222222222222222, 0.18518518518518517, 0.2222222222222222, 0.37037037037037035;
    ( 1.0 ) 0.2631578947368421, 0.3157894736842105, 0.2894736842105263, 0.13157894736842105;

}
probability ( SP06 | mean_targeting_efficiency ) {
    ( 0.0 ) 0.3333333333333333, 0.6666666666666666, 0.0, 0.0;
    ( 0.1 ) 0.0, 0.3333333333333333, 0.0, 0.6666666666666666;
    ( 0.2 ) 0.0, 0.6, 0.2, 0.2;
    ( 0.3 ) 0.09090909090909091, 0.36363636363636365, 0.5454545454545454, 0.0;
    ( 0.4 ) 0.2222222222222222, 0.3333333333333333, 0.1111111111111111, 0.3333333333333333;
    ( 0.5 ) 0.18181818181818182, 0.45454545454545453, 0.2727272727272727, 0.09090909090909091;
    ( 0.6 ) 0.0, 0.3333333333333333, 0.4444444444444444, 0.2222222222222222;
    ( 0.7 ) 0.1875, 0.1875, 0.3125, 0.3125;
    ( 0.8 ) 0.3235294117647059, 0.2647058823529412, 0.14705882352941177, 0.2647058823529412;
    ( 0.9 ) 0.16666666666666666, 0.2222222222222222, 0.48148148148148145, 0.12962962962962962;
    ( 1.0 ) 0.10526315789473684, 0.2894736842105263, 0.23684210526315788, 0.3684210526315789;

}
probability ( SP07 | mean_targeting_efficiency ) {
    ( 0.0 ) 0.3333333333333333, 0.3333333333333333, 0.3333333333333333, 0.0;
    ( 0.1 ) 0.0, 0.3333333333333333, 0.6666666666666666, 0.0;
    ( 0.2 ) 0.0, 0.2, 0.6, 0.2;
    ( 0.3 ) 0.18181818181818182, 0.18181818181818182, 0.45454545454545453, 0.18181818181818182;
    ( 0.4 ) 0.1111111111111111, 0.3333333333333333, 0.1111111111111111, 0.4444444444444444;
    ( 0.5 ) 0.18181818181818182, 0.2727272727272727, 0.5454545454545454, 0.0;
    ( 0.6 ) 0.0, 0.2222222222222222, 0.4444444444444444, 0.3333333333333333;
    ( 0.7 ) 0.1875, 0.125, 0.25, 0.4375;
    ( 0.8 ) 0.2647058823529412, 0.11764705882352941, 0.38235294117647056, 0.23529411764705882;
    ( 0.9 ) 0.1111111111111111, 0.2962962962962963, 0.2962962962962963, 0.2962962962962963;
    ( 1.0 ) 0.07894736842105263, 0.34210526315789475, 0.47368421052631576, 0.10526315789473684;

}
probability ( SP08 | mean_targeting_efficiency ) {
    ( 0.0 ) 0.0, 0.0, 0.6666666666666666, 0.3333333333333333;
    ( 0.1 ) 0.3333333333333333, 0.0, 0.6666666666666666, 0.0;
    ( 0.2 ) 0.0, 0.6, 0.0, 0.4;
    ( 0.3 ) 0.09090909090909091, 0.18181818181818182, 0.5454545454545454, 0.18181818181818182;
    ( 0.4 ) 0.0, 0.0, 0.4444444444444444, 0.5555555555555556;
    ( 0.5 ) 0.09090909090909091, 0.45454545454545453, 0.36363636363636365, 0.09090909090909091;
    ( 0.6 ) 0.2222222222222222, 0.3333333333333333, 0.2222222222222222, 0.2222222222222222;
    ( 0.7 ) 0.1875, 0.4375, 0.1875, 0.1875;
    ( 0.8 ) 0.17647058823529413, 0.17647058823529413, 0.3235294117647059, 0.3235294117647059;
    ( 0.9 ) 0.25925925925925924, 0.24074074074074073, 0.2037037037037037, 0.2962962962962963;
    ( 1.0 ) 0.10526315789473684, 0.2894736842105263, 0.23684210526315788, 0.3684210526315789;

}
probability ( SP09 | mean_targeting_efficiency ) {
    ( 0.0 ) 0.0, 0.0, 0.6666666666666666, 0.3333333333333333;
    ( 0.1 ) 0.3333333333333333, 0.0, 0.3333333333333333, 0.3333333333333333;
    ( 0.2 ) 0.2, 0.4, 0.0, 0.4;
    ( 0.3 ) 0.18181818181818182, 0.45454545454545453, 0.18181818181818182, 0.18181818181818182;
    ( 0.4 ) 0.2222222222222222, 0.3333333333333333, 0.1111111111111111, 0.3333333333333333;
    ( 0.5 ) 0.0, 0.36363636363636365, 0.45454545454545453, 0.18181818181818182;
    ( 0.6 ) 0.2222222222222222, 0.2222222222222222, 0.3333333333333333, 0.2222222222222222;
    ( 0.7 ) 0.3125, 0.1875, 0.1875, 0.3125;
    ( 0.8 ) 0.17647058823529413, 0.38235294117647056, 0.23529411764705882, 0.20588235294117646;
    ( 0.9 ) 0.14814814814814814, 0.1111111111111111, 0.46296296296296297, 0.2777777777777778;
    ( 1.0 ) 0.10526315789473684, 0.3684210526315789, 0.18421052631578946, 0.34210526315789475;

}
probability ( SP10 | mean_targeting_efficiency ) {
    ( 0.0 ) 0.0, 0.6666666666666666, 0.3333333333333333, 0.0;
    ( 0.1 ) 0.3333333333333333, 0.0, 0.6666666666666666, 0.0;
    ( 0.2 ) 0.0, 0.0, 0.8, 0.2;
    ( 0.3 ) 0.2727272727272727, 0.09090909090909091, 0.36363636363636365, 0.2727272727272727;
    ( 0.4 ) 0.3333333333333333, 0.0, 0.3333333333333333, 0.3333333333333333;
    ( 0.5 ) 0.0, 0.45454545454545453, 0.36363636363636365, 0.18181818181818182;
    ( 0.6 ) 0.1111111111111111, 0.2222222222222222, 0.5555555555555556, 0.1111111111111111;
    ( 0.7 ) 0.25, 0.125, 0.3125, 0.3125;
    ( 0.8 ) 0.17647058823529413, 0.23529411764705882, 0.29411764705882354, 0.29411764705882354;
    ( 0.9 ) 0.14814814814814814, 0.24074074074074073, 0.42592592592592593, 0.18518518518518517;
    ( 1.0 ) 0.07894736842105263, 0.4473684210526316, 0.3157894736842105, 0.15789473684210525;

}
probability ( SP11 | mean_targeting_efficiency ) {
    ( 0.0 ) 0.3333333333333333, 0.3333333333333333, 0.3333333333333333, 0.0;
    ( 0.1 ) 0.0, 0.0, 1.0, 0.0;
    ( 0.2 ) 0.2, 0.4, 0.4, 0.0;
    ( 0.3 ) 0.09090909090909091, 0.36363636363636365, 0.2727272727272727, 0.2727272727272727;
    ( 0.4 ) 0.0, 0.3333333333333333, 0.2222222222222222, 0.4444444444444444;
    ( 0.5 ) 0.18181818181818182, 0.2727272727272727, 0.09090909090909091, 0.45454545454545453;
    ( 0.6 ) 0.2222222222222222, 0.3333333333333333, 0.3333333333333333, 0.1111111111111111;
    ( 0.7 ) 0.125, 0.25, 0.375, 0.25;
    ( 0.8 ) 0.23529411764705882, 0.20588235294117646, 0.23529411764705882, 0.3235294117647059;
    ( 0.9 ) 0.16666666666666666, 0.2222222222222222, 0.37037037037037035, 0.24074074074074073;
    ( 1.0 ) 0.21052631578947367, 0.2894736842105263, 0.23684210526315788, 0.2631578947368421;

}
probability ( SP12 | mean_targeting_efficiency ) {
    ( 0.0 ) 0.0, 0.3333333333333333, 0.6666666666666666, 0.0;
    ( 0.1 ) 0.3333333333333333, 0.3333333333333333, 0.3333333333333333, 0.0;
    ( 0.2 ) 0.0, 0.4, 0.2, 0.4;
    ( 0.3 ) 0.09090909090909091, 0.6363636363636364, 0.2727272727272727, 0.0;
    ( 0.4 ) 0.0, 0.6666666666666666, 0.2222222222222222, 0.1111111111111111;
    ( 0.5 ) 0.18181818181818182, 0.2727272727272727, 0.2727272727272727, 0.2727272727272727;
    ( 0.6 ) 0.0, 0.2222222222222222, 0.3333333333333333, 0.4444444444444444;
    ( 0.7 ) 0.3125, 0.0, 0.375, 0.3125;
    ( 0.8 ) 0.23529411764705882, 0.2647058823529412, 0.2647058823529412, 0.23529411764705882;
    ( 0.9 ) 0.14814814814814814, 0.2777777777777778, 0.2962962962962963, 0.2777777777777778;
    ( 1.0 ) 0.15789473684210525, 0.42105263157894735, 0.2894736842105263, 0.13157894736842105;

}
probability ( SP13 | mean_targeting_efficiency ) {
    ( 0.0 ) 0.0, 0.6666666666666666, 0.3333333333333333, 0.0;
    ( 0.1 ) 0.3333333333333333, 0.3333333333333333, 0.3333333333333333, 0.0;
    ( 0.2 ) 0.2, 0.4, 0.4, 0.0;
    ( 0.3 ) 0.2727272727272727, 0.18181818181818182, 0.36363636363636365, 0.18181818181818182;
    ( 0.4 ) 0.2222222222222222, 0.3333333333333333, 0.2222222222222222, 0.2222222222222222;
    ( 0.5 ) 0.18181818181818182, 0.2727272727272727, 0.2727272727272727, 0.2727272727272727;
    ( 0.6 ) 0.0, 0.2222222222222222, 0.5555555555555556, 0.2222222222222222;
    ( 0.7 ) 0.3125, 0.125, 0.1875, 0.375;
    ( 0.8 ) 0.11764705882352941, 0.23529411764705882, 0.35294117647058826, 0.29411764705882354;
    ( 0.9 ) 0.16666666666666666, 0.2222222222222222, 0.3333333333333333, 0.2777777777777778;
    ( 1.0 ) 0.05263157894736842, 0.34210526315789475, 0.5526315789473685, 0.05263157894736842;

}
probability ( SP14 | mean_targeting_efficiency ) {
    ( 0.0 ) 0.0, 0.3333333333333333, 0.6666666666666666, 0.0;
    ( 0.1 ) 0.0, 0.0, 0.3333333333333333, 0.6666666666666666;
    ( 0.2 ) 0.0, 0.0, 0.4, 0.6;
    ( 0.3 ) 0.18181818181818182, 0.2727272727272727, 0.2727272727272727, 0.2727272727272727;
    ( 0.4 ) 0.1111111111111111, 0.2222222222222222, 0.3333333333333333, 0.3333333333333333;
    ( 0.5 ) 0.18181818181818182, 0.2727272727272727, 0.2727272727272727, 0.2727272727272727;
    ( 0.6 ) 0.2222222222222222, 0.5555555555555556, 0.1111111111111111, 0.1111111111111111;
    ( 0.7 ) 0.125, 0.1875, 0.5, 0.1875;
    ( 0.8 ) 0.23529411764705882, 0.2647058823529412, 0.2647058823529412, 0.23529411764705882;
    ( 0.9 ) 0.18518518518518517, 0.24074074074074073, 0.2222222222222222, 0.35185185185185186;
    ( 1.0 ) 0.18421052631578946, 0.18421052631578946, 0.34210526315789475, 0.2894736842105263;

}
probability ( SP15 | mean_targeting_efficiency ) {
    ( 0.0 ) 0.0, 0.3333333333333333, 0.3333333333333333, 0.3333333333333333;
    ( 0.1 ) 0.0, 0.3333333333333333, 0.6666666666666666, 0.0;
    ( 0.2 ) 0.2, 0.6, 0.2, 0.0;
    ( 0.3 ) 0.0, 0.6363636363636364, 0.2727272727272727, 0.09090909090909091;
    ( 0.4 ) 0.0, 0.5555555555555556, 0.2222222222222222, 0.2222222222222222;
    ( 0.5 ) 0.18181818181818182, 0.2727272727272727, 0.2727272727272727, 0.2727272727272727;
    ( 0.6 ) 0.1111111111111111, 0.4444444444444444, 0.1111111111111111, 0.3333333333333333;
    ( 0.7 ) 0.0625, 0.25, 0.5, 0.1875;
    ( 0.8 ) 0.29411764705882354, 0.35294117647058826, 0.20588235294117646, 0.14705882352941177;
    ( 0.9 ) 0.16666666666666666, 0.2777777777777778, 0.2962962962962963, 0.25925925925925924;
    ( 1.0 ) 0.21052631578947367, 0.2894736842105263, 0.23684210526315788, 0.2631578947368421;

}
probability ( SP16 | mean_targeting_efficiency ) {
    ( 0.0 ) 0.0, 0.3333333333333333, 0.3333333333333333, 0.3333333333333333;
    ( 0.1 ) 0.0, 0.6666666666666666, 0.3333333333333333, 0.0;
    ( 0.2 ) 0.0, 0.4, 0.6, 0.0;
    ( 0.3 ) 0.09090909090909091, 0.7272727272727273, 0.0, 0.18181818181818182;
    ( 0.4 ) 0.0, 0.7777777777777778, 0.1111111111111111, 0.1111111111111111;
    ( 0.5 ) 0.0, 0.2727272727272727, 0.5454545454545454, 0.18181818181818182;
    ( 0.6 ) 0.2222222222222222, 0.2222222222222222, 0.2222222222222222, 0.3333333333333333;
    ( 0.7 ) 0.3125, 0.3125, 0.125, 0.25;
    ( 0.8 ) 0.14705882352941177, 0.35294117647058826, 0.2647058823529412, 0.23529411764705882;
    ( 0.9 ) 0.24074074074074073, 0.1111111111111111, 0.37037037037037035, 0.2777777777777778;
    ( 1.0 ) 0.07894736842105263, 0.2631578947368421, 0.5526315789473685, 0.10526315789473684;

}
probability ( SP17 | mean_targeting_efficiency ) {
    ( 0.0 ) 0.0, 1.0, 0.0, 0.0;
    ( 0.1 ) 0.0, 1.0, 0.0, 0.0;
    ( 0.2 ) 0.2, 0.2, 0.2, 0.4;
    ( 0.3 ) 0.09090909090909091, 0.45454545454545453, 0.09090909090909091, 0.36363636363636365;
    ( 0.4 ) 0.3333333333333333, 0.4444444444444444, 0.1111111111111111, 0.1111111111111111;
    ( 0.5 ) 0.09090909090909091, 0.36363636363636365, 0.09090909090909091, 0.45454545454545453;
    ( 0.6 ) 0.1111111111111111, 0.3333333333333333, 0.3333333333333333, 0.2222222222222222;
    ( 0.7 ) 0.1875, 0.375, 0.25, 0.1875;
    ( 0.8 ) 0.14705882352941177, 0.2647058823529412, 0.38235294117647056, 0.20588235294117646;
    ( 0.9 ) 0.2037037037037037, 0.24074074074074073, 0.2777777777777778, 0.2777777777777778;
    ( 1.0 ) 0.2631578947368421, 0.2894736842105263, 0.2894736842105263, 0.15789473684210525;

}
probability ( SP18 | mean_targeting_efficiency ) {
    ( 0.0 ) 0.0, 0.6666666666666666, 0.0, 0.3333333333333333;
    ( 0.1 ) 0.3333333333333333, 0.0, 0.3333333333333333, 0.3333333333333333;
    ( 0.2 ) 0.2, 0.4, 0.2, 0.2;
    ( 0.3 ) 0.09090909090909091, 0.7272727272727273, 0.18181818181818182, 0.0;
    ( 0.4 ) 0.1111111111111111, 0.1111111111111111, 0.3333333333333333, 0.4444444444444444;
    ( 0.5 ) 0.09090909090909091, 0.36363636363636365, 0.2727272727272727, 0.2727272727272727;
    ( 0.6 ) 0.0, 0.4444444444444444, 0.2222222222222222, 0.3333333333333333;
    ( 0.7 ) 0.125, 0.3125, 0.1875, 0.375;
    ( 0.8 ) 0.20588235294117646, 0.3235294117647059, 0.20588235294117646, 0.2647058823529412;
    ( 0.9 ) 0.25925925925925924, 0.25925925925925924, 0.2777777777777778, 0.2037037037037037;
    ( 1.0 ) 0.15789473684210525, 0.34210526315789475, 0.2631578947368421, 0.23684210526315788;

}
probability ( SP19 | mean_targeting_efficiency ) {
    ( 0.0 ) 0.0, 0.3333333333333333, 0.3333333333333333, 0.3333333333333333;
    ( 0.1 ) 0.0, 0.3333333333333333, 0.6666666666666666, 0.0;
    ( 0.2 ) 0.0, 0.4, 0.6, 0.0;
    ( 0.3 ) 0.18181818181818182, 0.18181818181818182, 0.36363636363636365, 0.2727272727272727;
    ( 0.4 ) 0.0, 0.2222222222222222, 0.3333333333333333, 0.4444444444444444;
    ( 0.5 ) 0.09090909090909091, 0.36363636363636365, 0.2727272727272727, 0.2727272727272727;
    ( 0.6 ) 0.0, 0.4444444444444444, 0.4444444444444444, 0.1111111111111111;
    ( 0.7 ) 0.125, 0.3125, 0.375, 0.1875;
    ( 0.8 ) 0.29411764705882354, 0.20588235294117646, 0.35294117647058826, 0.14705882352941177;
    ( 0.9 ) 0.12962962962962962, 0.2777777777777778, 0.35185185185185186, 0.24074074074074073;
    ( 1.0 ) 0.13157894736842105, 0.15789473684210525, 0.5789473684210527, 0.13157894736842105;

}
probability ( SP20 | mean_targeting_efficiency ) {
    ( 0.0 ) 0.0, 0.3333333333333333, 0.3333333333333333, 0.3333333333333333;
    ( 0.1 ) 0.0, 1.0, 0.0, 0.0;
    ( 0.2 ) 0.2, 0.4, 0.2, 0.2;
    ( 0.3 ) 0.09090909090909091, 0.2727272727272727, 0.36363636363636365, 0.2727272727272727;
    ( 0.4 ) 0.1111111111111111, 0.4444444444444444, 0.2222222222222222, 0.2222222222222222;
    ( 0.5 ) 0.18181818181818182, 0.36363636363636365, 0.09090909090909091, 0.36363636363636365;
    ( 0.6 ) 0.4444444444444444, 0.3333333333333333, 0.1111111111111111, 0.1111111111111111;
    ( 0.7 ) 0.1875, 0.1875, 0.4375, 0.1875;
    ( 0.8 ) 0.08823529411764706, 0.38235294117647056, 0.14705882352941177, 0.38235294117647056;
    ( 0.9 ) 0.2222222222222222, 0.2962962962962963, 0.2777777777777778, 0.2037037037037037;
    ( 1.0 ) 0.13157894736842105, 0.2631578947368421, 0.23684210526315788, 0.3684210526315789;

}
probability ( SP21 | mean_targeting_efficiency ) {
    ( 0.0 ) 0.0, 0.3333333333333333, 0.6666666666666666, 0.0;
    ( 0.1 ) 0.0, 1.0, 0.0, 0.0;
    ( 0.2 ) 0.0, 0.2, 0.2, 0.6;
    ( 0.3 ) 0.36363636363636365, 0.18181818181818182, 0.45454545454545453, 0.0;
    ( 0.4 ) 0.2222222222222222, 0.4444444444444444, 0.0, 0.3333333333333333;
    ( 0.5 ) 0.0, 0.36363636363636365, 0.36363636363636365, 0.2727272727272727;
    ( 0.6 ) 0.0, 0.2222222222222222, 0.5555555555555556, 0.2222222222222222;
    ( 0.7 ) 0.125, 0.3125, 0.375, 0.1875;
    ( 0.8 ) 0.20588235294117646, 0.35294117647058826, 0.20588235294117646, 0.23529411764705882;
    ( 0.9 ) 0.18518518518518517, 0.3333333333333333, 0.2962962962962963, 0.18518518518518517;
    ( 1.0 ) 0.2631578947368421, 0.34210526315789475, 0.23684210526315788, 0.15789473684210525;

}
probability ( SP22 | mean_targeting_efficiency ) {
    ( 0.0 ) 0.0, 0.3333333333333333, 0.6666666666666666, 0.0;
    ( 0.1 ) 0.3333333333333333, 0.3333333333333333, 0.3333333333333333, 0.0;
    ( 0.2 ) 0.0, 0.4, 0.6, 0.0;
    ( 0.3 ) 0.2727272727272727, 0.18181818181818182, 0.36363636363636365, 0.18181818181818182;
    ( 0.4 ) 0.2222222222222222, 0.1111111111111111, 0.3333333333333333, 0.3333333333333333;
    ( 0.5 ) 0.0, 0.45454545454545453, 0.2727272727272727, 0.2727272727272727;
    ( 0.6 ) 0.0, 0.6666666666666666, 0.0, 0.3333333333333333;
    ( 0.7 ) 0.125, 0.5, 0.125, 0.25;
    ( 0.8 ) 0.11764705882352941, 0.35294117647058826, 0.2647058823529412, 0.2647058823529412;
    ( 0.9 ) 0.25925925925925924, 0.2037037037037037, 0.25925925925925924, 0.2777777777777778;
    ( 1.0 ) 0.10526315789473684, 0.2894736842105263, 0.5526315789473685, 0.05263157894736842;

}
probability ( SP23 | mean_targeting_efficiency ) {
    ( 0.0 ) 0.0, 0.0, 0.6666666666666666, 0.3333333333333333;
    ( 0.1 ) 0.3333333333333333, 0.0, 0.3333333333333333, 0.3333333333333333;
    ( 0.2 ) 0.2, 0.4, 0.2, 0.2;
    ( 0.3 ) 0.18181818181818182, 0.18181818181818182, 0.18181818181818182, 0.45454545454545453;
    ( 0.4 ) 0.0, 0.3333333333333333, 0.3333333333333333, 0.3333333333333333;
    ( 0.5 ) 0.2727272727272727, 0.2727272727272727, 0.18181818181818182, 0.2727272727272727;
    ( 0.6 ) 0.2222222222222222, 0.3333333333333333, 0.2222222222222222, 0.2222222222222222;
    ( 0.7 ) 0.25, 0.375, 0.1875, 0.1875;
    ( 0.8 ) 0.23529411764705882, 0.23529411764705882, 0.17647058823529413, 0.35294117647058826;
    ( 0.9 ) 0.16666666666666666, 0.3333333333333333, 0.24074074074074073, 0.25925925925925924;
    ( 1.0 ) 0.21052631578947367, 0.18421052631578946, 0.34210526315789475, 0.2631578947368421;

}
probability ( SP24 | mean_targeting_efficiency ) {
    ( 0.0 ) 0.0, 0.3333333333333333, 0.3333333333333333, 0.3333333333333333;
    ( 0.1 ) 0.0, 0.6666666666666666, 0.3333333333333333, 0.0;
    ( 0.2 ) 0.0, 0.4, 0.4, 0.2;
    ( 0.3 ) 0.09090909090909091, 0.18181818181818182, 0.5454545454545454, 0.18181818181818182;
    ( 0.4 ) 0.1111111111111111, 0.3333333333333333, 0.3333333333333333, 0.2222222222222222;
    ( 0.5 ) 0.09090909090909091, 0.45454545454545453, 0.18181818181818182, 0.2727272727272727;
    ( 0.6 ) 0.0, 0.5555555555555556, 0.2222222222222222, 0.2222222222222222;
    ( 0.7 ) 0.125, 0.25, 0.3125, 0.3125;
    ( 0.8 ) 0.20588235294117646, 0.2647058823529412, 0.20588235294117646, 0.3235294117647059;
    ( 0.9 ) 0.18518518518518517, 0.3333333333333333, 0.25925925925925924, 0.2222222222222222;
    ( 1.0 ) 0.18421052631578946, 0.5, 0.23684210526315788, 0.07894736842105263;

}
probability ( SP25 | mean_targeting_efficiency ) {
    ( 0.0 ) 0.3333333333333333, 0.0, 0.3333333333333333, 0.3333333333333333;
    ( 0.1 ) 0.0, 0.3333333333333333, 0.3333333333333333, 0.3333333333333333;
    ( 0.2 ) 0.0, 0.4, 0.6, 0.0;
    ( 0.3 ) 0.09090909090909091, 0.2727272727272727, 0.18181818181818182, 0.45454545454545453;
    ( 0.4 ) 0.2222222222222222, 0.2222222222222222, 0.4444444444444444, 0.1111111111111111;
    ( 0.5 ) 0.09090909090909091, 0.5454545454545454, 0.09090909090909091, 0.2727272727272727;
    ( 0.6 ) 0.2222222222222222, 0.3333333333333333, 0.1111111111111111, 0.3333333333333333;
    ( 0.7 ) 0.125, 0.25, 0.25, 0.375;
    ( 0.8 ) 0.20588235294117646, 0.14705882352941177, 0.4117647058823529, 0.23529411764705882;
    ( 0.9 ) 0.18518518518518517, 0.2777777777777778, 0.35185185185185186, 0.18518518518518517;
    ( 1.0 ) 0.02631578947368421, 0.39473684210526316, 0.5, 0.07894736842105263;

}
probability ( SP26 | mean_targeting_efficiency ) {
    ( 0.0 ) 0.3333333333333333, 0.3333333333333333, 0.3333333333333333, 0.0;
    ( 0.1 ) 0.0, 0.3333333333333333, 0.6666666666666666, 0.0;
    ( 0.2 ) 0.0, 0.0, 0.4, 0.6;
    ( 0.3 ) 0.36363636363636365, 0.2727272727272727, 0.0, 0.36363636363636365;
    ( 0.4 ) 0.3333333333333333, 0.1111111111111111, 0.4444444444444444, 0.1111111111111111;
    ( 0.5 ) 0.2727272727272727, 0.18181818181818182, 0.09090909090909091, 0.45454545454545453;
    ( 0.6 ) 0.1111111111111111, 0.3333333333333333, 0.2222222222222222, 0.3333333333333333;
    ( 0.7 ) 0.0, 0.4375, 0.4375, 0.125;
    ( 0.8 ) 0.29411764705882354, 0.3235294117647059, 0.11764705882352941, 0.2647058823529412;
    ( 0.9 ) 0.2777777777777778, 0.2222222222222222, 0.2037037037037037, 0.2962962962962963;
    ( 1.0 ) 0.15789473684210525, 0.34210526315789475, 0.23684210526315788, 0.2631578947368421;

}
probability ( SP27 | mean_targeting_efficiency ) {
    ( 0.0 ) 0.3333333333333333, 0.3333333333333333, 0.3333333333333333, 0.0;
    ( 0.1 ) 0.3333333333333333, 0.3333333333333333, 0.0, 0.3333333333333333;
    ( 0.2 ) 0.0, 0.6, 0.2, 0.2;
    ( 0.3 ) 0.0, 0.36363636363636365, 0.2727272727272727, 0.36363636363636365;
    ( 0.4 ) 0.2222222222222222, 0.4444444444444444, 0.3333333333333333, 0.0;
    ( 0.5 ) 0.0, 0.36363636363636365, 0.2727272727272727, 0.36363636363636365;
    ( 0.6 ) 0.3333333333333333, 0.4444444444444444, 0.1111111111111111, 0.1111111111111111;
    ( 0.7 ) 0.25, 0.125, 0.375, 0.25;
    ( 0.8 ) 0.2647058823529412, 0.29411764705882354, 0.20588235294117646, 0.23529411764705882;
    ( 0.9 ) 0.16666666666666666, 0.3333333333333333, 0.2777777777777778, 0.2222222222222222;
    ( 1.0 ) 0.05263157894736842, 0.39473684210526316, 0.3157894736842105, 0.23684210526315788;

}
probability ( SP28 | mean_targeting_efficiency ) {
    ( 0.0 ) 0.3333333333333333, 0.0, 0.3333333333333333, 0.3333333333333333;
    ( 0.1 ) 0.0, 0.0, 0.3333333333333333, 0.6666666666666666;
    ( 0.2 ) 0.2, 0.0, 0.8, 0.0;
    ( 0.3 ) 0.0, 0.5454545454545454, 0.18181818181818182, 0.2727272727272727;
    ( 0.4 ) 0.1111111111111111, 0.5555555555555556, 0.2222222222222222, 0.1111111111111111;
    ( 0.5 ) 0.09090909090909091, 0.45454545454545453, 0.45454545454545453, 0.0;
    ( 0.6 ) 0.2222222222222222, 0.2222222222222222, 0.3333333333333333, 0.2222222222222222;
    ( 0.7 ) 0.375, 0.1875, 0.125, 0.3125;
    ( 0.8 ) 0.20588235294117646, 0.20588235294117646, 0.29411764705882354, 0.29411764705882354;
    ( 0.9 ) 0.18518518518518517, 0.2777777777777778, 0.2962962962962963, 0.24074074074074073;
    ( 1.0 ) 0.05263157894736842, 0.42105263157894735, 0.34210526315789475, 0.18421052631578946;

}
probability ( SP29 | mean_targeting_efficiency ) {
    ( 0.0 ) 0.0, 0.3333333333333333, 0.0, 0.6666666666666666;
    ( 0.1 ) 0.0, 0.6666666666666666, 0.0, 0.3333333333333333;
    ( 0.2 ) 0.0, 0.8, 0.2, 0.0;
    ( 0.3 ) 0.09090909090909091, 0.5454545454545454, 0.09090909090909091, 0.2727272727272727;
    ( 0.4 ) 0.2222222222222222, 0.3333333333333333, 0.2222222222222222, 0.2222222222222222;
    ( 0.5 ) 0.36363636363636365, 0.09090909090909091, 0.45454545454545453, 0.09090909090909091;
    ( 0.6 ) 0.0, 0.2222222222222222, 0.4444444444444444, 0.3333333333333333;
    ( 0.7 ) 0.3125, 0.3125, 0.25, 0.125;
    ( 0.8 ) 0.2647058823529412, 0.2647058823529412, 0.23529411764705882, 0.23529411764705882;
    ( 0.9 ) 0.24074074074074073, 0.35185185185185186, 0.2037037037037037, 0.2037037037037037;
    ( 1.0 ) 0.15789473684210525, 0.2631578947368421, 0.21052631578947367, 0.3684210526315789;

}
probability ( SP30 | mean_targeting_efficiency ) {
    ( 0.0 ) 0.3333333333333333, 0.6666666666666666, 0.0, 0.0;
    ( 0.1 ) 0.0, 0.0, 0.6666666666666666, 0.3333333333333333;
    ( 0.2 ) 0.2, 0.6, 0.2, 0.0;
    ( 0.3 ) 0.0, 0.36363636363636365, 0.36363636363636365, 0.2727272727272727;
    ( 0.4 ) 0.1111111111111111, 0.3333333333333333, 0.2222222222222222, 0.3333333333333333;
    ( 0.5 ) 0.09090909090909091, 0.18181818181818182, 0.36363636363636365, 0.36363636363636365;
    ( 0.6 ) 0.2222222222222222, 0.4444444444444444, 0.3333333333333333, 0.0;
    ( 0.7 ) 0.3125, 0.125, 0.4375, 0.125;
    ( 0.8 ) 0.20588235294117646, 0.29411764705882354, 0.20588235294117646, 0.29411764705882354;
    ( 0.9 ) 0.14814814814814814, 0.2222222222222222, 0.2962962962962963, 0.3333333333333333;
    ( 1.0 ) 0.18421052631578946, 0.4473684210526316, 0.13157894736842105, 0.23684210526315788;

}
probability ( mean_targeting_efficiency ) {
    table 0.015544041450777202, 0.015544041450777202, 0.025906735751295335, 0.05699481865284974, 0.046632124352331605, 0.05699481865284974, 0.046632124352331605, 0.08290155440414508, 0.17616580310880828, 0.27979274611398963, 0.19689119170984457 ;
}
probability ( transcript | mean_targeting_efficiency ) {
    ( 0.0 ) 0.0, 0.0, 0.0, 0.0, 0.0, 0.0, 1.0;
    ( 0.1 ) 0.0, 0.0, 0.0, 0.0, 0.3333333333333333, 0.0, 0.6666666666666666;
    ( 0.2 ) 0.2, 0.0, 0.0, 0.0, 0.0, 0.2, 0.6;
    ( 0.3 ) 0.0, 0.0, 0.0, 0.09090909090909091, 0.09090909090909091, 0.18181818181818182, 0.6363636363636364;
    ( 0.4 ) 0.0, 0.0, 0.0, 0.2222222222222222, 0.1111111111111111, 0.1111111111111111, 0.5555555555555556;
    ( 0.5 ) 0.2727272727272727, 0.0, 0.0, 0.0, 0.0, 0.0, 0.7272727272727273;
    ( 0.6 ) 0.3333333333333333, 0.0, 0.0, 0.1111111111111111, 0.1111111111111111, 0.0, 0.4444444444444444;
    ( 0.7 ) 0.3125, 0.0, 0.0, 0.5, 0.0, 0.0625, 0.125;
    ( 0.8 ) 0.17647058823529413, 0.058823529411764705, 0.08823529411764706, 0.38235294117647056, 0.20588235294117646, 0.029411764705882353, 0.058823529411764705;
    ( 0.9 ) 0.2222222222222222, 0.07407407407407407, 0.037037037037037035, 0.4074074074074074, 0.07407407407407407, 0.05555555555555555, 0.12962962962962962;
    ( 1.0 ) 0.05263157894736842, 0.02631578947368421, 0.05263157894736842, 0.02631578947368421, 0.0, 0.18421052631578946, 0.6578947368421053;

}
