<?xml version='1.0' encoding='utf-8'?>
<BIF VERSION="0.3">
  <NETWORK>
    <NAME>UNTITLED</NAME>
    <VARIABLE TYPE="nature">
      <NAME>SP01</NAME>
      <OUTCOME>A</OUTCOME>
      <OUTCOME>C</OUTCOME>
      <OUTCOME>G</OUTCOME>
      <OUTCOME>N</OUTCOME>
      <OUTCOME>T</OUTCOME>
      <PROPERTY />
    </VARIABLE>
    <VARIABLE TYPE="nature">
      <NAME>SP02</NAME>
      <OUTCOME>A</OUTCOME>
      <OUTCOME>C</OUTCOME>
      <OUTCOME>G</OUTCOME>
      <OUTCOME>N</OUTCOME>
      <OUTCOME>T</OUTCOME>
      <PROPERTY />
    </VARIABLE>
    <VARIABLE TYPE="nature">
      <NAME>SP03</NAME>
      <OUTCOME>A</OUTCOME>
      <OUTCOME>C</OUTCOME>
      <OUTCOME>G</OUTCOME>
      <OUTCOME>N</OUTCOME>
      <OUTCOME>T</OUTCOME>
      <PROPERTY />
    </VARIABLE>
    <VARIABLE TYPE="nature">
      <NAME>SP04</NAME>
      <OUTCOME>A</OUTCOME>
      <OUTCOME>C</OUTCOME>
      <OUTCOME>G</OUTCOME>
      <OUTCOME>N</OUTCOME>
      <OUTCOME>T</OUTCOME>
      <PROPERTY />
    </VARIABLE>
    <VARIABLE TYPE="nature">
      <NAME>SP05</NAME>
      <OUTCOME>A</OUTCOME>
      <OUTCOME>C</OUTCOME>
      <OUTCOME>G</OUTCOME>
      <OUTCOME>N</OUTCOME>
      <OUTCOME>T</OUTCOME>
      <PROPERTY />
    </VARIABLE>
    <VARIABLE TYPE="nature">
      <NAME>SP06</NAME>
      <OUTCOME>A</OUTCOME>
      <OUTCOME>C</OUTCOME>
      <OUTCOME>G</OUTCOME>
      <OUTCOME>T</OUTCOME>
      <PROPERTY />
    </VARIABLE>
    <VARIABLE TYPE="nature">
      <NAME>SP07</NAME>
      <OUTCOME>A</OUTCOME>
      <OUTCOME>C</OUTCOME>
      <OUTCOME>G</OUTCOME>
      <OUTCOME>T</OUTCOME>
      <PROPERTY />
    </VARIABLE>
    <VARIABLE TYPE="nature">
      <NAME>SP08</NAME>
      <OUTCOME>A</OUTCOME>
      <OUTCOME>C</OUTCOME>
      <OUTCOME>G</OUTCOME>
      <OUTCOME>T</OUTCOME>
      <PROPERTY />
    </VARIABLE>
    <VARIABLE TYPE="nature">
      <NAME>SP09</NAME>
      <OUTCOME>A</OUTCOME>
      <OUTCOME>C</OUTCOME>
      <OUTCOME>G</OUTCOME>
      <OUTCOME>T</OUTCOME>
      <PROPERTY />
    </VARIABLE>
    <VARIABLE TYPE="nature">
      <NAME>SP10</NAME>
      <OUTCOME>A</OUTCOME>
      <OUTCOME>C</OUTCOME>
      <OUTCOME>G</OUTCOME>
      <OUTCOME>T</OUTCOME>
      <PROPERTY />
    </VARIABLE>
    <VARIABLE TYPE="nature">
      <NAME>SP11</NAME>
      <OUTCOME>A</OUTCOME>
      <OUTCOME>C</OUTCOME>
      <OUTCOME>G</OUTCOME>
      <OUTCOME>T</OUTCOME>
      <PROPERTY />
    </VARIABLE>
    <VARIABLE TYPE="nature">
      <NAME>SP12</NAME>
      <OUTCOME>A</OUTCOME>
      <OUTCOME>C</OUTCOME>
      <OUTCOME>G</OUTCOME>
      <OUTCOME>T</OUTCOME>
      <PROPERTY />
    </VARIABLE>
    <VARIABLE TYPE="nature">
      <NAME>SP13</NAME>
      <OUTCOME>A</OUTCOME>
      <OUTCOME>C</OUTCOME>
      <OUTCOME>G</OUTCOME>
      <OUTCOME>T</OUTCOME>
      <PROPERTY />
    </VARIABLE>
    <VARIABLE TYPE="nature">
      <NAME>SP14</NAME>
      <OUTCOME>A</OUTCOME>
      <OUTCOME>C</OUTCOME>
      <OUTCOME>G</OUTCOME>
      <OUTCOME>T</OUTCOME>
      <PROPERTY />
    </VARIABLE>
    <VARIABLE TYPE="nature">
      <NAME>SP15</NAME>
      <OUTCOME>A</OUTCOME>
      <OUTCOME>C</OUTCOME>
      <OUTCOME>G</OUTCOME>
      <OUTCOME>T</OUTCOME>
      <PROPERTY />
    </VARIABLE>
    <VARIABLE TYPE="nature">
      <NAME>SP16</NAME>
      <OUTCOME>A</OUTCOME>
      <OUTCOME>C</OUTCOME>
      <OUTCOME>G</OUTCOME>
      <OUTCOME>T</OUTCOME>
      <PROPERTY />
    </VARIABLE>
    <VARIABLE TYPE="nature">
      <NAME>SP17</NAME>
      <OUTCOME>A</OUTCOME>
      <OUTCOME>C</OUTCOME>
      <OUTCOME>G</OUTCOME>
      <OUTCOME>T</OUTCOME>
      <PROPERTY />
    </VARIABLE>
    <VARIABLE TYPE="nature">
      <NAME>SP18</NAME>
      <OUTCOME>A</OUTCOME>
      <OUTCOME>C</OUTCOME>
      <OUTCOME>G</OUTCOME>
      <OUTCOME>T</OUTCOME>
      <PROPERTY />
    </VARIABLE>
    <VARIABLE TYPE="nature">
      <NAME>SP19</NAME>
      <OUTCOME>A</OUTCOME>
      <OUTCOME>C</OUTCOME>
      <OUTCOME>G</OUTCOME>
      <OUTCOME>T</OUTCOME>
      <PROPERTY />
    </VARIABLE>
    <VARIABLE TYPE="nature">
      <NAME>SP20</NAME>
      <OUTCOME>A</OUTCOME>
      <OUTCOME>C</OUTCOME>
      <OUTCOME>G</OUTCOME>
      <OUTCOME>T</OUTCOME>
      <PROPERTY />
    </VARIABLE>
    <VARIABLE TYPE="nature">
      <NAME>SP21</NAME>
      <OUTCOME>A</OUTCOME>
      <OUTCOME>C</OUTCOME>
      <OUTCOME>G</OUTCOME>
      <OUTCOME>T</OUTCOME>
      <PROPERTY />
    </VARIABLE>
    <VARIABLE TYPE="nature">
      <NAME>SP22</NAME>
      <OUTCOME>A</OUTCOME>
      <OUTCOME>C</OUTCOME>
      <OUTCOME>G</OUTCOME>
      <OUTCOME>T</OUTCOME>
      <PROPERTY />
    </VARIABLE>
    <VARIABLE TYPE="nature">
      <NAME>SP23</NAME>
      <OUTCOME>A</OUTCOME>
      <OUTCOME>C</OUTCOME>
      <OUTCOME>G</OUTCOME>
      <OUTCOME>T</OUTCOME>
      <PROPERTY />
    </VARIABLE>
    <VARIABLE TYPE="nature">
      <NAME>SP24</NAME>
      <OUTCOME>A</OUTCOME>
      <OUTCOME>C</OUTCOME>
      <OUTCOME>G</OUTCOME>
      <OUTCOME>T</OUTCOME>
      <PROPERTY />
    </VARIABLE>
    <VARIABLE TYPE="nature">
      <NAME>SP25</NAME>
      <OUTCOME>A</OUTCOME>
      <OUTCOME>C</OUTCOME>
      <OUTCOME>G</OUTCOME>
      <OUTCOME>T</OUTCOME>
      <PROPERTY />
    </VARIABLE>
    <VARIABLE TYPE="nature">
      <NAME>SP26</NAME>
      <OUTCOME>A</OUTCOME>
      <OUTCOME>C</OUTCOME>
      <OUTCOME>G</OUTCOME>
      <OUTCOME>T</OUTCOME>
      <PROPERTY />
    </VARIABLE>
    <VARIABLE TYPE="nature">
      <NAME>SP27</NAME>
      <OUTCOME>A</OUTCOME>
      <OUTCOME>C</OUTCOME>
      <OUTCOME>G</OUTCOME>
      <OUTCOME>T</OUTCOME>
      <PROPERTY />
    </VARIABLE>
    <VARIABLE TYPE="nature">
      <NAME>SP28</NAME>
      <OUTCOME>A</OUTCOME>
      <OUTCOME>C</OUTCOME>
      <OUTCOME>G</OUTCOME>
      <OUTCOME>T</OUTCOME>
      <PROPERTY />
    </VARIABLE>
    <VARIABLE TYPE="nature">
      <NAME>SP29</NAME>
      <OUTCOME>A</OUTCOME>
      <OUTCOME>C</OUTCOME>
      <OUTCOME>G</OUTCOME>
      <OUTCOME>N</OUTCOME>
      <OUTCOME>T</OUTCOME>
      <PROPERTY />
    </VARIABLE>
    <VARIABLE TYPE="nature">
      <NAME>SP30</NAME>
      <OUTCOME>A</OUTCOME>
      <OUTCOME>C</OUTCOME>
      <OUTCOME>G</OUTCOME>
      <OUTCOME>N</OUTCOME>
      <OUTCOME>T</OUTCOME>
      <PROPERTY />
    </VARIABLE>
    <VARIABLE TYPE="nature">
      <NAME>SP31</NAME>
      <OUTCOME>A</OUTCOME>
      <OUTCOME>C</OUTCOME>
      <OUTCOME>G</OUTCOME>
      <OUTCOME>N</OUTCOME>
      <OUTCOME>T</OUTCOME>
      <PROPERTY />
    </VARIABLE>
    <VARIABLE TYPE="nature">
      <NAME>SP32</NAME>
      <OUTCOME>A</OUTCOME>
      <OUTCOME>C</OUTCOME>
      <OUTCOME>G</OUTCOME>
      <OUTCOME>N</OUTCOME>
      <OUTCOME>T</OUTCOME>
      <PROPERTY />
    </VARIABLE>
    <VARIABLE TYPE="nature">
      <NAME>SP33</NAME>
      <OUTCOME>A</OUTCOME>
      <OUTCOME>C</OUTCOME>
      <OUTCOME>G</OUTCOME>
      <OUTCOME>N</OUTCOME>
      <OUTCOME>T</OUTCOME>
      <PROPERTY />
    </VARIABLE>
    <VARIABLE TYPE="nature">
      <NAME>log_fold_change</NAME>
      <OUTCOME>_3_0</OUTCOME>
      <OUTCOME>_2_5</OUTCOME>
      <OUTCOME>_2_0</OUTCOME>
      <OUTCOME>_1_5</OUTCOME>
      <OUTCOME>_1_0</OUTCOME>
      <OUTCOME>_0_5</OUTCOME>
      <OUTCOME>0_0</OUTCOME>
      <OUTCOME>0_5</OUTCOME>
      <OUTCOME>1_0</OUTCOME>
      <OUTCOME>1_5</OUTCOME>
      <OUTCOME>2_0</OUTCOME>
      <OUTCOME>3_5</OUTCOME>
      <PROPERTY />
    </VARIABLE>
    <DEFINITION>
      <FOR>SP01</FOR>
      <GIVEN>log_fold_change</GIVEN>
      <TABLE>0.0 1.0 0.0 0.0 0.0 0.3076923076923077 0.3076923076923077 0.23076923076923078 0.0 0.15384615384615385 0.36666666666666664 0.2 0.06666666666666667 0.0 0.36666666666666664 0.3181818181818182 0.17532467532467533 0.2532467532467532 0.0 0.2532467532467532 0.2743142144638404 0.26184538653366585 0.2119700748129676 0.0 0.2518703241895262 0.3212669683257919 0.21380090497737556 0.19004524886877827 0.0 0.2748868778280543 0.3023440603893524 0.2097735399284863 0.1986491855383393 0.0 0.289233214143822 0.3428063943161634 0.1882770870337478 0.1669626998223801 0.0053285968028419185 0.2966252220248668 0.5384615384615384 0.15384615384615385 0.15384615384615385 0.0 0.15384615384615385 0.5 0.0 0.0 0.0 0.5 0.0 0.0 0.0 0.0 1.0 0.0 1.0 0.0 0.0 0.0 </TABLE>
    </DEFINITION>
    <DEFINITION>
      <FOR>SP02</FOR>
      <GIVEN>log_fold_change</GIVEN>
      <TABLE>0.0 0.0 0.0 0.0 1.0 0.07692307692307693 0.3076923076923077 0.23076923076923078 0.0 0.38461538461538464 0.13333333333333333 0.26666666666666666 0.36666666666666664 0.0 0.23333333333333334 0.2922077922077922 0.21428571428571427 0.21428571428571427 0.0 0.2792207792207792 0.2593516209476309 0.22693266832917705 0.22942643391521197 0.0 0.28428927680798005 0.2918552036199095 0.22850678733031674 0.20135746606334842 0.0 0.27828054298642535 0.3174413984902662 0.20381406436233612 0.18911402463249902 0.0 0.2896305125148987 0.3623445825932504 0.16873889875666073 0.16518650088809947 0.0053285968028419185 0.2984014209591474 0.38461538461538464 0.3076923076923077 0.23076923076923078 0.0 0.07692307692307693 0.5 0.5 0.0 0.0 0.0 0.0 0.0 1.0 0.0 0.0 0.0 0.0 0.0 0.0 1.0 </TABLE>
    </DEFINITION>
    <DEFINITION>
      <FOR>SP03</FOR>
      <GIVEN>log_fold_change</GIVEN>
      <TABLE>0.0 0.0 0.0 0.0 1.0 0.46153846153846156 0.23076923076923078 0.15384615384615385 0.0 0.15384615384615385 0.4666666666666667 0.16666666666666666 0.13333333333333333 0.0 0.23333333333333334 0.3181818181818182 0.2077922077922078 0.18181818181818182 0.0 0.2922077922077922 0.26433915211970077 0.2144638403990025 0.2718204488778055 0.0 0.24937655860349128 0.2918552036199095 0.2420814479638009 0.2002262443438914 0.0 0.2658371040723982 0.3110846245530393 0.20381406436233612 0.19268970997218912 0.0 0.2924116011124354 0.33570159857904086 0.216696269982238 0.1989342806394316 0.0053285968028419185 0.2433392539964476 0.38461538461538464 0.23076923076923078 0.0 0.0 0.38461538461538464 0.5 0.5 0.0 0.0 0.0 0.0 1.0 0.0 0.0 0.0 0.0 1.0 0.0 0.0 0.0 </TABLE>
    </DEFINITION>
    <DEFINITION>
      <FOR>SP04</FOR>
      <GIVEN>log_fold_change</GIVEN>
      <TABLE>0.0 0.0 1.0 0.0 0.0 0.38461538461538464 0.07692307692307693 0.38461538461538464 0.0 0.15384615384615385 0.13333333333333333 0.3 0.23333333333333334 0.0 0.3333333333333333 0.22077922077922077 0.23376623376623376 0.24675324675324675 0.0 0.2987012987012987 0.2593516209476309 0.2169576059850374 0.2144638403990025 0.0 0.3092269326683292 0.30995475113122173 0.21266968325791855 0.20701357466063347 0.0 0.2703619909502262 0.3130711164084227 0.1986491855383393 0.19984108065156933 0.0 0.28843861740166865 0.31793960923623443 0.20959147424511546 0.1847246891651865 0.003552397868561279 0.2841918294849023 0.38461538461538464 0.23076923076923078 0.15384615384615385 0.0 0.23076923076923078 0.5 0.0 0.0 0.0 0.5 1.0 0.0 0.0 0.0 0.0 0.0 0.0 0.0 0.0 1.0 </TABLE>
    </DEFINITION>
    <DEFINITION>
      <FOR>SP05</FOR>
      <GIVEN>log_fold_change</GIVEN>
      <TABLE>1.0 0.0 0.0 0.0 0.0 0.46153846153846156 0.15384615384615385 0.0 0.0 0.38461538461538464 0.26666666666666666 0.23333333333333334 0.16666666666666666 0.0 0.3333333333333333 0.2792207792207792 0.18181818181818182 0.22727272727272727 0.0 0.3116883116883117 0.26932668329177056 0.23690773067331672 0.22443890274314215 0.0 0.26932668329177056 0.31108597285067874 0.2319004524886878 0.19683257918552036 0.0 0.26018099547511314 0.30512514898688914 0.19348430671434247 0.1950735001986492 0.0 0.3063170441001192 0.31616341030195383 0.23090586145648312 0.18650088809946713 0.0017761989342806395 0.26465364120781526 0.46153846153846156 0.3076923076923077 0.07692307692307693 0.0 0.15384615384615385 0.5 0.5 0.0 0.0 0.0 0.0 0.0 0.0 0.0 1.0 0.0 0.0 1.0 0.0 0.0 </TABLE>
    </DEFINITION>
    <DEFINITION>
      <FOR>SP06</FOR>
      <GIVEN>log_fold_change</GIVEN>
      <TABLE>0.0 0.0 0.0 1.0 0.38461538461538464 0.23076923076923078 0.23076923076923078 0.15384615384615385 0.3333333333333333 0.3 0.1 0.26666666666666666 0.35714285714285715 0.21428571428571427 0.14285714285714285 0.2857142857142857 0.3192019950124688 0.26683291770573564 0.17206982543640897 0.24189526184538654 0.3382352941176471 0.2420814479638009 0.17760180995475114 0.2420814479638009 0.28287644020659514 0.21255462852602305 0.21652761223678982 0.288041319030592 0.2984014209591474 0.20603907637655416 0.1936056838365897 0.3019538188277087 0.46153846153846156 0.07692307692307693 0.23076923076923078 0.23076923076923078 0.5 0.0 0.0 0.5 0.0 0.0 1.0 0.0 0.0 0.0 0.0 1.0 </TABLE>
    </DEFINITION>
    <DEFINITION>
      <FOR>SP07</FOR>
      <GIVEN>log_fold_change</GIVEN>
      <TABLE>0.0 1.0 0.0 0.0 0.07692307692307693 0.23076923076923078 0.3076923076923077 0.38461538461538464 0.26666666666666666 0.36666666666666664 0.13333333333333333 0.23333333333333334 0.2792207792207792 0.3116883116883117 0.16233766233766234 0.24675324675324675 0.2892768079800499 0.2718204488778055 0.22443890274314215 0.2144638403990025 0.31334841628959276 0.251131221719457 0.17760180995475114 0.2579185520361991 0.3079062375844259 0.20023837902264602 0.21493841875248312 0.27691696464044496 0.33037300177619894 0.17406749555950266 0.20781527531083482 0.2877442273534636 0.3076923076923077 0.0 0.15384615384615385 0.5384615384615384 0.0 0.0 0.5 0.5 1.0 0.0 0.0 0.0 1.0 0.0 0.0 0.0 </TABLE>
    </DEFINITION>
    <DEFINITION>
      <FOR>SP08</FOR>
      <GIVEN>log_fold_change</GIVEN>
      <TABLE>0.0 1.0 0.0 0.0 0.3076923076923077 0.3076923076923077 0.15384615384615385 0.23076923076923078 0.4 0.3333333333333333 0.06666666666666667 0.2 0.37662337662337664 0.24025974025974026 0.16883116883116883 0.21428571428571427 0.32169576059850374 0.2518703241895262 0.15211970074812967 0.2743142144638404 0.3088235294117647 0.24660633484162897 0.17873303167420815 0.2658371040723982 0.3007548669050457 0.21613031386571316 0.22367898291617005 0.2594358363130711 0.2984014209591474 0.20603907637655416 0.1989342806394316 0.2966252220248668 0.15384615384615385 0.07692307692307693 0.38461538461538464 0.38461538461538464 0.5 0.0 0.0 0.5 1.0 0.0 0.0 0.0 0.0 0.0 0.0 1.0 </TABLE>
    </DEFINITION>
    <DEFINITION>
      <FOR>SP09</FOR>
      <GIVEN>log_fold_change</GIVEN>
      <TABLE>1.0 0.0 0.0 0.0 0.46153846153846156 0.3076923076923077 0.07692307692307693 0.15384615384615385 0.23333333333333334 0.23333333333333334 0.36666666666666664 0.16666666666666666 0.38961038961038963 0.23376623376623376 0.2077922077922078 0.16883116883116883 0.33665835411471323 0.2144638403990025 0.22942643391521197 0.2194513715710723 0.32918552036199095 0.2239819004524887 0.18891402714932126 0.2579185520361991 0.2888359157727453 0.21613031386571316 0.2189114024632499 0.27612236789829164 0.3108348134991119 0.22380106571936056 0.1847246891651865 0.28063943161634103 0.15384615384615385 0.3076923076923077 0.23076923076923078 0.3076923076923077 1.0 0.0 0.0 0.0 0.0 0.0 1.0 0.0 0.0 0.0 0.0 1.0 </TABLE>
    </DEFINITION>
    <DEFINITION>
      <FOR>SP10</FOR>
      <GIVEN>log_fold_change</GIVEN>
      <TABLE>0.0 0.0 0.0 1.0 0.38461538461538464 0.15384615384615385 0.23076923076923078 0.23076923076923078 0.23333333333333334 0.23333333333333334 0.23333333333333334 0.3 0.37012987012987014 0.2987012987012987 0.15584415584415584 0.17532467532467533 0.30174563591022446 0.2169576059850374 0.24438902743142144 0.23690773067331672 0.3054298642533937 0.24660633484162897 0.21380090497737556 0.2341628959276018 0.2932061978545888 0.22288438617401668 0.2097735399284863 0.27413587604290823 0.3339253996447602 0.23268206039076378 0.1811722912966252 0.2522202486678508 0.46153846153846156 0.15384615384615385 0.15384615384615385 0.23076923076923078 0.5 0.0 0.5 0.0 1.0 0.0 0.0 0.0 0.0 0.0 1.0 0.0 </TABLE>
    </DEFINITION>
    <DEFINITION>
      <FOR>SP11</FOR>
      <GIVEN>log_fold_change</GIVEN>
      <TABLE>0.0 1.0 0.0 0.0 0.23076923076923078 0.3076923076923077 0.15384615384615385 0.3076923076923077 0.26666666666666666 0.3333333333333333 0.1 0.3 0.35064935064935066 0.21428571428571427 0.16883116883116883 0.2662337662337662 0.2718204488778055 0.2718204488778055 0.17206982543640897 0.28428927680798005 0.31334841628959276 0.25339366515837103 0.17986425339366516 0.25339366515837103 0.3059197457290425 0.20460866110448947 0.22725466825586016 0.2622169249106079 0.33037300177619894 0.2024866785079929 0.2024866785079929 0.26465364120781526 0.07692307692307693 0.0 0.15384615384615385 0.7692307692307693 0.0 0.5 0.5 0.0 1.0 0.0 0.0 0.0 0.0 0.0 1.0 0.0 </TABLE>
    </DEFINITION>
    <DEFINITION>
      <FOR>SP12</FOR>
      <GIVEN>log_fold_change</GIVEN>
      <TABLE>1.0 0.0 0.0 0.0 0.38461538461538464 0.3076923076923077 0.07692307692307693 0.23076923076923078 0.3333333333333333 0.23333333333333334 0.13333333333333333 0.3 0.3051948051948052 0.2077922077922078 0.22077922077922077 0.2662337662337662 0.314214463840399 0.22194513715710723 0.19201995012468828 0.2718204488778055 0.2861990950226244 0.2341628959276018 0.2171945701357466 0.26244343891402716 0.30909813269765596 0.22646007151370678 0.2061978545887962 0.25824394119984106 0.26287744227353466 0.21314387211367672 0.2113676731793961 0.31261101243339257 0.3076923076923077 0.15384615384615385 0.23076923076923078 0.3076923076923077 1.0 0.0 0.0 0.0 1.0 0.0 0.0 0.0 0.0 0.0 0.0 1.0 </TABLE>
    </DEFINITION>
    <DEFINITION>
      <FOR>SP13</FOR>
      <GIVEN>log_fold_change</GIVEN>
      <TABLE>0.0 0.0 0.0 1.0 0.38461538461538464 0.15384615384615385 0.07692307692307693 0.38461538461538464 0.3 0.2 0.23333333333333334 0.26666666666666666 0.2727272727272727 0.21428571428571427 0.24675324675324675 0.2662337662337662 0.32917705735660846 0.22443890274314215 0.2119700748129676 0.2344139650872818 0.27714932126696834 0.24547511312217193 0.21153846153846154 0.2658371040723982 0.30711164084227255 0.22526817640047675 0.21493841875248312 0.2526817640047676 0.31261101243339257 0.22380106571936056 0.1811722912966252 0.2824156305506217 0.46153846153846156 0.23076923076923078 0.0 0.3076923076923077 0.5 0.0 0.0 0.5 1.0 0.0 0.0 0.0 0.0 0.0 0.0 1.0 </TABLE>
    </DEFINITION>
    <DEFINITION>
      <FOR>SP14</FOR>
      <GIVEN>log_fold_change</GIVEN>
      <TABLE>0.0 0.0 0.0 1.0 0.46153846153846156 0.15384615384615385 0.23076923076923078 0.15384615384615385 0.4 0.2 0.16666666666666666 0.23333333333333334 0.33116883116883117 0.22727272727272727 0.22727272727272727 0.21428571428571427 0.29177057356608477 0.24688279301745636 0.1770573566084788 0.28428927680798005 0.2816742081447964 0.26018099547511314 0.2002262443438914 0.2579185520361991 0.2995629717918157 0.21930870083432658 0.2173222089789432 0.2638061183949146 0.3285968028419183 0.19538188277087035 0.18294849023090587 0.29307282415630553 0.46153846153846156 0.15384615384615385 0.15384615384615385 0.23076923076923078 0.5 0.5 0.0 0.0 0.0 0.0 0.0 1.0 0.0 1.0 0.0 0.0 </TABLE>
    </DEFINITION>
    <DEFINITION>
      <FOR>SP15</FOR>
      <GIVEN>log_fold_change</GIVEN>
      <TABLE>0.0 1.0 0.0 0.0 0.3076923076923077 0.23076923076923078 0.15384615384615385 0.3076923076923077 0.36666666666666664 0.26666666666666666 0.1 0.26666666666666666 0.3246753246753247 0.17532467532467533 0.21428571428571427 0.2857142857142857 0.30673316708229426 0.22443890274314215 0.22443890274314215 0.24438902743142144 0.3065610859728507 0.24547511312217193 0.18778280542986425 0.26018099547511314 0.2943980929678188 0.21811680572109654 0.2189114024632499 0.2685736988478347 0.3108348134991119 0.22380106571936056 0.20959147424511546 0.2557726465364121 0.46153846153846156 0.15384615384615385 0.15384615384615385 0.23076923076923078 0.5 0.5 0.0 0.0 0.0 0.0 0.0 1.0 1.0 0.0 0.0 0.0 </TABLE>
    </DEFINITION>
    <DEFINITION>
      <FOR>SP16</FOR>
      <GIVEN>log_fold_change</GIVEN>
      <TABLE>0.0 0.0 0.0 1.0 0.3076923076923077 0.07692307692307693 0.23076923076923078 0.38461538461538464 0.3 0.16666666666666666 0.23333333333333334 0.3 0.2987012987012987 0.18831168831168832 0.19480519480519481 0.3181818181818182 0.2793017456359102 0.22194513715710723 0.23192019950124687 0.26683291770573564 0.27828054298642535 0.2398190045248869 0.2081447963800905 0.2737556561085973 0.29797377830750893 0.22685736988478347 0.21255462852602305 0.26261422328168454 0.3268206039076377 0.1847246891651865 0.20781527531083482 0.28063943161634103 0.5384615384615384 0.15384615384615385 0.07692307692307693 0.23076923076923078 0.5 0.0 0.0 0.5 1.0 0.0 0.0 0.0 0.0 0.0 1.0 0.0 </TABLE>
    </DEFINITION>
    <DEFINITION>
      <FOR>SP17</FOR>
      <GIVEN>log_fold_change</GIVEN>
      <TABLE>0.0 0.0 1.0 0.0 0.38461538461538464 0.23076923076923078 0.07692307692307693 0.3076923076923077 0.2 0.13333333333333333 0.3 0.36666666666666664 0.37662337662337664 0.22077922077922077 0.16883116883116883 0.23376623376623376 0.3092269326683292 0.20199501246882792 0.2194513715710723 0.26932668329177056 0.29298642533936653 0.2251131221719457 0.21040723981900453 0.27149321266968324 0.300357568533969 0.22765196662693682 0.21215733015494637 0.2598331346841478 0.32149200710479575 0.20959147424511546 0.19182948490230906 0.27708703374777977 0.3076923076923077 0.3076923076923077 0.15384615384615385 0.23076923076923078 0.5 0.0 0.5 0.0 0.0 0.0 0.0 1.0 1.0 0.0 0.0 0.0 </TABLE>
    </DEFINITION>
    <DEFINITION>
      <FOR>SP18</FOR>
      <GIVEN>log_fold_change</GIVEN>
      <TABLE>1.0 0.0 0.0 0.0 0.23076923076923078 0.23076923076923078 0.15384615384615385 0.38461538461538464 0.2 0.23333333333333334 0.2 0.36666666666666664 0.3116883116883117 0.18831168831168832 0.2597402597402597 0.24025974025974026 0.29925187032418954 0.20698254364089774 0.18703241895261846 0.30673316708229426 0.2647058823529412 0.22171945701357465 0.23642533936651583 0.27714932126696834 0.3079062375844259 0.22924116011124354 0.20500595947556616 0.2578466428287644 0.32149200710479575 0.22735346358792186 0.17584369449378331 0.2753108348134991 0.46153846153846156 0.23076923076923078 0.15384615384615385 0.15384615384615385 0.0 0.5 0.0 0.5 0.0 0.0 1.0 0.0 0.0 0.0 0.0 1.0 </TABLE>
    </DEFINITION>
    <DEFINITION>
      <FOR>SP19</FOR>
      <GIVEN>log_fold_change</GIVEN>
      <TABLE>1.0 0.0 0.0 0.0 0.23076923076923078 0.15384615384615385 0.38461538461538464 0.23076923076923078 0.3 0.26666666666666666 0.23333333333333334 0.2 0.24025974025974026 0.18181818181818182 0.23376623376623376 0.34415584415584416 0.27680798004987534 0.20947630922693267 0.2743142144638404 0.23940149625935161 0.2861990950226244 0.2341628959276018 0.22963800904977374 0.25 0.3118792212951927 0.22765196662693682 0.19944378228049264 0.26102502979737785 0.3463587921847247 0.22380106571936056 0.16518650088809947 0.26465364120781526 0.5384615384615384 0.15384615384615385 0.15384615384615385 0.15384615384615385 0.0 0.0 0.5 0.5 0.0 0.0 1.0 0.0 0.0 1.0 0.0 0.0 </TABLE>
    </DEFINITION>
    <DEFINITION>
      <FOR>SP20</FOR>
      <GIVEN>log_fold_change</GIVEN>
      <TABLE>0.0 1.0 0.0 0.0 0.23076923076923078 0.15384615384615385 0.38461538461538464 0.23076923076923078 0.43333333333333335 0.16666666666666666 0.2 0.2 0.2727272727272727 0.17532467532467533 0.33116883116883117 0.22077922077922077 0.2144638403990025 0.24438902743142144 0.2892768079800499 0.2518703241895262 0.29298642533936653 0.2398190045248869 0.22624434389140272 0.2409502262443439 0.3134684147794994 0.21811680572109654 0.1875248311481923 0.2808899483512118 0.3339253996447602 0.21314387211367672 0.15097690941385436 0.3019538188277087 0.23076923076923078 0.23076923076923078 0.07692307692307693 0.46153846153846156 0.5 0.0 0.5 0.0 0.0 0.0 1.0 0.0 0.0 1.0 0.0 0.0 </TABLE>
    </DEFINITION>
    <DEFINITION>
      <FOR>SP21</FOR>
      <GIVEN>log_fold_change</GIVEN>
      <TABLE>0.0 0.0 0.0 1.0 0.15384615384615385 0.15384615384615385 0.46153846153846156 0.23076923076923078 0.3333333333333333 0.16666666666666666 0.4 0.1 0.2792207792207792 0.2792207792207792 0.3116883116883117 0.12987012987012986 0.27680798004987534 0.23690773067331672 0.2817955112219451 0.20448877805486285 0.2839366515837104 0.24434389140271492 0.24660633484162897 0.2251131221719457 0.30870083432657924 0.22248708780294002 0.1907032181168057 0.278108859753675 0.3268206039076377 0.1989342806394316 0.15985790408525755 0.31438721136767317 0.23076923076923078 0.23076923076923078 0.07692307692307693 0.46153846153846156 0.5 0.0 0.5 0.0 1.0 0.0 0.0 0.0 0.0 1.0 0.0 0.0 </TABLE>
    </DEFINITION>
    <DEFINITION>
      <FOR>SP22</FOR>
      <GIVEN>log_fold_change</GIVEN>
      <TABLE>0.0 0.0 1.0 0.0 0.3076923076923077 0.38461538461538464 0.07692307692307693 0.23076923076923078 0.23333333333333334 0.36666666666666664 0.26666666666666666 0.13333333333333333 0.21428571428571427 0.2662337662337662 0.2662337662337662 0.2532467532467532 0.26184538653366585 0.2543640897755611 0.29177057356608477 0.19201995012468828 0.29411764705882354 0.2409502262443439 0.251131221719457 0.21380090497737556 0.31624950337703617 0.20460866110448947 0.19785458879618595 0.28128724672228844 0.31261101243339257 0.2113676731793961 0.16518650088809947 0.3108348134991119 0.46153846153846156 0.0 0.07692307692307693 0.46153846153846156 0.0 0.0 1.0 0.0 1.0 0.0 0.0 0.0 0.0 0.0 0.0 1.0 </TABLE>
    </DEFINITION>
    <DEFINITION>
      <FOR>SP23</FOR>
      <GIVEN>log_fold_change</GIVEN>
      <TABLE>0.0 1.0 0.0 0.0 0.3076923076923077 0.38461538461538464 0.23076923076923078 0.07692307692307693 0.26666666666666666 0.16666666666666666 0.36666666666666664 0.2 0.23376623376623376 0.33116883116883117 0.2857142857142857 0.14935064935064934 0.256857855361596 0.2892768079800499 0.2543640897755611 0.19950124688279303 0.26244343891402716 0.25678733031674206 0.2341628959276018 0.24660633484162897 0.31505760826380613 0.20460866110448947 0.19745729042510926 0.28287644020659514 0.35879218472468916 0.1882770870337478 0.15452930728241562 0.2984014209591474 0.3076923076923077 0.07692307692307693 0.07692307692307693 0.5384615384615384 0.5 0.0 0.0 0.5 1.0 0.0 0.0 0.0 0.0 1.0 0.0 0.0 </TABLE>
    </DEFINITION>
    <DEFINITION>
      <FOR>SP24</FOR>
      <GIVEN>log_fold_change</GIVEN>
      <TABLE>0.0 1.0 0.0 0.0 0.23076923076923078 0.5384615384615384 0.07692307692307693 0.15384615384615385 0.13333333333333333 0.4 0.3 0.16666666666666666 0.22727272727272727 0.42207792207792205 0.17532467532467533 0.17532467532467533 0.2593516209476309 0.30423940149625933 0.24189526184538654 0.19451371571072318 0.25339366515837103 0.27601809954751133 0.2420814479638009 0.22850678733031674 0.310290027810886 0.1911005164878824 0.21176003178386968 0.28684942391736196 0.3463587921847247 0.16873889875666073 0.17761989342806395 0.30728241563055064 0.3076923076923077 0.23076923076923078 0.23076923076923078 0.23076923076923078 0.0 0.0 0.0 1.0 0.0 1.0 0.0 0.0 1.0 0.0 0.0 0.0 </TABLE>
    </DEFINITION>
    <DEFINITION>
      <FOR>SP25</FOR>
      <GIVEN>log_fold_change</GIVEN>
      <TABLE>1.0 0.0 0.0 0.0 0.15384615384615385 0.5384615384615384 0.23076923076923078 0.07692307692307693 0.3 0.3333333333333333 0.16666666666666666 0.2 0.24675324675324675 0.4155844155844156 0.15584415584415584 0.18181818181818182 0.2119700748129676 0.32418952618453867 0.2119700748129676 0.2518703241895262 0.2737556561085973 0.27828054298642535 0.18552036199095023 0.26244343891402716 0.30870083432657924 0.1855383392928089 0.2280492649980135 0.27771156138259834 0.3872113676731794 0.14564831261101244 0.1936056838365897 0.27353463587921845 0.23076923076923078 0.23076923076923078 0.23076923076923078 0.3076923076923077 0.0 0.0 0.5 0.5 1.0 0.0 0.0 0.0 0.0 1.0 0.0 0.0 </TABLE>
    </DEFINITION>
    <DEFINITION>
      <FOR>SP26</FOR>
      <GIVEN>log_fold_change</GIVEN>
      <TABLE>0.0 1.0 0.0 0.0 0.07692307692307693 0.3076923076923077 0.23076923076923078 0.38461538461538464 0.26666666666666666 0.2 0.3333333333333333 0.2 0.2012987012987013 0.37012987012987014 0.2012987012987013 0.22727272727272727 0.2344139650872818 0.35910224438902744 0.20448877805486285 0.20199501246882792 0.25339366515837103 0.26244343891402716 0.2228506787330317 0.26131221719457015 0.30512514898688914 0.19348430671434247 0.2093762415574096 0.29201430274135876 0.3623445825932504 0.14209591474245115 0.19538188277087035 0.30017761989342806 0.46153846153846156 0.0 0.23076923076923078 0.3076923076923077 0.0 0.5 0.5 0.0 0.0 1.0 0.0 0.0 1.0 0.0 0.0 0.0 </TABLE>
    </DEFINITION>
    <DEFINITION>
      <FOR>SP27</FOR>
      <GIVEN>log_fold_change</GIVEN>
      <TABLE>1.0 0.0 0.0 0.0 0.3076923076923077 0.23076923076923078 0.38461538461538464 0.07692307692307693 0.16666666666666666 0.3 0.26666666666666666 0.26666666666666666 0.2532467532467532 0.2662337662337662 0.2532467532467532 0.22727272727272727 0.2518703241895262 0.27680798004987534 0.2593516209476309 0.2119700748129676 0.25452488687782804 0.25904977375565613 0.22850678733031674 0.2579185520361991 0.300357568533969 0.21771950735001985 0.20063567739372268 0.28128724672228844 0.4067495559502664 0.12966252220248667 0.17229129662522202 0.2912966252220249 0.5384615384615384 0.07692307692307693 0.15384615384615385 0.23076923076923078 0.5 0.5 0.0 0.0 0.0 0.0 0.0 1.0 1.0 0.0 0.0 0.0 </TABLE>
    </DEFINITION>
    <DEFINITION>
      <FOR>SP28</FOR>
      <GIVEN>log_fold_change</GIVEN>
      <TABLE>0.0 1.0 0.0 0.0 0.07692307692307693 0.23076923076923078 0.38461538461538464 0.3076923076923077 0.2 0.16666666666666666 0.36666666666666664 0.26666666666666666 0.24025974025974026 0.2597402597402597 0.2597402597402597 0.24025974025974026 0.2144638403990025 0.256857855361596 0.24688279301745636 0.2817955112219451 0.2839366515837104 0.2251131221719457 0.23868778280542988 0.252262443438914 0.3063170441001192 0.22010329757647992 0.1875248311481923 0.2860548271752086 0.33747779751332146 0.1882770870337478 0.17229129662522202 0.3019538188277087 0.46153846153846156 0.07692307692307693 0.07692307692307693 0.38461538461538464 0.5 0.0 0.5 0.0 0.0 0.0 1.0 0.0 1.0 0.0 0.0 0.0 </TABLE>
    </DEFINITION>
    <DEFINITION>
      <FOR>SP29</FOR>
      <GIVEN>log_fold_change</GIVEN>
      <TABLE>1.0 0.0 0.0 0.0 0.0 0.23076923076923078 0.38461538461538464 0.0 0.0 0.38461538461538464 0.3333333333333333 0.1 0.13333333333333333 0.0 0.43333333333333335 0.33766233766233766 0.19480519480519481 0.18831168831168832 0.0 0.2792207792207792 0.2817955112219451 0.20947630922693267 0.2144638403990025 0.0 0.2942643391521197 0.2703619909502262 0.22737556561085973 0.19457013574660634 0.0 0.3076923076923077 0.2912197059992054 0.21771950735001985 0.2022248708780294 0.0003972983710766786 0.28843861740166865 0.3197158081705151 0.19182948490230906 0.21492007104795738 0.0 0.27353463587921845 0.46153846153846156 0.15384615384615385 0.15384615384615385 0.0 0.23076923076923078 0.0 0.0 1.0 0.0 0.0 0.0 0.0 0.0 0.0 1.0 0.0 0.0 0.0 0.0 1.0 </TABLE>
    </DEFINITION>
    <DEFINITION>
      <FOR>SP30</FOR>
      <GIVEN>log_fold_change</GIVEN>
      <TABLE>0.0 0.0 1.0 0.0 0.0 0.23076923076923078 0.0 0.07692307692307693 0.0 0.6923076923076923 0.4 0.03333333333333333 0.2 0.0 0.36666666666666664 0.3246753246753247 0.18181818181818182 0.21428571428571427 0.0 0.2792207792207792 0.26433915211970077 0.20448877805486285 0.19201995012468828 0.0 0.33915211970074816 0.2907239819004525 0.20701357466063347 0.20475113122171945 0.0 0.29751131221719457 0.29400079459674217 0.21533571712355978 0.21056813667063964 0.0007945967421533572 0.27930075486690503 0.2877442273534636 0.23090586145648312 0.2202486678507993 0.0 0.261101243339254 0.5384615384615384 0.07692307692307693 0.07692307692307693 0.0 0.3076923076923077 1.0 0.0 0.0 0.0 0.0 0.0 0.0 0.0 0.0 1.0 0.0 0.0 1.0 0.0 0.0 </TABLE>
    </DEFINITION>
    <DEFINITION>
      <FOR>SP31</FOR>
      <GIVEN>log_fold_change</GIVEN>
      <TABLE>1.0 0.0 0.0 0.0 0.0 0.23076923076923078 0.15384615384615385 0.46153846153846156 0.0 0.15384615384615385 0.4 0.1 0.06666666666666667 0.0 0.43333333333333335 0.3246753246753247 0.21428571428571427 0.12987012987012986 0.0 0.33116883116883117 0.3117206982543641 0.22693266832917705 0.20947630922693267 0.0 0.2518703241895262 0.29638009049773756 0.22737556561085973 0.19343891402714933 0.0 0.2828054298642534 0.29201430274135876 0.21573301549463647 0.2097735399284863 0.0015891934843067143 0.2808899483512118 0.2841918294849023 0.20603907637655416 0.1882770870337478 0.0 0.32149200710479575 0.38461538461538464 0.38461538461538464 0.15384615384615385 0.0 0.07692307692307693 0.5 0.0 0.0 0.0 0.5 0.0 1.0 0.0 0.0 0.0 1.0 0.0 0.0 0.0 0.0 </TABLE>
    </DEFINITION>
    <DEFINITION>
      <FOR>SP32</FOR>
      <GIVEN>log_fold_change</GIVEN>
      <TABLE>1.0 0.0 0.0 0.0 0.0 0.38461538461538464 0.0 0.38461538461538464 0.0 0.23076923076923078 0.2 0.26666666666666666 0.1 0.0 0.43333333333333335 0.38311688311688313 0.17532467532467533 0.18831168831168832 0.0 0.2532467532467532 0.3316708229426434 0.20947630922693267 0.17955112219451372 0.0 0.2793017456359102 0.2579185520361991 0.2319004524886878 0.2002262443438914 0.0 0.30995475113122173 0.3007548669050457 0.20858164481525626 0.20897894318633295 0.0015891934843067143 0.2800953516090584 0.3037300177619893 0.20603907637655416 0.20781527531083482 0.0 0.2824156305506217 0.3076923076923077 0.15384615384615385 0.15384615384615385 0.0 0.38461538461538464 0.0 0.5 0.0 0.0 0.5 0.0 1.0 0.0 0.0 0.0 1.0 0.0 0.0 0.0 0.0 </TABLE>
    </DEFINITION>
    <DEFINITION>
      <FOR>SP33</FOR>
      <GIVEN>log_fold_change</GIVEN>
      <TABLE>0.0 0.0 1.0 0.0 0.0 0.3076923076923077 0.15384615384615385 0.3076923076923077 0.0 0.23076923076923078 0.3333333333333333 0.2 0.06666666666666667 0.0 0.4 0.2922077922077922 0.19480519480519481 0.23376623376623376 0.0 0.2792207792207792 0.26433915211970077 0.23690773067331672 0.22443890274314215 0.0 0.2743142144638404 0.2703619909502262 0.22737556561085973 0.19909502262443438 0.0 0.3031674208144796 0.29757647993643227 0.21970599920540326 0.21255462852602305 0.0023837902264600714 0.26777910210568134 0.31438721136767317 0.20426287744227353 0.17229129662522202 0.0 0.30905861456483125 0.38461538461538464 0.23076923076923078 0.23076923076923078 0.0 0.15384615384615385 1.0 0.0 0.0 0.0 0.0 0.0 1.0 0.0 0.0 0.0 1.0 0.0 0.0 0.0 0.0 </TABLE>
    </DEFINITION>
    <DEFINITION>
      <FOR>log_fold_change</FOR>
      <TABLE>0.0002183406113537118 0.0028384279475982535 0.006550218340611353 0.033624454148471615 0.08755458515283843 0.1930131004366812 0.5495633187772926 0.12292576419213974 0.0028384279475982535 0.0004366812227074236 0.0002183406113537118 0.0002183406113537118 </TABLE>
    </DEFINITION>
  </NETWORK>
</BIF>
