<?xml version='1.0' encoding='utf-8'?>
<BIF VERSION="0.3">
  <NETWORK>
    <NAME>UNTITLED</NAME>
    <VARIABLE TYPE="nature">
      <NAME>SP01</NAME>
      <OUTCOME>A</OUTCOME>
      <OUTCOME>C</OUTCOME>
      <OUTCOME>G</OUTCOME>
      <OUTCOME>N</OUTCOME>
      <OUTCOME>T</OUTCOME>
      <PROPERTY />
    </VARIABLE>
    <VARIABLE TYPE="nature">
      <NAME>SP02</NAME>
      <OUTCOME>A</OUTCOME>
      <OUTCOME>C</OUTCOME>
      <OUTCOME>G</OUTCOME>
      <OUTCOME>N</OUTCOME>
      <OUTCOME>T</OUTCOME>
      <PROPERTY />
    </VARIABLE>
    <VARIABLE TYPE="nature">
      <NAME>SP03</NAME>
      <OUTCOME>A</OUTCOME>
      <OUTCOME>C</OUTCOME>
      <OUTCOME>G</OUTCOME>
      <OUTCOME>N</OUTCOME>
      <OUTCOME>T</OUTCOME>
      <PROPERTY />
    </VARIABLE>
    <VARIABLE TYPE="nature">
      <NAME>SP04</NAME>
      <OUTCOME>A</OUTCOME>
      <OUTCOME>C</OUTCOME>
      <OUTCOME>G</OUTCOME>
      <OUTCOME>N</OUTCOME>
      <OUTCOME>T</OUTCOME>
      <PROPERTY />
    </VARIABLE>
    <VARIABLE TYPE="nature">
      <NAME>SP05</NAME>
      <OUTCOME>A</OUTCOME>
      <OUTCOME>C</OUTCOME>
      <OUTCOME>G</OUTCOME>
      <OUTCOME>N</OUTCOME>
      <OUTCOME>T</OUTCOME>
      <PROPERTY />
    </VARIABLE>
    <VARIABLE TYPE="nature">
      <NAME>SP06</NAME>
      <OUTCOME>A</OUTCOME>
      <OUTCOME>C</OUTCOME>
      <OUTCOME>G</OUTCOME>
      <OUTCOME>T</OUTCOME>
      <PROPERTY />
    </VARIABLE>
    <VARIABLE TYPE="nature">
      <NAME>SP07</NAME>
      <OUTCOME>A</OUTCOME>
      <OUTCOME>C</OUTCOME>
      <OUTCOME>G</OUTCOME>
      <OUTCOME>T</OUTCOME>
      <PROPERTY />
    </VARIABLE>
    <VARIABLE TYPE="nature">
      <NAME>SP08</NAME>
      <OUTCOME>A</OUTCOME>
      <OUTCOME>C</OUTCOME>
      <OUTCOME>G</OUTCOME>
      <OUTCOME>T</OUTCOME>
      <PROPERTY />
    </VARIABLE>
    <VARIABLE TYPE="nature">
      <NAME>SP09</NAME>
      <OUTCOME>A</OUTCOME>
      <OUTCOME>C</OUTCOME>
      <OUTCOME>G</OUTCOME>
      <OUTCOME>T</OUTCOME>
      <PROPERTY />
    </VARIABLE>
    <VARIABLE TYPE="nature">
      <NAME>SP10</NAME>
      <OUTCOME>A</OUTCOME>
      <OUTCOME>C</OUTCOME>
      <OUTCOME>G</OUTCOME>
      <OUTCOME>T</OUTCOME>
      <PROPERTY />
    </VARIABLE>
    <VARIABLE TYPE="nature">
      <NAME>SP11</NAME>
      <OUTCOME>A</OUTCOME>
      <OUTCOME>C</OUTCOME>
      <OUTCOME>G</OUTCOME>
      <OUTCOME>T</OUTCOME>
      <PROPERTY />
    </VARIABLE>
    <VARIABLE TYPE="nature">
      <NAME>SP12</NAME>
      <OUTCOME>A</OUTCOME>
      <OUTCOME>C</OUTCOME>
      <OUTCOME>G</OUTCOME>
      <OUTCOME>T</OUTCOME>
      <PROPERTY />
    </VARIABLE>
    <VARIABLE TYPE="nature">
      <NAME>SP13</NAME>
      <OUTCOME>A</OUTCOME>
      <OUTCOME>C</OUTCOME>
      <OUTCOME>G</OUTCOME>
      <OUTCOME>T</OUTCOME>
      <PROPERTY />
    </VARIABLE>
    <VARIABLE TYPE="nature">
      <NAME>SP14</NAME>
      <OUTCOME>A</OUTCOME>
      <OUTCOME>C</OUTCOME>
      <OUTCOME>G</OUTCOME>
      <OUTCOME>T</OUTCOME>
      <PROPERTY />
    </VARIABLE>
    <VARIABLE TYPE="nature">
      <NAME>SP15</NAME>
      <OUTCOME>A</OUTCOME>
      <OUTCOME>C</OUTCOME>
      <OUTCOME>G</OUTCOME>
      <OUTCOME>T</OUTCOME>
      <PROPERTY />
    </VARIABLE>
    <VARIABLE TYPE="nature">
      <NAME>SP16</NAME>
      <OUTCOME>A</OUTCOME>
      <OUTCOME>C</OUTCOME>
      <OUTCOME>G</OUTCOME>
      <OUTCOME>T</OUTCOME>
      <PROPERTY />
    </VARIABLE>
    <VARIABLE TYPE="nature">
      <NAME>SP17</NAME>
      <OUTCOME>A</OUTCOME>
      <OUTCOME>C</OUTCOME>
      <OUTCOME>G</OUTCOME>
      <OUTCOME>T</OUTCOME>
      <PROPERTY />
    </VARIABLE>
    <VARIABLE TYPE="nature">
      <NAME>SP18</NAME>
      <OUTCOME>A</OUTCOME>
      <OUTCOME>C</OUTCOME>
      <OUTCOME>G</OUTCOME>
      <OUTCOME>T</OUTCOME>
      <PROPERTY />
    </VARIABLE>
    <VARIABLE TYPE="nature">
      <NAME>SP19</NAME>
      <OUTCOME>A</OUTCOME>
      <OUTCOME>C</OUTCOME>
      <OUTCOME>G</OUTCOME>
      <OUTCOME>T</OUTCOME>
      <PROPERTY />
    </VARIABLE>
    <VARIABLE TYPE="nature">
      <NAME>SP20</NAME>
      <OUTCOME>A</OUTCOME>
      <OUTCOME>C</OUTCOME>
      <OUTCOME>G</OUTCOME>
      <OUTCOME>T</OUTCOME>
      <PROPERTY />
    </VARIABLE>
    <VARIABLE TYPE="nature">
      <NAME>SP21</NAME>
      <OUTCOME>A</OUTCOME>
      <OUTCOME>C</OUTCOME>
      <OUTCOME>G</OUTCOME>
      <OUTCOME>T</OUTCOME>
      <PROPERTY />
    </VARIABLE>
    <VARIABLE TYPE="nature">
      <NAME>SP22</NAME>
      <OUTCOME>A</OUTCOME>
      <OUTCOME>C</OUTCOME>
      <OUTCOME>G</OUTCOME>
      <OUTCOME>T</OUTCOME>
      <PROPERTY />
    </VARIABLE>
    <VARIABLE TYPE="nature">
      <NAME>SP23</NAME>
      <OUTCOME>A</OUTCOME>
      <OUTCOME>C</OUTCOME>
      <OUTCOME>G</OUTCOME>
      <OUTCOME>T</OUTCOME>
      <PROPERTY />
    </VARIABLE>
    <VARIABLE TYPE="nature">
      <NAME>SP24</NAME>
      <OUTCOME>A</OUTCOME>
      <OUTCOME>C</OUTCOME>
      <OUTCOME>G</OUTCOME>
      <OUTCOME>T</OUTCOME>
      <PROPERTY />
    </VARIABLE>
    <VARIABLE TYPE="nature">
      <NAME>SP25</NAME>
      <OUTCOME>A</OUTCOME>
      <OUTCOME>C</OUTCOME>
      <OUTCOME>G</OUTCOME>
      <OUTCOME>T</OUTCOME>
      <PROPERTY />
    </VARIABLE>
    <VARIABLE TYPE="nature">
      <NAME>SP26</NAME>
      <OUTCOME>A</OUTCOME>
      <OUTCOME>C</OUTCOME>
      <OUTCOME>G</OUTCOME>
      <OUTCOME>T</OUTCOME>
      <PROPERTY />
    </VARIABLE>
    <VARIABLE TYPE="nature">
      <NAME>SP27</NAME>
      <OUTCOME>A</OUTCOME>
      <OUTCOME>C</OUTCOME>
      <OUTCOME>G</OUTCOME>
      <OUTCOME>T</OUTCOME>
      <PROPERTY />
    </VARIABLE>
    <VARIABLE TYPE="nature">
      <NAME>SP28</NAME>
      <OUTCOME>A</OUTCOME>
      <OUTCOME>C</OUTCOME>
      <OUTCOME>G</OUTCOME>
      <OUTCOME>T</OUTCOME>
      <PROPERTY />
    </VARIABLE>
    <VARIABLE TYPE="nature">
      <NAME>SP29</NAME>
      <OUTCOME>A</OUTCOME>
      <OUTCOME>C</OUTCOME>
      <OUTCOME>G</OUTCOME>
      <OUTCOME>N</OUTCOME>
      <OUTCOME>T</OUTCOME>
      <PROPERTY />
    </VARIABLE>
    <VARIABLE TYPE="nature">
      <NAME>SP30</NAME>
      <OUTCOME>A</OUTCOME>
      <OUTCOME>C</OUTCOME>
      <OUTCOME>G</OUTCOME>
      <OUTCOME>N</OUTCOME>
      <OUTCOME>T</OUTCOME>
      <PROPERTY />
    </VARIABLE>
    <VARIABLE TYPE="nature">
      <NAME>SP31</NAME>
      <OUTCOME>A</OUTCOME>
      <OUTCOME>C</OUTCOME>
      <OUTCOME>G</OUTCOME>
      <OUTCOME>N</OUTCOME>
      <OUTCOME>T</OUTCOME>
      <PROPERTY />
    </VARIABLE>
    <VARIABLE TYPE="nature">
      <NAME>SP32</NAME>
      <OUTCOME>A</OUTCOME>
      <OUTCOME>C</OUTCOME>
      <OUTCOME>G</OUTCOME>
      <OUTCOME>N</OUTCOME>
      <OUTCOME>T</OUTCOME>
      <PROPERTY />
    </VARIABLE>
    <VARIABLE TYPE="nature">
      <NAME>SP33</NAME>
      <OUTCOME>A</OUTCOME>
      <OUTCOME>C</OUTCOME>
      <OUTCOME>G</OUTCOME>
      <OUTCOME>N</OUTCOME>
      <OUTCOME>T</OUTCOME>
      <PROPERTY />
    </VARIABLE>
    <VARIABLE TYPE="nature">
      <NAME>log_fold_change</NAME>
      <OUTCOME>_2_5</OUTCOME>
      <OUTCOME>_1_5</OUTCOME>
      <OUTCOME>_0_5</OUTCOME>
      <OUTCOME>0_5</OUTCOME>
      <PROPERTY />
    </VARIABLE>
    <DEFINITION>
      <FOR>SP01</FOR>
      <GIVEN>log_fold_change</GIVEN>
      <TABLE>0.4375 0.25 0.09375 0.0 0.21875 0.2857142857142857 0.2257142857142857 0.24 0.0 0.24857142857142858 0.298932384341637 0.21619217081850534 0.21085409252669038 0.0 0.27402135231316727 0.31307929969104015 0.20957775489186406 0.18537590113285274 0.001544799176107106 0.29042224510813597 </TABLE>
    </DEFINITION>
    <DEFINITION>
      <FOR>SP02</FOR>
      <GIVEN>log_fold_change</GIVEN>
      <TABLE>0.09375 0.28125 0.21875 0.0 0.40625 0.24 0.2257142857142857 0.24 0.0 0.29428571428571426 0.298932384341637 0.2157473309608541 0.20195729537366547 0.0 0.2833629893238434 0.325437693099897 0.19876416065911431 0.18383110195674562 0.001544799176107106 0.29042224510813597 </TABLE>
    </DEFINITION>
    <DEFINITION>
      <FOR>SP03</FOR>
      <GIVEN>log_fold_change</GIVEN>
      <TABLE>0.40625 0.28125 0.09375 0.0 0.21875 0.26285714285714284 0.23142857142857143 0.21428571428571427 0.0 0.2914285714285714 0.2860320284697509 0.21218861209964412 0.2099644128113879 0.0 0.2918149466192171 0.33470648815653964 0.20288362512873326 0.1858908341915551 0.001544799176107106 0.2749742533470649 </TABLE>
    </DEFINITION>
    <DEFINITION>
      <FOR>SP04</FOR>
      <GIVEN>log_fold_change</GIVEN>
      <TABLE>0.28125 0.21875 0.28125 0.0 0.21875 0.22857142857142856 0.24857142857142858 0.2257142857142857 0.0 0.29714285714285715 0.30516014234875444 0.21841637010676157 0.19884341637010677 0.0 0.2775800711743772 0.3238928939237899 0.1956745623069001 0.19001029866117405 0.0010298661174047373 0.2893923789907312 </TABLE>
    </DEFINITION>
    <DEFINITION>
      <FOR>SP05</FOR>
      <GIVEN>log_fold_change</GIVEN>
      <TABLE>0.3125 0.21875 0.15625 0.0 0.3125 0.23714285714285716 0.2342857142857143 0.22857142857142856 0.0 0.3 0.30338078291814946 0.2206405693950178 0.19128113879003558 0.0 0.2846975088967972 0.30329557157569514 0.19773429454170957 0.20957775489186406 0.0005149330587023687 0.28887744593202885 </TABLE>
    </DEFINITION>
    <DEFINITION>
      <FOR>SP06</FOR>
      <GIVEN>log_fold_change</GIVEN>
      <TABLE>0.375 0.21875 0.1875 0.21875 0.32571428571428573 0.2542857142857143 0.18571428571428572 0.2342857142857143 0.3127224199288256 0.2206405693950178 0.19973309608540926 0.2669039145907473 0.29145211122554066 0.19979402677651906 0.21833161688980432 0.29042224510813597 </TABLE>
    </DEFINITION>
    <DEFINITION>
      <FOR>SP07</FOR>
      <GIVEN>log_fold_change</GIVEN>
      <TABLE>0.25 0.28125 0.21875 0.25 0.3 0.2742857142857143 0.16857142857142857 0.2571428571428571 0.3011565836298932 0.22998220640569395 0.21040925266903915 0.2584519572953737 0.3192584963954686 0.18486096807415037 0.21421215242018538 0.28166838311019565 </TABLE>
    </DEFINITION>
    <DEFINITION>
      <FOR>SP08</FOR>
      <GIVEN>log_fold_change</GIVEN>
      <TABLE>0.40625 0.28125 0.0625 0.25 0.34285714285714286 0.2857142857142857 0.14857142857142858 0.22285714285714286 0.297153024911032 0.2255338078291815 0.21129893238434164 0.26601423487544484 0.30072090628218334 0.2059732234809475 0.22193614830072092 0.2713697219361483 </TABLE>
    </DEFINITION>
    <DEFINITION>
      <FOR>SP09</FOR>
      <GIVEN>log_fold_change</GIVEN>
      <TABLE>0.21875 0.34375 0.28125 0.15625 0.3628571428571429 0.22 0.22 0.19714285714285715 0.304270462633452 0.22820284697508897 0.20774021352313168 0.2597864768683274 0.2981462409886715 0.22296601441812564 0.19876416065911431 0.2801235839340886 </TABLE>
    </DEFINITION>
    <DEFINITION>
      <FOR>SP10</FOR>
      <GIVEN>log_fold_change</GIVEN>
      <TABLE>0.4375 0.1875 0.15625 0.21875 0.35714285714285715 0.2885714285714286 0.17714285714285713 0.17714285714285713 0.2944839857651246 0.22909252669039146 0.2197508896797153 0.2566725978647687 0.3063851699279094 0.213697219361483 0.19824922760041194 0.28166838311019565 </TABLE>
    </DEFINITION>
    <DEFINITION>
      <FOR>SP11</FOR>
      <GIVEN>log_fold_change</GIVEN>
      <TABLE>0.28125 0.28125 0.09375 0.34375 0.32571428571428573 0.2542857142857143 0.14285714285714285 0.27714285714285714 0.298932384341637 0.2491103202846975 0.20062277580071175 0.2513345195729537 0.3135942327497425 0.19052523171987643 0.2286302780638517 0.26725025746652936 </TABLE>
    </DEFINITION>
    <DEFINITION>
      <FOR>SP12</FOR>
      <GIVEN>log_fold_change</GIVEN>
      <TABLE>0.4375 0.1875 0.125 0.25 0.30857142857142855 0.21142857142857144 0.2 0.28 0.30338078291814946 0.2206405693950178 0.2090747330960854 0.2669039145907473 0.296086508753862 0.2203913491246138 0.20854788877445932 0.2749742533470649 </TABLE>
    </DEFINITION>
    <DEFINITION>
      <FOR>SP13</FOR>
      <GIVEN>log_fold_change</GIVEN>
      <TABLE>0.3125 0.1875 0.15625 0.34375 0.29714285714285715 0.23142857142857143 0.20285714285714285 0.26857142857142857 0.2891459074733096 0.23709964412811388 0.2188612099644128 0.2548932384341637 0.3177136972193615 0.21730175077239958 0.19824922760041194 0.266735324407827 </TABLE>
    </DEFINITION>
    <DEFINITION>
      <FOR>SP14</FOR>
      <GIVEN>log_fold_change</GIVEN>
      <TABLE>0.34375 0.1875 0.25 0.21875 0.32285714285714284 0.2342857142857143 0.19428571428571428 0.24857142857142858 0.2918149466192171 0.2313167259786477 0.2130782918149466 0.2637900355871886 0.3027806385169928 0.21421215242018538 0.21421215242018538 0.2687950566426365 </TABLE>
    </DEFINITION>
    <DEFINITION>
      <FOR>SP15</FOR>
      <GIVEN>log_fold_change</GIVEN>
      <TABLE>0.28125 0.3125 0.09375 0.3125 0.3342857142857143 0.18857142857142858 0.2257142857142857 0.25142857142857145 0.2878113879003559 0.23087188612099643 0.2117437722419929 0.2695729537366548 0.31153450051493303 0.2203913491246138 0.20545829042224512 0.262615859938208 </TABLE>
    </DEFINITION>
    <DEFINITION>
      <FOR>SP16</FOR>
      <GIVEN>log_fold_change</GIVEN>
      <TABLE>0.34375 0.125 0.1875 0.34375 0.3171428571428571 0.2 0.21142857142857144 0.2714285714285714 0.28692170818505336 0.2393238434163701 0.21129893238434164 0.2624555160142349 0.30072090628218334 0.22090628218331618 0.20339855818743563 0.2749742533470649 </TABLE>
    </DEFINITION>
    <DEFINITION>
      <FOR>SP17</FOR>
      <GIVEN>log_fold_change</GIVEN>
      <TABLE>0.3125 0.21875 0.21875 0.25 0.32571428571428573 0.22 0.2057142857142857 0.24857142857142858 0.2873665480427046 0.23398576512455516 0.2139679715302491 0.2646797153024911 0.2996910401647786 0.21781668383110195 0.2090628218331617 0.27342945417095776 </TABLE>
    </DEFINITION>
    <DEFINITION>
      <FOR>SP18</FOR>
      <GIVEN>log_fold_change</GIVEN>
      <TABLE>0.28125 0.1875 0.21875 0.3125 0.3057142857142857 0.2057142857142857 0.20857142857142857 0.28 0.2846975088967972 0.22330960854092527 0.2215302491103203 0.2704626334519573 0.3192584963954686 0.22502574665293512 0.19258496395468588 0.2631307929969104 </TABLE>
    </DEFINITION>
    <DEFINITION>
      <FOR>SP19</FOR>
      <GIVEN>log_fold_change</GIVEN>
      <TABLE>0.34375 0.21875 0.21875 0.21875 0.26 0.1742857142857143 0.26571428571428574 0.3 0.2802491103202847 0.2277580071174377 0.23176156583629892 0.26023131672597866 0.3311019567456231 0.22296601441812564 0.18125643666323377 0.2646755921730175 </TABLE>
    </DEFINITION>
    <DEFINITION>
      <FOR>SP20</FOR>
      <GIVEN>log_fold_change</GIVEN>
      <TABLE>0.3125 0.21875 0.3125 0.15625 0.26285714285714284 0.18 0.32571428571428573 0.23142857142857143 0.2664590747330961 0.22597864768683273 0.2304270462633452 0.27713523131672596 0.3367662203913491 0.2255406797116375 0.15396498455200824 0.28372811534500514 </TABLE>
    </DEFINITION>
    <DEFINITION>
      <FOR>SP21</FOR>
      <GIVEN>log_fold_change</GIVEN>
      <TABLE>0.3125 0.1875 0.375 0.125 0.24 0.24 0.3485714285714286 0.17142857142857143 0.2940391459074733 0.23754448398576514 0.21841637010676157 0.25 0.3223480947476828 0.2008238928939238 0.16580844490216273 0.3110195674562307 </TABLE>
    </DEFINITION>
    <DEFINITION>
      <FOR>SP22</FOR>
      <GIVEN>log_fold_change</GIVEN>
      <TABLE>0.28125 0.3125 0.28125 0.125 0.24571428571428572 0.26571428571428574 0.25142857142857145 0.23714285714285716 0.2984875444839858 0.23176156583629892 0.22686832740213522 0.24288256227758007 0.3110195674562307 0.21009268795056643 0.18383110195674562 0.29505664263645726 </TABLE>
    </DEFINITION>
    <DEFINITION>
      <FOR>SP23</FOR>
      <GIVEN>log_fold_change</GIVEN>
      <TABLE>0.21875 0.15625 0.46875 0.15625 0.2714285714285714 0.2857142857142857 0.26285714285714284 0.18 0.2802491103202847 0.2411032028469751 0.2313167259786477 0.24733096085409254 0.33470648815653964 0.1956745623069001 0.1678681771369722 0.30175077239958803 </TABLE>
    </DEFINITION>
    <DEFINITION>
      <FOR>SP24</FOR>
      <GIVEN>log_fold_change</GIVEN>
      <TABLE>0.15625 0.53125 0.21875 0.09375 0.2257142857142857 0.3742857142857143 0.22 0.18 0.2820284697508897 0.23754448398576514 0.2402135231316726 0.2402135231316726 0.33831101956745624 0.17713697219361482 0.1791967044284243 0.30535530381050463 </TABLE>
    </DEFINITION>
    <DEFINITION>
      <FOR>SP25</FOR>
      <GIVEN>log_fold_change</GIVEN>
      <TABLE>0.28125 0.40625 0.15625 0.15625 0.20857142857142857 0.4057142857142857 0.15142857142857144 0.2342857142857143 0.2833629893238434 0.24777580071174377 0.22241992882562278 0.24644128113879005 0.335221421215242 0.17404737384140062 0.20545829042224512 0.28527291452111225 </TABLE>
    </DEFINITION>
    <DEFINITION>
      <FOR>SP26</FOR>
      <GIVEN>log_fold_change</GIVEN>
      <TABLE>0.1875 0.3125 0.21875 0.28125 0.22 0.3628571428571429 0.20285714285714285 0.21428571428571427 0.2775800711743772 0.24332740213523132 0.22597864768683273 0.2531138790035587 0.33985581874356335 0.15859938208032956 0.19258496395468588 0.30895983522142123 </TABLE>
    </DEFINITION>
    <DEFINITION>
      <FOR>SP27</FOR>
      <GIVEN>log_fold_change</GIVEN>
      <TABLE>0.34375 0.25 0.25 0.15625 0.2257142857142857 0.3 0.26571428571428574 0.20857142857142857 0.25934163701067614 0.24199288256227758 0.22508896797153025 0.273576512455516 0.3408856848609681 0.19258496395468588 0.18640576725025745 0.2801235839340886 </TABLE>
    </DEFINITION>
    <DEFINITION>
      <FOR>SP28</FOR>
      <GIVEN>log_fold_change</GIVEN>
      <TABLE>0.1875 0.125 0.375 0.3125 0.24571428571428572 0.24 0.2714285714285714 0.24285714285714285 0.27313167259786475 0.24154804270462635 0.22508896797153025 0.26023131672597866 0.33419155509783727 0.194129763130793 0.17301750772399588 0.29866117404737386 </TABLE>
    </DEFINITION>
    <DEFINITION>
      <FOR>SP29</FOR>
      <GIVEN>log_fold_change</GIVEN>
      <TABLE>0.1875 0.28125 0.09375 0.0 0.4375 0.3457142857142857 0.19428571428571428 0.17714285714285713 0.0 0.28285714285714286 0.2851423487544484 0.2237544483985765 0.18816725978647686 0.00044483985765124553 0.302491103202847 0.3043254376930999 0.21781668383110195 0.2157569515962925 0.0005149330587023687 0.2615859938208033 </TABLE>
    </DEFINITION>
    <DEFINITION>
      <FOR>SP30</FOR>
      <GIVEN>log_fold_change</GIVEN>
      <TABLE>0.21875 0.0625 0.15625 0.0 0.5625 0.3342857142857143 0.16 0.19428571428571428 0.0 0.31142857142857144 0.27846975088967973 0.2099644128113879 0.20596085409252668 0.00044483985765124553 0.30516014234875444 0.29660144181256437 0.21524201853759012 0.2157569515962925 0.0010298661174047373 0.2713697219361483 </TABLE>
    </DEFINITION>
    <DEFINITION>
      <FOR>SP31</FOR>
      <GIVEN>log_fold_change</GIVEN>
      <TABLE>0.1875 0.15625 0.3125 0.0 0.34375 0.32571428571428573 0.2257142857142857 0.14857142857142858 0.0 0.3 0.27980427046263345 0.22419928825622776 0.21263345195729538 0.0008896797153024911 0.28247330960854095 0.30175077239958803 0.22399588053553038 0.19670442842430483 0.001544799176107106 0.2760041194644696 </TABLE>
    </DEFINITION>
    <DEFINITION>
      <FOR>SP32</FOR>
      <GIVEN>log_fold_change</GIVEN>
      <TABLE>0.34375 0.125 0.15625 0.0 0.375 0.32857142857142857 0.19714285714285715 0.18571428571428572 0.0 0.2885714285714286 0.2851423487544484 0.20774021352313168 0.20062277580071175 0.0008896797153024911 0.3056049822064057 0.30844490216271886 0.21266735324407826 0.20545829042224512 0.001544799176107106 0.27188465499485065 </TABLE>
    </DEFINITION>
    <DEFINITION>
      <FOR>SP33</FOR>
      <GIVEN>log_fold_change</GIVEN>
      <TABLE>0.34375 0.15625 0.1875 0.0 0.3125 0.3057142857142857 0.23142857142857143 0.2057142857142857 0.0 0.2571428571428571 0.27580071174377224 0.22508896797153025 0.20596085409252668 0.0008896797153024911 0.29225978647686834 0.3063851699279094 0.2106076210092688 0.20545829042224512 0.0020597322348094747 0.27548918640576725 </TABLE>
    </DEFINITION>
    <DEFINITION>
      <FOR>log_fold_change</FOR>
      <TABLE>0.00699912510936133 0.07655293088363954 0.4916885389326334 0.4247594050743657 </TABLE>
    </DEFINITION>
  </NETWORK>
</BIF>
