<?xml version='1.0' encoding='utf-8'?>
<BIF VERSION="0.3">
  <NETWORK>
    <NAME>UNTITLED</NAME>
    <VARIABLE TYPE="nature">
      <NAME>SP01</NAME>
      <OUTCOME>A</OUTCOME>
      <OUTCOME>C</OUTCOME>
      <OUTCOME>G</OUTCOME>
      <OUTCOME>N</OUTCOME>
      <OUTCOME>T</OUTCOME>
      <PROPERTY />
    </VARIABLE>
    <VARIABLE TYPE="nature">
      <NAME>SP02</NAME>
      <OUTCOME>A</OUTCOME>
      <OUTCOME>C</OUTCOME>
      <OUTCOME>G</OUTCOME>
      <OUTCOME>N</OUTCOME>
      <OUTCOME>T</OUTCOME>
      <PROPERTY />
    </VARIABLE>
    <VARIABLE TYPE="nature">
      <NAME>SP03</NAME>
      <OUTCOME>A</OUTCOME>
      <OUTCOME>C</OUTCOME>
      <OUTCOME>G</OUTCOME>
      <OUTCOME>N</OUTCOME>
      <OUTCOME>T</OUTCOME>
      <PROPERTY />
    </VARIABLE>
    <VARIABLE TYPE="nature">
      <NAME>SP04</NAME>
      <OUTCOME>A</OUTCOME>
      <OUTCOME>C</OUTCOME>
      <OUTCOME>G</OUTCOME>
      <OUTCOME>N</OUTCOME>
      <OUTCOME>T</OUTCOME>
      <PROPERTY />
    </VARIABLE>
    <VARIABLE TYPE="nature">
      <NAME>SP05</NAME>
      <OUTCOME>A</OUTCOME>
      <OUTCOME>C</OUTCOME>
      <OUTCOME>G</OUTCOME>
      <OUTCOME>N</OUTCOME>
      <OUTCOME>T</OUTCOME>
      <PROPERTY />
    </VARIABLE>
    <VARIABLE TYPE="nature">
      <NAME>SP06</NAME>
      <OUTCOME>A</OUTCOME>
      <OUTCOME>C</OUTCOME>
      <OUTCOME>G</OUTCOME>
      <OUTCOME>T</OUTCOME>
      <PROPERTY />
    </VARIABLE>
    <VARIABLE TYPE="nature">
      <NAME>SP07</NAME>
      <OUTCOME>A</OUTCOME>
      <OUTCOME>C</OUTCOME>
      <OUTCOME>G</OUTCOME>
      <OUTCOME>T</OUTCOME>
      <PROPERTY />
    </VARIABLE>
    <VARIABLE TYPE="nature">
      <NAME>SP08</NAME>
      <OUTCOME>A</OUTCOME>
      <OUTCOME>C</OUTCOME>
      <OUTCOME>G</OUTCOME>
      <OUTCOME>T</OUTCOME>
      <PROPERTY />
    </VARIABLE>
    <VARIABLE TYPE="nature">
      <NAME>SP09</NAME>
      <OUTCOME>A</OUTCOME>
      <OUTCOME>C</OUTCOME>
      <OUTCOME>G</OUTCOME>
      <OUTCOME>T</OUTCOME>
      <PROPERTY />
    </VARIABLE>
    <VARIABLE TYPE="nature">
      <NAME>SP10</NAME>
      <OUTCOME>A</OUTCOME>
      <OUTCOME>C</OUTCOME>
      <OUTCOME>G</OUTCOME>
      <OUTCOME>T</OUTCOME>
      <PROPERTY />
    </VARIABLE>
    <VARIABLE TYPE="nature">
      <NAME>SP11</NAME>
      <OUTCOME>A</OUTCOME>
      <OUTCOME>C</OUTCOME>
      <OUTCOME>G</OUTCOME>
      <OUTCOME>T</OUTCOME>
      <PROPERTY />
    </VARIABLE>
    <VARIABLE TYPE="nature">
      <NAME>SP12</NAME>
      <OUTCOME>A</OUTCOME>
      <OUTCOME>C</OUTCOME>
      <OUTCOME>G</OUTCOME>
      <OUTCOME>T</OUTCOME>
      <PROPERTY />
    </VARIABLE>
    <VARIABLE TYPE="nature">
      <NAME>SP13</NAME>
      <OUTCOME>A</OUTCOME>
      <OUTCOME>C</OUTCOME>
      <OUTCOME>G</OUTCOME>
      <OUTCOME>T</OUTCOME>
      <PROPERTY />
    </VARIABLE>
    <VARIABLE TYPE="nature">
      <NAME>SP14</NAME>
      <OUTCOME>A</OUTCOME>
      <OUTCOME>C</OUTCOME>
      <OUTCOME>G</OUTCOME>
      <OUTCOME>T</OUTCOME>
      <PROPERTY />
    </VARIABLE>
    <VARIABLE TYPE="nature">
      <NAME>SP15</NAME>
      <OUTCOME>A</OUTCOME>
      <OUTCOME>C</OUTCOME>
      <OUTCOME>G</OUTCOME>
      <OUTCOME>T</OUTCOME>
      <PROPERTY />
    </VARIABLE>
    <VARIABLE TYPE="nature">
      <NAME>SP16</NAME>
      <OUTCOME>A</OUTCOME>
      <OUTCOME>C</OUTCOME>
      <OUTCOME>G</OUTCOME>
      <OUTCOME>T</OUTCOME>
      <PROPERTY />
    </VARIABLE>
    <VARIABLE TYPE="nature">
      <NAME>SP17</NAME>
      <OUTCOME>A</OUTCOME>
      <OUTCOME>C</OUTCOME>
      <OUTCOME>G</OUTCOME>
      <OUTCOME>T</OUTCOME>
      <PROPERTY />
    </VARIABLE>
    <VARIABLE TYPE="nature">
      <NAME>SP18</NAME>
      <OUTCOME>A</OUTCOME>
      <OUTCOME>C</OUTCOME>
      <OUTCOME>G</OUTCOME>
      <OUTCOME>T</OUTCOME>
      <PROPERTY />
    </VARIABLE>
    <VARIABLE TYPE="nature">
      <NAME>SP19</NAME>
      <OUTCOME>A</OUTCOME>
      <OUTCOME>C</OUTCOME>
      <OUTCOME>G</OUTCOME>
      <OUTCOME>T</OUTCOME>
      <PROPERTY />
    </VARIABLE>
    <VARIABLE TYPE="nature">
      <NAME>SP20</NAME>
      <OUTCOME>A</OUTCOME>
      <OUTCOME>C</OUTCOME>
      <OUTCOME>G</OUTCOME>
      <OUTCOME>T</OUTCOME>
      <PROPERTY />
    </VARIABLE>
    <VARIABLE TYPE="nature">
      <NAME>SP21</NAME>
      <OUTCOME>A</OUTCOME>
      <OUTCOME>C</OUTCOME>
      <OUTCOME>G</OUTCOME>
      <OUTCOME>T</OUTCOME>
      <PROPERTY />
    </VARIABLE>
    <VARIABLE TYPE="nature">
      <NAME>SP22</NAME>
      <OUTCOME>A</OUTCOME>
      <OUTCOME>C</OUTCOME>
      <OUTCOME>G</OUTCOME>
      <OUTCOME>T</OUTCOME>
      <PROPERTY />
    </VARIABLE>
    <VARIABLE TYPE="nature">
      <NAME>SP23</NAME>
      <OUTCOME>A</OUTCOME>
      <OUTCOME>C</OUTCOME>
      <OUTCOME>G</OUTCOME>
      <OUTCOME>T</OUTCOME>
      <PROPERTY />
    </VARIABLE>
    <VARIABLE TYPE="nature">
      <NAME>SP24</NAME>
      <OUTCOME>A</OUTCOME>
      <OUTCOME>C</OUTCOME>
      <OUTCOME>G</OUTCOME>
      <OUTCOME>T</OUTCOME>
      <PROPERTY />
    </VARIABLE>
    <VARIABLE TYPE="nature">
      <NAME>SP25</NAME>
      <OUTCOME>A</OUTCOME>
      <OUTCOME>C</OUTCOME>
      <OUTCOME>G</OUTCOME>
      <OUTCOME>T</OUTCOME>
      <PROPERTY />
    </VARIABLE>
    <VARIABLE TYPE="nature">
      <NAME>SP26</NAME>
      <OUTCOME>A</OUTCOME>
      <OUTCOME>C</OUTCOME>
      <OUTCOME>G</OUTCOME>
      <OUTCOME>T</OUTCOME>
      <PROPERTY />
    </VARIABLE>
    <VARIABLE TYPE="nature">
      <NAME>SP27</NAME>
      <OUTCOME>A</OUTCOME>
      <OUTCOME>C</OUTCOME>
      <OUTCOME>G</OUTCOME>
      <OUTCOME>T</OUTCOME>
      <PROPERTY />
    </VARIABLE>
    <VARIABLE TYPE="nature">
      <NAME>SP28</NAME>
      <OUTCOME>A</OUTCOME>
      <OUTCOME>C</OUTCOME>
      <OUTCOME>G</OUTCOME>
      <OUTCOME>T</OUTCOME>
      <PROPERTY />
    </VARIABLE>
    <VARIABLE TYPE="nature">
      <NAME>SP29</NAME>
      <OUTCOME>A</OUTCOME>
      <OUTCOME>C</OUTCOME>
      <OUTCOME>G</OUTCOME>
      <OUTCOME>N</OUTCOME>
      <OUTCOME>T</OUTCOME>
      <PROPERTY />
    </VARIABLE>
    <VARIABLE TYPE="nature">
      <NAME>SP30</NAME>
      <OUTCOME>A</OUTCOME>
      <OUTCOME>C</OUTCOME>
      <OUTCOME>G</OUTCOME>
      <OUTCOME>N</OUTCOME>
      <OUTCOME>T</OUTCOME>
      <PROPERTY />
    </VARIABLE>
    <VARIABLE TYPE="nature">
      <NAME>SP31</NAME>
      <OUTCOME>A</OUTCOME>
      <OUTCOME>C</OUTCOME>
      <OUTCOME>G</OUTCOME>
      <OUTCOME>N</OUTCOME>
      <OUTCOME>T</OUTCOME>
      <PROPERTY />
    </VARIABLE>
    <VARIABLE TYPE="nature">
      <NAME>SP32</NAME>
      <OUTCOME>A</OUTCOME>
      <OUTCOME>C</OUTCOME>
      <OUTCOME>G</OUTCOME>
      <OUTCOME>N</OUTCOME>
      <OUTCOME>T</OUTCOME>
      <PROPERTY />
    </VARIABLE>
    <VARIABLE TYPE="nature">
      <NAME>SP33</NAME>
      <OUTCOME>A</OUTCOME>
      <OUTCOME>C</OUTCOME>
      <OUTCOME>G</OUTCOME>
      <OUTCOME>N</OUTCOME>
      <OUTCOME>T</OUTCOME>
      <PROPERTY />
    </VARIABLE>
    <VARIABLE TYPE="nature">
      <NAME>log_fold_change</NAME>
      <OUTCOME>_3_0</OUTCOME>
      <OUTCOME>_2_5</OUTCOME>
      <OUTCOME>_2_0</OUTCOME>
      <OUTCOME>_1_5</OUTCOME>
      <OUTCOME>_1_0</OUTCOME>
      <OUTCOME>_0_5</OUTCOME>
      <OUTCOME>0_0</OUTCOME>
      <OUTCOME>0_5</OUTCOME>
      <OUTCOME>1_0</OUTCOME>
      <OUTCOME>2_0</OUTCOME>
      <PROPERTY />
    </VARIABLE>
    <DEFINITION>
      <FOR>SP01</FOR>
      <GIVEN>log_fold_change</GIVEN>
      <TABLE>0.5 0.5 0.0 0.0 0.0 0.3333333333333333 0.3333333333333333 0.16666666666666666 0.0 0.16666666666666666 0.36666666666666664 0.16666666666666666 0.13333333333333333 0.0 0.3333333333333333 0.2919254658385093 0.18012422360248448 0.2795031055900621 0.0 0.2484472049689441 0.2962962962962963 0.2345679012345679 0.20246913580246914 0.0 0.26666666666666666 0.297085201793722 0.21524663677130046 0.19394618834080718 0.0 0.2937219730941704 0.3128469468675654 0.20896114195083268 0.1986518636003172 0.0 0.2795400475812847 0.3277777777777778 0.17777777777777778 0.19074074074074074 0.001851851851851852 0.30185185185185187 0.6 0.13333333333333333 0.13333333333333333 0.0 0.13333333333333333 0.0 0.0 0.0 0.0 1.0 </TABLE>
    </DEFINITION>
    <DEFINITION>
      <FOR>SP02</FOR>
      <GIVEN>log_fold_change</GIVEN>
      <TABLE>0.0 0.0 0.5 0.0 0.5 0.08333333333333333 0.3333333333333333 0.08333333333333333 0.0 0.5 0.16666666666666666 0.2 0.4 0.0 0.23333333333333334 0.2608695652173913 0.2111801242236025 0.2360248447204969 0.0 0.2919254658385093 0.2641975308641975 0.23703703703703705 0.23950617283950618 0.0 0.25925925925925924 0.29932735426008966 0.22757847533632286 0.2006726457399103 0.0 0.27242152466367714 0.31363996827914353 0.20222045995241872 0.19627279936558287 0.0 0.28786677240285485 0.3537037037037037 0.17592592592592593 0.1814814814814815 0.001851851851851852 0.28703703703703703 0.3333333333333333 0.3333333333333333 0.2 0.0 0.13333333333333333 0.0 0.0 1.0 0.0 0.0 </TABLE>
    </DEFINITION>
    <DEFINITION>
      <FOR>SP03</FOR>
      <GIVEN>log_fold_change</GIVEN>
      <TABLE>0.0 0.5 0.0 0.0 0.5 0.4166666666666667 0.25 0.16666666666666666 0.0 0.16666666666666666 0.4 0.1 0.13333333333333333 0.0 0.36666666666666664 0.2857142857142857 0.2111801242236025 0.17391304347826086 0.0 0.32919254658385094 0.25679012345679014 0.22469135802469137 0.23950617283950618 0.0 0.27901234567901234 0.297085201793722 0.23318385650224216 0.1984304932735426 0.0 0.2713004484304933 0.30174464710547183 0.20737509912767646 0.19270420301348137 0.0 0.29817605075337034 0.3537037037037037 0.20555555555555555 0.18518518518518517 0.001851851851851852 0.2537037037037037 0.3333333333333333 0.26666666666666666 0.06666666666666667 0.0 0.3333333333333333 0.0 1.0 0.0 0.0 0.0 </TABLE>
    </DEFINITION>
    <DEFINITION>
      <FOR>SP04</FOR>
      <GIVEN>log_fold_change</GIVEN>
      <TABLE>0.0 0.5 0.5 0.0 0.0 0.4166666666666667 0.08333333333333333 0.5 0.0 0.0 0.2 0.2 0.2 0.0 0.4 0.20496894409937888 0.2360248447204969 0.2422360248447205 0.0 0.3167701863354037 0.2641975308641975 0.2222222222222222 0.2074074074074074 0.0 0.30617283950617286 0.32062780269058294 0.21524663677130046 0.1984304932735426 0.0 0.265695067264574 0.31443298969072164 0.20737509912767646 0.19349722442505948 0.0 0.2846946867565424 0.31666666666666665 0.19444444444444445 0.18888888888888888 0.001851851851851852 0.29814814814814816 0.3333333333333333 0.26666666666666666 0.2 0.0 0.2 1.0 0.0 0.0 0.0 0.0 </TABLE>
    </DEFINITION>
    <DEFINITION>
      <FOR>SP05</FOR>
      <GIVEN>log_fold_change</GIVEN>
      <TABLE>0.5 0.5 0.0 0.0 0.0 0.4166666666666667 0.08333333333333333 0.16666666666666666 0.0 0.3333333333333333 0.2 0.3 0.23333333333333334 0.0 0.26666666666666666 0.2732919254658385 0.19875776397515527 0.19254658385093168 0.0 0.33540372670807456 0.254320987654321 0.2222222222222222 0.24691358024691357 0.0 0.2765432098765432 0.3060538116591928 0.22757847533632286 0.2006726457399103 0.0 0.265695067264574 0.3049167327517843 0.19746233148295003 0.1978588421887391 0.0 0.29976209357652656 0.3111111111111111 0.21296296296296297 0.20925925925925926 0.001851851851851852 0.26481481481481484 0.4 0.3333333333333333 0.06666666666666667 0.0 0.2 0.0 0.0 0.0 0.0 1.0 </TABLE>
    </DEFINITION>
    <DEFINITION>
      <FOR>SP06</FOR>
      <GIVEN>log_fold_change</GIVEN>
      <TABLE>0.0 0.0 0.0 1.0 0.16666666666666666 0.25 0.25 0.3333333333333333 0.3333333333333333 0.3 0.06666666666666667 0.3 0.3416149068322981 0.2484472049689441 0.14906832298136646 0.2608695652173913 0.32592592592592595 0.23950617283950618 0.18024691358024691 0.254320987654321 0.33183856502242154 0.24551569506726456 0.17937219730941703 0.24327354260089687 0.2922283901665345 0.1998413957176844 0.22164948453608246 0.28628072957969863 0.31666666666666665 0.2 0.19074074074074074 0.29259259259259257 0.4 0.06666666666666667 0.26666666666666666 0.26666666666666666 0.0 0.0 1.0 0.0 </TABLE>
    </DEFINITION>
    <DEFINITION>
      <FOR>SP07</FOR>
      <GIVEN>log_fold_change</GIVEN>
      <TABLE>0.5 0.5 0.0 0.0 0.16666666666666666 0.25 0.3333333333333333 0.25 0.3 0.3333333333333333 0.16666666666666666 0.2 0.2732919254658385 0.32298136645962733 0.14285714285714285 0.2608695652173913 0.2716049382716049 0.28641975308641976 0.21481481481481482 0.2271604938271605 0.3172645739910314 0.2365470852017937 0.19282511210762332 0.2533632286995516 0.302934179222839 0.21451229183187945 0.21213322759714512 0.2704203013481364 0.3314814814814815 0.16296296296296298 0.21296296296296297 0.29259259259259257 0.3333333333333333 0.0 0.13333333333333333 0.5333333333333333 1.0 0.0 0.0 0.0 </TABLE>
    </DEFINITION>
    <DEFINITION>
      <FOR>SP08</FOR>
      <GIVEN>log_fold_change</GIVEN>
      <TABLE>0.0 1.0 0.0 0.0 0.5 0.3333333333333333 0.08333333333333333 0.08333333333333333 0.3333333333333333 0.4 0.06666666666666667 0.2 0.35403726708074534 0.2546583850931677 0.15527950310559005 0.2360248447204969 0.3135802469135803 0.2518518518518518 0.18024691358024691 0.254320987654321 0.31053811659192826 0.22982062780269058 0.18497757847533633 0.27466367713004486 0.30729579698651865 0.204203013481364 0.22997620935765264 0.25852498017446474 0.28888888888888886 0.21481481481481482 0.19074074074074074 0.3055555555555556 0.13333333333333333 0.06666666666666667 0.3333333333333333 0.4666666666666667 1.0 0.0 0.0 0.0 </TABLE>
    </DEFINITION>
    <DEFINITION>
      <FOR>SP09</FOR>
      <GIVEN>log_fold_change</GIVEN>
      <TABLE>0.5 0.0 0.0 0.5 0.3333333333333333 0.4166666666666667 0.08333333333333333 0.16666666666666666 0.3 0.23333333333333334 0.3 0.16666666666666666 0.36024844720496896 0.2546583850931677 0.2111801242236025 0.17391304347826086 0.3333333333333333 0.2074074074074074 0.23950617283950618 0.21975308641975308 0.3307174887892377 0.21973094170403587 0.19506726457399104 0.25448430493273544 0.29817605075337034 0.21847739888977002 0.2168913560666138 0.26645519429024583 0.31666666666666665 0.20925925925925926 0.1925925925925926 0.2814814814814815 0.2 0.3333333333333333 0.2 0.26666666666666666 0.0 0.0 1.0 0.0 </TABLE>
    </DEFINITION>
    <DEFINITION>
      <FOR>SP10</FOR>
      <GIVEN>log_fold_change</GIVEN>
      <TABLE>0.0 0.0 0.5 0.5 0.5833333333333334 0.08333333333333333 0.08333333333333333 0.25 0.2 0.26666666666666666 0.26666666666666666 0.26666666666666666 0.422360248447205 0.2732919254658385 0.14906832298136646 0.15527950310559005 0.3308641975308642 0.20246913580246914 0.2518518518518518 0.21481481481481482 0.3060538116591928 0.2600896860986547 0.2006726457399103 0.23318385650224216 0.289056304520222 0.22204599524187152 0.20261697065820777 0.28628072957969863 0.34074074074074073 0.20555555555555555 0.18333333333333332 0.27037037037037037 0.4 0.13333333333333333 0.13333333333333333 0.3333333333333333 1.0 0.0 0.0 0.0 </TABLE>
    </DEFINITION>
    <DEFINITION>
      <FOR>SP11</FOR>
      <GIVEN>log_fold_change</GIVEN>
      <TABLE>0.5 0.5 0.0 0.0 0.3333333333333333 0.25 0.08333333333333333 0.3333333333333333 0.23333333333333334 0.3 0.16666666666666666 0.3 0.37267080745341613 0.19254658385093168 0.16770186335403728 0.2670807453416149 0.2740740740740741 0.2691358024691358 0.18024691358024691 0.2765432098765432 0.30493273542600896 0.273542600896861 0.17600896860986548 0.24551569506726456 0.2977795400475813 0.20618556701030927 0.23354480570975417 0.2624900872323553 0.3333333333333333 0.19444444444444445 0.19814814814814816 0.2740740740740741 0.13333333333333333 0.06666666666666667 0.13333333333333333 0.6666666666666666 1.0 0.0 0.0 0.0 </TABLE>
    </DEFINITION>
    <DEFINITION>
      <FOR>SP12</FOR>
      <GIVEN>log_fold_change</GIVEN>
      <TABLE>1.0 0.0 0.0 0.0 0.3333333333333333 0.25 0.08333333333333333 0.3333333333333333 0.3333333333333333 0.2 0.13333333333333333 0.3333333333333333 0.2981366459627329 0.2422360248447205 0.19875776397515527 0.2608695652173913 0.3234567901234568 0.21728395061728395 0.2 0.25925925925925924 0.27802690582959644 0.2320627802690583 0.22533632286995517 0.2645739910313901 0.3068992862807296 0.2315622521808089 0.20737509912767646 0.2541633624107851 0.2833333333333333 0.1962962962962963 0.21481481481481482 0.3055555555555556 0.26666666666666666 0.2 0.26666666666666666 0.26666666666666666 1.0 0.0 0.0 0.0 </TABLE>
    </DEFINITION>
    <DEFINITION>
      <FOR>SP13</FOR>
      <GIVEN>log_fold_change</GIVEN>
      <TABLE>0.5 0.0 0.0 0.5 0.25 0.25 0.08333333333333333 0.4166666666666667 0.3333333333333333 0.16666666666666666 0.26666666666666666 0.23333333333333334 0.2981366459627329 0.2422360248447205 0.22981366459627328 0.22981366459627328 0.3234567901234568 0.2345679012345679 0.19753086419753085 0.24444444444444444 0.2836322869955157 0.242152466367713 0.21748878923766815 0.25672645739910316 0.30253766851704994 0.21927042030134813 0.2168913560666138 0.2613005551149881 0.31851851851851853 0.22037037037037038 0.17592592592592593 0.2851851851851852 0.4666666666666667 0.26666666666666666 0.0 0.26666666666666666 1.0 0.0 0.0 0.0 </TABLE>
    </DEFINITION>
    <DEFINITION>
      <FOR>SP14</FOR>
      <GIVEN>log_fold_change</GIVEN>
      <TABLE>0.5 0.0 0.0 0.5 0.3333333333333333 0.16666666666666666 0.3333333333333333 0.16666666666666666 0.3333333333333333 0.2 0.16666666666666666 0.3 0.35403726708074534 0.19254658385093168 0.20496894409937888 0.2484472049689441 0.30617283950617286 0.2222222222222222 0.19506172839506172 0.2765432098765432 0.2713004484304933 0.2600896860986547 0.2141255605381166 0.25448430493273544 0.2985725614591594 0.21768437747819191 0.22085646312450435 0.26288659793814434 0.31666666666666665 0.2037037037037037 0.19444444444444445 0.2851851851851852 0.4 0.13333333333333333 0.2 0.26666666666666666 0.0 0.0 0.0 1.0 </TABLE>
    </DEFINITION>
    <DEFINITION>
      <FOR>SP15</FOR>
      <GIVEN>log_fold_change</GIVEN>
      <TABLE>0.0 0.5 0.0 0.5 0.4166666666666667 0.25 0.08333333333333333 0.25 0.3333333333333333 0.3 0.13333333333333333 0.23333333333333334 0.3416149068322981 0.16149068322981366 0.2360248447204969 0.2608695652173913 0.32098765432098764 0.2345679012345679 0.2123456790123457 0.23209876543209876 0.3060538116591928 0.24103139013452915 0.17600896860986548 0.2769058295964126 0.3009516256938937 0.21490880253766853 0.2160983346550357 0.26804123711340205 0.3148148148148148 0.21666666666666667 0.19444444444444445 0.2740740740740741 0.4666666666666667 0.13333333333333333 0.13333333333333333 0.26666666666666666 0.0 0.0 0.0 1.0 </TABLE>
    </DEFINITION>
    <DEFINITION>
      <FOR>SP16</FOR>
      <GIVEN>log_fold_change</GIVEN>
      <TABLE>0.0 0.0 0.0 1.0 0.3333333333333333 0.0 0.25 0.4166666666666667 0.26666666666666666 0.2 0.23333333333333334 0.3 0.30434782608695654 0.18012422360248448 0.19254658385093168 0.32298136645962733 0.30864197530864196 0.2074074074074074 0.2222222222222222 0.2617283950617284 0.27802690582959644 0.24551569506726456 0.2062780269058296 0.2701793721973094 0.295796986518636 0.22839016653449642 0.2196669310071372 0.25614591593973035 0.35 0.18888888888888888 0.2074074074074074 0.2537037037037037 0.4666666666666667 0.13333333333333333 0.13333333333333333 0.26666666666666666 1.0 0.0 0.0 0.0 </TABLE>
    </DEFINITION>
    <DEFINITION>
      <FOR>SP17</FOR>
      <GIVEN>log_fold_change</GIVEN>
      <TABLE>0.0 0.0 0.5 0.5 0.4166666666666667 0.16666666666666666 0.16666666666666666 0.25 0.26666666666666666 0.1 0.23333333333333334 0.4 0.36024844720496896 0.2360248447204969 0.13664596273291926 0.2670807453416149 0.28641975308641976 0.20246913580246914 0.24691358024691357 0.2641975308641975 0.289237668161435 0.23094170403587444 0.20291479820627803 0.2769058295964126 0.2950039651070579 0.23513084853291039 0.21173671689135606 0.2581284694686757 0.31296296296296294 0.21481481481481482 0.20185185185185187 0.27037037037037037 0.3333333333333333 0.26666666666666666 0.13333333333333333 0.26666666666666666 0.0 0.0 0.0 1.0 </TABLE>
    </DEFINITION>
    <DEFINITION>
      <FOR>SP18</FOR>
      <GIVEN>log_fold_change</GIVEN>
      <TABLE>1.0 0.0 0.0 0.0 0.08333333333333333 0.3333333333333333 0.25 0.3333333333333333 0.23333333333333334 0.2 0.2 0.36666666666666664 0.2857142857142857 0.20496894409937888 0.2608695652173913 0.2484472049689441 0.30617283950617286 0.1925925925925926 0.19506172839506172 0.30617283950617286 0.2589686098654709 0.22533632286995517 0.23542600896860988 0.2802690582959641 0.30333068992862805 0.2260111022997621 0.21292624900872323 0.25773195876288657 0.3388888888888889 0.20555555555555555 0.19444444444444445 0.2611111111111111 0.4666666666666667 0.2 0.13333333333333333 0.2 0.0 0.0 1.0 0.0 </TABLE>
    </DEFINITION>
    <DEFINITION>
      <FOR>SP19</FOR>
      <GIVEN>log_fold_change</GIVEN>
      <TABLE>0.5 0.0 0.5 0.0 0.25 0.16666666666666666 0.3333333333333333 0.25 0.3 0.23333333333333334 0.23333333333333334 0.23333333333333334 0.2422360248447205 0.16149068322981366 0.2732919254658385 0.32298136645962733 0.28888888888888886 0.20246913580246914 0.2518518518518518 0.25679012345679014 0.28139013452914796 0.21973094170403587 0.226457399103139 0.27242152466367714 0.30650277557494054 0.23116574147501984 0.19944488501189533 0.26288659793814434 0.34629629629629627 0.2074074074074074 0.18518518518518517 0.2611111111111111 0.5333333333333333 0.2 0.13333333333333333 0.13333333333333333 0.0 0.0 1.0 0.0 </TABLE>
    </DEFINITION>
    <DEFINITION>
      <FOR>SP20</FOR>
      <GIVEN>log_fold_change</GIVEN>
      <TABLE>0.0 1.0 0.0 0.0 0.3333333333333333 0.16666666666666666 0.3333333333333333 0.16666666666666666 0.43333333333333335 0.13333333333333333 0.23333333333333334 0.2 0.2484472049689441 0.19254658385093168 0.3416149068322981 0.21739130434782608 0.22469135802469137 0.2345679012345679 0.3135802469135803 0.2271604938271605 0.2713004484304933 0.24103139013452915 0.24775784753363228 0.2399103139013453 0.3199841395717684 0.21530531324345759 0.1895321173671689 0.2751784298176051 0.3388888888888889 0.22037037037037038 0.15 0.29074074074074074 0.2 0.26666666666666666 0.06666666666666667 0.4666666666666667 0.0 0.0 1.0 0.0 </TABLE>
    </DEFINITION>
    <DEFINITION>
      <FOR>SP21</FOR>
      <GIVEN>log_fold_change</GIVEN>
      <TABLE>0.5 0.0 0.0 0.5 0.08333333333333333 0.16666666666666666 0.5833333333333334 0.16666666666666666 0.3 0.23333333333333334 0.36666666666666664 0.1 0.2795031055900621 0.2795031055900621 0.2981366459627329 0.14285714285714285 0.2716049382716049 0.2222222222222222 0.3012345679012346 0.20493827160493827 0.28475336322869954 0.23430493273542602 0.23878923766816143 0.242152466367713 0.30729579698651865 0.22402854877081682 0.19191118160190326 0.2767644726407613 0.3277777777777778 0.1925925925925926 0.15 0.3296296296296296 0.3333333333333333 0.2 0.06666666666666667 0.4 1.0 0.0 0.0 0.0 </TABLE>
    </DEFINITION>
    <DEFINITION>
      <FOR>SP22</FOR>
      <GIVEN>log_fold_change</GIVEN>
      <TABLE>0.0 0.5 0.5 0.0 0.3333333333333333 0.25 0.08333333333333333 0.3333333333333333 0.26666666666666666 0.4 0.2 0.13333333333333333 0.22981366459627328 0.2857142857142857 0.2670807453416149 0.21739130434782608 0.22962962962962963 0.2617283950617284 0.27901234567901234 0.22962962962962963 0.2881165919282511 0.23318385650224216 0.2679372197309417 0.21076233183856502 0.3183980967486122 0.2057890563045202 0.19111816019032513 0.2846946867565424 0.31296296296296294 0.19814814814814816 0.16296296296296298 0.32592592592592595 0.4 0.0 0.06666666666666667 0.5333333333333333 1.0 0.0 0.0 0.0 </TABLE>
    </DEFINITION>
    <DEFINITION>
      <FOR>SP23</FOR>
      <GIVEN>log_fold_change</GIVEN>
      <TABLE>0.0 0.5 0.5 0.0 0.25 0.4166666666666667 0.25 0.08333333333333333 0.2 0.2 0.36666666666666664 0.23333333333333334 0.2484472049689441 0.3105590062111801 0.2670807453416149 0.17391304347826086 0.25925925925925924 0.2938271604938272 0.25925925925925924 0.18765432098765433 0.26681614349775784 0.2623318385650224 0.23766816143497757 0.23318385650224216 0.3148295003965107 0.20777160983346551 0.1958762886597938 0.28152260111023 0.3537037037037037 0.1925925925925926 0.1537037037037037 0.3 0.3333333333333333 0.13333333333333333 0.06666666666666667 0.4666666666666667 1.0 0.0 0.0 0.0 </TABLE>
    </DEFINITION>
    <DEFINITION>
      <FOR>SP24</FOR>
      <GIVEN>log_fold_change</GIVEN>
      <TABLE>0.5 0.5 0.0 0.0 0.16666666666666666 0.6666666666666666 0.16666666666666666 0.0 0.16666666666666666 0.43333333333333335 0.23333333333333334 0.16666666666666666 0.20496894409937888 0.42857142857142855 0.19254658385093168 0.17391304347826086 0.23703703703703705 0.3234567901234568 0.2419753086419753 0.19753086419753085 0.25112107623318386 0.2679372197309417 0.24551569506726456 0.23542600896860988 0.3132434575733545 0.20380650277557494 0.19904837430610625 0.2839016653449643 0.337037037037037 0.1648148148148148 0.17962962962962964 0.31851851851851853 0.4 0.2 0.2 0.2 0.0 1.0 0.0 0.0 </TABLE>
    </DEFINITION>
    <DEFINITION>
      <FOR>SP25</FOR>
      <GIVEN>log_fold_change</GIVEN>
      <TABLE>0.5 0.0 0.0 0.5 0.16666666666666666 0.5 0.16666666666666666 0.16666666666666666 0.3 0.4 0.13333333333333333 0.16666666666666666 0.2546583850931677 0.422360248447205 0.13664596273291926 0.18633540372670807 0.2123456790123457 0.3358024691358025 0.20493827160493827 0.24691358024691357 0.27802690582959644 0.28139013452914796 0.1905829596412556 0.25 0.30729579698651865 0.19310071371927043 0.2295796986518636 0.2700237906423473 0.37222222222222223 0.14444444444444443 0.20555555555555555 0.2777777777777778 0.2 0.2 0.26666666666666666 0.3333333333333333 1.0 0.0 0.0 0.0 </TABLE>
    </DEFINITION>
    <DEFINITION>
      <FOR>SP26</FOR>
      <GIVEN>log_fold_change</GIVEN>
      <TABLE>0.0 1.0 0.0 0.0 0.16666666666666666 0.25 0.25 0.3333333333333333 0.3 0.2 0.23333333333333334 0.26666666666666666 0.20496894409937888 0.36024844720496896 0.19875776397515527 0.2360248447204969 0.23703703703703705 0.35802469135802467 0.2123456790123457 0.1925925925925926 0.25672645739910316 0.2645739910313901 0.21300448430493274 0.265695067264574 0.3013481363996828 0.19310071371927043 0.21371927042030134 0.29183187946074546 0.3851851851851852 0.15185185185185185 0.19074074074074074 0.2722222222222222 0.4 0.0 0.2 0.4 0.0 1.0 0.0 0.0 </TABLE>
    </DEFINITION>
    <DEFINITION>
      <FOR>SP27</FOR>
      <GIVEN>log_fold_change</GIVEN>
      <TABLE>1.0 0.0 0.0 0.0 0.25 0.16666666666666666 0.4166666666666667 0.16666666666666666 0.13333333333333333 0.3 0.3333333333333333 0.23333333333333334 0.2546583850931677 0.2360248447204969 0.2732919254658385 0.2360248447204969 0.2691358024691358 0.2839506172839506 0.25925925925925924 0.18765432098765433 0.24439461883408073 0.2522421524663677 0.22757847533632286 0.2757847533632287 0.29619349722442506 0.22204599524187152 0.20103092783505155 0.28072957969865187 0.4 0.13703703703703704 0.1537037037037037 0.30925925925925923 0.4666666666666667 0.13333333333333333 0.2 0.2 0.0 0.0 0.0 1.0 </TABLE>
    </DEFINITION>
    <DEFINITION>
      <FOR>SP28</FOR>
      <GIVEN>log_fold_change</GIVEN>
      <TABLE>0.0 0.5 0.5 0.0 0.08333333333333333 0.16666666666666666 0.4166666666666667 0.3333333333333333 0.13333333333333333 0.2 0.36666666666666664 0.3 0.2360248447204969 0.2360248447204969 0.2795031055900621 0.2484472049689441 0.2074074074074074 0.2419753086419753 0.2518518518518518 0.29876543209876544 0.2836322869955157 0.22869955156950672 0.2320627802690583 0.2556053811659193 0.3140364789849326 0.2212529738302934 0.18199841395717684 0.28271213322759714 0.3685185185185185 0.1685185185185185 0.1685185185185185 0.29444444444444445 0.4666666666666667 0.06666666666666667 0.06666666666666667 0.4 0.0 0.0 1.0 0.0 </TABLE>
    </DEFINITION>
    <DEFINITION>
      <FOR>SP29</FOR>
      <GIVEN>log_fold_change</GIVEN>
      <TABLE>0.5 0.5 0.0 0.0 0.0 0.16666666666666666 0.4166666666666667 0.0 0.0 0.4166666666666667 0.4 0.06666666666666667 0.13333333333333333 0.0 0.4 0.35403726708074534 0.2111801242236025 0.14906832298136646 0.0 0.2857142857142857 0.2814814814814815 0.1925925925925926 0.22469135802469137 0.0 0.3012345679012346 0.26121076233183854 0.2242152466367713 0.19394618834080718 0.0 0.32062780269058294 0.30333068992862805 0.21808088818398097 0.19230769230769232 0.0003965107057890563 0.2858842188739096 0.3277777777777778 0.19444444444444445 0.22592592592592592 0.0 0.2518518518518518 0.4666666666666667 0.13333333333333333 0.2 0.0 0.2 0.0 0.0 0.0 0.0 1.0 </TABLE>
    </DEFINITION>
    <DEFINITION>
      <FOR>SP30</FOR>
      <GIVEN>log_fold_change</GIVEN>
      <TABLE>0.5 0.0 0.5 0.0 0.0 0.16666666666666666 0.08333333333333333 0.0 0.0 0.75 0.36666666666666664 0.03333333333333333 0.23333333333333334 0.0 0.36666666666666664 0.34782608695652173 0.16770186335403728 0.19875776397515527 0.0 0.2857142857142857 0.28641975308641976 0.20493827160493827 0.18765432098765433 0.0 0.32098765432098764 0.28139013452914796 0.21076233183856502 0.2062780269058296 0.0 0.3015695067264574 0.2874702616970658 0.20896114195083268 0.21094369547977795 0.0007930214115781126 0.29183187946074546 0.29074074074074074 0.22592592592592592 0.2074074074074074 0.0 0.2759259259259259 0.6 0.06666666666666667 0.06666666666666667 0.0 0.26666666666666666 0.0 0.0 0.0 0.0 1.0 </TABLE>
    </DEFINITION>
    <DEFINITION>
      <FOR>SP31</FOR>
      <GIVEN>log_fold_change</GIVEN>
      <TABLE>0.5 0.5 0.0 0.0 0.0 0.25 0.16666666666666666 0.3333333333333333 0.0 0.25 0.3333333333333333 0.13333333333333333 0.06666666666666667 0.0 0.4666666666666667 0.32298136645962733 0.2111801242236025 0.13664596273291926 0.0 0.32919254658385094 0.2814814814814815 0.2419753086419753 0.2074074074074074 0.0 0.2691358024691358 0.289237668161435 0.22533632286995517 0.2006726457399103 0.0 0.28475336322869954 0.2882632831086439 0.21887390959555908 0.211340206185567 0.0015860428231562252 0.27993655828707376 0.29444444444444445 0.2037037037037037 0.18888888888888888 0.0 0.31296296296296294 0.4 0.3333333333333333 0.2 0.0 0.06666666666666667 0.0 1.0 0.0 0.0 0.0 </TABLE>
    </DEFINITION>
    <DEFINITION>
      <FOR>SP32</FOR>
      <GIVEN>log_fold_change</GIVEN>
      <TABLE>1.0 0.0 0.0 0.0 0.0 0.4166666666666667 0.08333333333333333 0.16666666666666666 0.0 0.3333333333333333 0.2 0.3 0.06666666666666667 0.0 0.43333333333333335 0.34782608695652173 0.18012422360248448 0.19875776397515527 0.0 0.2732919254658385 0.32592592592592595 0.20493827160493827 0.18024691358024691 0.0 0.28888888888888886 0.265695067264574 0.21300448430493274 0.20179372197309417 0.0 0.3195067264573991 0.30055511498810467 0.21530531324345759 0.204203013481364 0.0015860428231562252 0.27835051546391754 0.29074074074074074 0.20925925925925926 0.2111111111111111 0.0 0.28888888888888886 0.26666666666666666 0.26666666666666666 0.13333333333333333 0.0 0.3333333333333333 0.0 1.0 0.0 0.0 0.0 </TABLE>
    </DEFINITION>
    <DEFINITION>
      <FOR>SP33</FOR>
      <GIVEN>log_fold_change</GIVEN>
      <TABLE>0.5 0.0 0.5 0.0 0.0 0.3333333333333333 0.25 0.25 0.0 0.16666666666666666 0.3333333333333333 0.2 0.06666666666666667 0.0 0.4 0.30434782608695654 0.2236024844720497 0.19254658385093168 0.0 0.2795031055900621 0.26666666666666666 0.24444444444444444 0.21481481481481482 0.0 0.2740740740740741 0.26905829596412556 0.23094170403587444 0.19170403587443946 0.0 0.30829596412556054 0.30174464710547183 0.21292624900872323 0.20697858842188738 0.0023790642347343376 0.2759714512291832 0.30925925925925923 0.19814814814814816 0.19074074074074074 0.0 0.30185185185185187 0.3333333333333333 0.26666666666666666 0.2 0.0 0.2 0.0 1.0 0.0 0.0 0.0 </TABLE>
    </DEFINITION>
    <DEFINITION>
      <FOR>log_fold_change</FOR>
      <TABLE>0.0004366812227074236 0.0026200873362445414 0.006550218340611353 0.0351528384279476 0.08842794759825327 0.1947598253275109 0.5506550218340611 0.11790393013100436 0.0032751091703056767 0.0002183406113537118 </TABLE>
    </DEFINITION>
  </NETWORK>
</BIF>
