<?xml version='1.0' encoding='utf-8'?>
<BIF VERSION="0.3">
  <NETWORK>
    <NAME>UNTITLED</NAME>
    <VARIABLE TYPE="nature">
      <NAME>SP01</NAME>
      <OUTCOME>A</OUTCOME>
      <OUTCOME>C</OUTCOME>
      <OUTCOME>G</OUTCOME>
      <OUTCOME>N</OUTCOME>
      <OUTCOME>T</OUTCOME>
      <PROPERTY>weight = None</PROPERTY>
    </VARIABLE>
    <VARIABLE TYPE="nature">
      <NAME>SP02</NAME>
      <OUTCOME>A</OUTCOME>
      <OUTCOME>C</OUTCOME>
      <OUTCOME>G</OUTCOME>
      <OUTCOME>N</OUTCOME>
      <OUTCOME>T</OUTCOME>
      <PROPERTY>weight = None</PROPERTY>
    </VARIABLE>
    <VARIABLE TYPE="nature">
      <NAME>SP03</NAME>
      <OUTCOME>A</OUTCOME>
      <OUTCOME>C</OUTCOME>
      <OUTCOME>G</OUTCOME>
      <OUTCOME>N</OUTCOME>
      <OUTCOME>T</OUTCOME>
      <PROPERTY>weight = None</PROPERTY>
    </VARIABLE>
    <VARIABLE TYPE="nature">
      <NAME>SP04</NAME>
      <OUTCOME>A</OUTCOME>
      <OUTCOME>C</OUTCOME>
      <OUTCOME>G</OUTCOME>
      <OUTCOME>N</OUTCOME>
      <OUTCOME>T</OUTCOME>
      <PROPERTY>weight = None</PROPERTY>
    </VARIABLE>
    <VARIABLE TYPE="nature">
      <NAME>SP05</NAME>
      <OUTCOME>A</OUTCOME>
      <OUTCOME>C</OUTCOME>
      <OUTCOME>G</OUTCOME>
      <OUTCOME>N</OUTCOME>
      <OUTCOME>T</OUTCOME>
      <PROPERTY>weight = None</PROPERTY>
    </VARIABLE>
    <VARIABLE TYPE="nature">
      <NAME>SP06</NAME>
      <OUTCOME>A</OUTCOME>
      <OUTCOME>C</OUTCOME>
      <OUTCOME>G</OUTCOME>
      <OUTCOME>T</OUTCOME>
      <PROPERTY>weight = None</PROPERTY>
    </VARIABLE>
    <VARIABLE TYPE="nature">
      <NAME>SP07</NAME>
      <OUTCOME>A</OUTCOME>
      <OUTCOME>C</OUTCOME>
      <OUTCOME>G</OUTCOME>
      <OUTCOME>T</OUTCOME>
      <PROPERTY>weight = None</PROPERTY>
    </VARIABLE>
    <VARIABLE TYPE="nature">
      <NAME>SP08</NAME>
      <OUTCOME>A</OUTCOME>
      <OUTCOME>C</OUTCOME>
      <OUTCOME>G</OUTCOME>
      <OUTCOME>T</OUTCOME>
      <PROPERTY>weight = None</PROPERTY>
    </VARIABLE>
    <VARIABLE TYPE="nature">
      <NAME>SP09</NAME>
      <OUTCOME>A</OUTCOME>
      <OUTCOME>C</OUTCOME>
      <OUTCOME>G</OUTCOME>
      <OUTCOME>T</OUTCOME>
      <PROPERTY>weight = None</PROPERTY>
    </VARIABLE>
    <VARIABLE TYPE="nature">
      <NAME>SP10</NAME>
      <OUTCOME>A</OUTCOME>
      <OUTCOME>C</OUTCOME>
      <OUTCOME>G</OUTCOME>
      <OUTCOME>T</OUTCOME>
      <PROPERTY>weight = None</PROPERTY>
    </VARIABLE>
    <VARIABLE TYPE="nature">
      <NAME>SP11</NAME>
      <OUTCOME>A</OUTCOME>
      <OUTCOME>C</OUTCOME>
      <OUTCOME>G</OUTCOME>
      <OUTCOME>T</OUTCOME>
      <PROPERTY>weight = None</PROPERTY>
    </VARIABLE>
    <VARIABLE TYPE="nature">
      <NAME>SP12</NAME>
      <OUTCOME>A</OUTCOME>
      <OUTCOME>C</OUTCOME>
      <OUTCOME>G</OUTCOME>
      <OUTCOME>T</OUTCOME>
      <PROPERTY>weight = None</PROPERTY>
    </VARIABLE>
    <VARIABLE TYPE="nature">
      <NAME>SP13</NAME>
      <OUTCOME>A</OUTCOME>
      <OUTCOME>C</OUTCOME>
      <OUTCOME>G</OUTCOME>
      <OUTCOME>T</OUTCOME>
      <PROPERTY>weight = None</PROPERTY>
    </VARIABLE>
    <VARIABLE TYPE="nature">
      <NAME>SP14</NAME>
      <OUTCOME>A</OUTCOME>
      <OUTCOME>C</OUTCOME>
      <OUTCOME>G</OUTCOME>
      <OUTCOME>T</OUTCOME>
      <PROPERTY>weight = None</PROPERTY>
    </VARIABLE>
    <VARIABLE TYPE="nature">
      <NAME>SP15</NAME>
      <OUTCOME>A</OUTCOME>
      <OUTCOME>C</OUTCOME>
      <OUTCOME>G</OUTCOME>
      <OUTCOME>T</OUTCOME>
      <PROPERTY>weight = None</PROPERTY>
    </VARIABLE>
    <VARIABLE TYPE="nature">
      <NAME>SP16</NAME>
      <OUTCOME>A</OUTCOME>
      <OUTCOME>C</OUTCOME>
      <OUTCOME>G</OUTCOME>
      <OUTCOME>T</OUTCOME>
      <PROPERTY>weight = None</PROPERTY>
    </VARIABLE>
    <VARIABLE TYPE="nature">
      <NAME>SP17</NAME>
      <OUTCOME>A</OUTCOME>
      <OUTCOME>C</OUTCOME>
      <OUTCOME>G</OUTCOME>
      <OUTCOME>T</OUTCOME>
      <PROPERTY>weight = None</PROPERTY>
    </VARIABLE>
    <VARIABLE TYPE="nature">
      <NAME>SP18</NAME>
      <OUTCOME>A</OUTCOME>
      <OUTCOME>C</OUTCOME>
      <OUTCOME>G</OUTCOME>
      <OUTCOME>T</OUTCOME>
      <PROPERTY>weight = None</PROPERTY>
    </VARIABLE>
    <VARIABLE TYPE="nature">
      <NAME>SP19</NAME>
      <OUTCOME>A</OUTCOME>
      <OUTCOME>C</OUTCOME>
      <OUTCOME>G</OUTCOME>
      <OUTCOME>T</OUTCOME>
      <PROPERTY>weight = None</PROPERTY>
    </VARIABLE>
    <VARIABLE TYPE="nature">
      <NAME>SP20</NAME>
      <OUTCOME>A</OUTCOME>
      <OUTCOME>C</OUTCOME>
      <OUTCOME>G</OUTCOME>
      <OUTCOME>T</OUTCOME>
      <PROPERTY>weight = None</PROPERTY>
    </VARIABLE>
    <VARIABLE TYPE="nature">
      <NAME>SP21</NAME>
      <OUTCOME>A</OUTCOME>
      <OUTCOME>C</OUTCOME>
      <OUTCOME>G</OUTCOME>
      <OUTCOME>T</OUTCOME>
      <PROPERTY>weight = None</PROPERTY>
    </VARIABLE>
    <VARIABLE TYPE="nature">
      <NAME>SP22</NAME>
      <OUTCOME>A</OUTCOME>
      <OUTCOME>C</OUTCOME>
      <OUTCOME>G</OUTCOME>
      <OUTCOME>T</OUTCOME>
      <PROPERTY>weight = None</PROPERTY>
    </VARIABLE>
    <VARIABLE TYPE="nature">
      <NAME>SP23</NAME>
      <OUTCOME>A</OUTCOME>
      <OUTCOME>C</OUTCOME>
      <OUTCOME>G</OUTCOME>
      <OUTCOME>T</OUTCOME>
      <PROPERTY>weight = None</PROPERTY>
    </VARIABLE>
    <VARIABLE TYPE="nature">
      <NAME>SP24</NAME>
      <OUTCOME>A</OUTCOME>
      <OUTCOME>C</OUTCOME>
      <OUTCOME>G</OUTCOME>
      <OUTCOME>T</OUTCOME>
      <PROPERTY>weight = None</PROPERTY>
    </VARIABLE>
    <VARIABLE TYPE="nature">
      <NAME>SP25</NAME>
      <OUTCOME>A</OUTCOME>
      <OUTCOME>C</OUTCOME>
      <OUTCOME>G</OUTCOME>
      <OUTCOME>T</OUTCOME>
      <PROPERTY>weight = None</PROPERTY>
    </VARIABLE>
    <VARIABLE TYPE="nature">
      <NAME>SP26</NAME>
      <OUTCOME>A</OUTCOME>
      <OUTCOME>C</OUTCOME>
      <OUTCOME>G</OUTCOME>
      <OUTCOME>T</OUTCOME>
      <PROPERTY>weight = None</PROPERTY>
    </VARIABLE>
    <VARIABLE TYPE="nature">
      <NAME>SP27</NAME>
      <OUTCOME>A</OUTCOME>
      <OUTCOME>C</OUTCOME>
      <OUTCOME>G</OUTCOME>
      <OUTCOME>T</OUTCOME>
      <PROPERTY>weight = None</PROPERTY>
    </VARIABLE>
    <VARIABLE TYPE="nature">
      <NAME>SP28</NAME>
      <OUTCOME>A</OUTCOME>
      <OUTCOME>C</OUTCOME>
      <OUTCOME>G</OUTCOME>
      <OUTCOME>T</OUTCOME>
      <PROPERTY>weight = None</PROPERTY>
    </VARIABLE>
    <VARIABLE TYPE="nature">
      <NAME>SP29</NAME>
      <OUTCOME>A</OUTCOME>
      <OUTCOME>C</OUTCOME>
      <OUTCOME>G</OUTCOME>
      <OUTCOME>N</OUTCOME>
      <OUTCOME>T</OUTCOME>
      <PROPERTY>weight = None</PROPERTY>
    </VARIABLE>
    <VARIABLE TYPE="nature">
      <NAME>SP30</NAME>
      <OUTCOME>A</OUTCOME>
      <OUTCOME>C</OUTCOME>
      <OUTCOME>G</OUTCOME>
      <OUTCOME>N</OUTCOME>
      <OUTCOME>T</OUTCOME>
      <PROPERTY>weight = None</PROPERTY>
    </VARIABLE>
    <VARIABLE TYPE="nature">
      <NAME>SP31</NAME>
      <OUTCOME>A</OUTCOME>
      <OUTCOME>C</OUTCOME>
      <OUTCOME>G</OUTCOME>
      <OUTCOME>N</OUTCOME>
      <OUTCOME>T</OUTCOME>
      <PROPERTY>weight = None</PROPERTY>
    </VARIABLE>
    <VARIABLE TYPE="nature">
      <NAME>SP32</NAME>
      <OUTCOME>A</OUTCOME>
      <OUTCOME>C</OUTCOME>
      <OUTCOME>G</OUTCOME>
      <OUTCOME>N</OUTCOME>
      <OUTCOME>T</OUTCOME>
      <PROPERTY>weight = None</PROPERTY>
    </VARIABLE>
    <VARIABLE TYPE="nature">
      <NAME>SP33</NAME>
      <OUTCOME>A</OUTCOME>
      <OUTCOME>C</OUTCOME>
      <OUTCOME>G</OUTCOME>
      <OUTCOME>N</OUTCOME>
      <OUTCOME>T</OUTCOME>
      <PROPERTY>weight = None</PROPERTY>
    </VARIABLE>
    <VARIABLE TYPE="nature">
      <NAME>log_fold_change</NAME>
      <OUTCOME>_3_0</OUTCOME>
      <OUTCOME>_2_5</OUTCOME>
      <OUTCOME>_2_0</OUTCOME>
      <OUTCOME>_1_5</OUTCOME>
      <OUTCOME>_1_0</OUTCOME>
      <OUTCOME>_0_5</OUTCOME>
      <OUTCOME>0_0</OUTCOME>
      <OUTCOME>0_5</OUTCOME>
      <OUTCOME>1_0</OUTCOME>
      <OUTCOME>1_5</OUTCOME>
      <OUTCOME>2_0</OUTCOME>
      <OUTCOME>3_5</OUTCOME>
      <PROPERTY>weight = None</PROPERTY>
    </VARIABLE>
    <DEFINITION>
      <FOR>SP01</FOR>
      <GIVEN>SP02</GIVEN>
      <TABLE>0.3518648838845883 0.2547501759324419 0.17804363124560169 0.0 0.21534130893736805 0.2902208201892745 0.21871713985278654 0.20504731861198738 0.0 0.28601472134595163 0.35168539325842696 0.1 0.2393258426966292 0.0 0.3089887640449438 0.0 0.0 0.0 1.0 0.0 0.25171102661596956 0.23574144486692014 0.17642585551330797 0.0 0.3361216730038023 </TABLE>
    </DEFINITION>
    <DEFINITION>
      <FOR>SP02</FOR>
      <TABLE>0.3102620087336245 0.2076419213973799 0.1943231441048035 0.0006550218340611354 0.287117903930131 </TABLE>
    </DEFINITION>
    <DEFINITION>
      <FOR>SP03</FOR>
      <GIVEN>SP02</GIVEN>
      <TABLE>0.3483462350457424 0.1956368754398311 0.22800844475721324 0.0 0.22800844475721324 0.36803364879074657 0.22292323869610936 0.0914826498422713 0.0 0.3175604626708728 0.2842696629213483 0.2292134831460674 0.2348314606741573 0.0 0.251685393258427 0.0 0.0 0.0 1.0 0.0 0.23802281368821293 0.21825095057034222 0.22585551330798478 0.0 0.3178707224334601 </TABLE>
    </DEFINITION>
    <DEFINITION>
      <FOR>SP04</FOR>
      <GIVEN>SP03</GIVEN>
      <TABLE>0.3281360737065911 0.19773210489014884 0.22820694542877393 0.0 0.24592487597448617 0.37410805300713557 0.2089704383282365 0.09072375127421 0.0 0.32619775739041795 0.2955288985823337 0.20719738276990185 0.25081788440567065 0.0 0.24645583424209377 0.0 0.0 0.0 0.6666666666666666 0.3333333333333333 0.23186119873817035 0.2113564668769716 0.22712933753943218 0.0 0.32965299684542587 </TABLE>
    </DEFINITION>
    <DEFINITION>
      <FOR>SP05</FOR>
      <GIVEN>SP04</GIVEN>
      <TABLE>0.33620071684587816 0.196415770609319 0.2172043010752688 0.0 0.25017921146953404 0.37898089171974525 0.21656050955414013 0.08598726114649681 0.0 0.3184713375796178 0.28955866523143164 0.21959095801937567 0.24865446716899892 0.0 0.24219590958019377 0.0 0.0 0.0 0.5 0.5 0.22789634146341464 0.2111280487804878 0.21875 0.0 0.34222560975609756 </TABLE>
    </DEFINITION>
    <DEFINITION>
      <FOR>SP06</FOR>
      <GIVEN>SP07</GIVEN>
      <TABLE>0.3328611898016997 0.27407932011331443 0.18696883852691218 0.20609065155807366 0.28815261044176704 0.21887550200803213 0.20582329317269077 0.28714859437751006 0.33475026567481403 0.10520722635494155 0.2412327311370882 0.3188097768331562 0.25345247766043866 0.2550771730300569 0.17546709991876522 0.31600324939073926 </TABLE>
    </DEFINITION>
    <DEFINITION>
      <FOR>SP07</FOR>
      <TABLE>0.308296943231441 0.21746724890829694 0.2054585152838428 0.2687772925764192 </TABLE>
    </DEFINITION>
    <DEFINITION>
      <FOR>SP08</FOR>
      <GIVEN>SP07</GIVEN>
      <TABLE>0.32790368271954673 0.21175637393767704 0.22662889518413598 0.23371104815864022 0.36947791164658633 0.21586345381526104 0.09538152610441768 0.3192771084337349 0.29011689691817216 0.23379383634431455 0.230605738575983 0.2454835281615303 0.2445166531275386 0.2420796100731113 0.2412672623883022 0.27213647441104794 </TABLE>
    </DEFINITION>
    <DEFINITION>
      <FOR>SP09</FOR>
      <GIVEN>SP08</GIVEN>
      <TABLE>0.33167259786476866 0.19430604982206406 0.2398576512455516 0.23416370106761566 0.3653100775193798 0.21996124031007752 0.09011627906976744 0.3246124031007752 0.2874058127018299 0.22604951560818085 0.24757804090419805 0.23896663078579117 0.24382207578253706 0.24299835255354202 0.2487644151565074 0.2644151565074135 </TABLE>
    </DEFINITION>
    <DEFINITION>
      <FOR>SP10</FOR>
      <GIVEN>SP11</GIVEN>
      <TABLE>0.3179559971611072 0.2817601135557133 0.21078779276082327 0.18949609652235627 0.27101879327398615 0.2304648862512364 0.20870425321463898 0.2898120672601385 0.35511064278187565 0.10326659641728135 0.23182297154899895 0.30979978925184404 0.27663088356729976 0.26919900908340216 0.1874483897605285 0.2667217175887696 </TABLE>
    </DEFINITION>
    <DEFINITION>
      <FOR>SP11</FOR>
      <TABLE>0.3076419213973799 0.22074235807860262 0.20720524017467248 0.264410480349345 </TABLE>
    </DEFINITION>
    <DEFINITION>
      <FOR>SP12</FOR>
      <GIVEN>SP11</GIVEN>
      <TABLE>0.319375443577005 0.20652945351312987 0.23917672107877927 0.23491838183108588 0.3768545994065282 0.20771513353115728 0.08803165182987141 0.3273986152324431 0.28661749209694415 0.23814541622760801 0.22233930453108536 0.2528977871443625 0.22460776218001652 0.2510322047894302 0.25763831544178367 0.2667217175887696 </TABLE>
    </DEFINITION>
    <DEFINITION>
      <FOR>SP13</FOR>
      <GIVEN>SP14</GIVEN>
      <TABLE>0.32440260680666183 0.27516292541636495 0.1955104996379435 0.2049239681390297 0.28227360308285165 0.220616570327553 0.2138728323699422 0.2832369942196532 0.34146341463414637 0.10498409331919406 0.23223753976670203 0.3213149522799576 0.2684729064039409 0.27586206896551724 0.20525451559934318 0.2504105090311987 </TABLE>
    </DEFINITION>
    <DEFINITION>
      <FOR>SP14</FOR>
      <GIVEN>SP15</GIVEN>
      <TABLE>0.3051337671728127 0.292118582791034 0.2010122921185828 0.2017353579175705 0.28125 0.220703125 0.20703125 0.291015625 0.34300518134715025 0.10466321243523316 0.22383419689119172 0.32849740932642485 0.2814569536423841 0.2541390728476821 0.19619205298013245 0.2682119205298013 </TABLE>
    </DEFINITION>
    <DEFINITION>
      <FOR>SP15</FOR>
      <GIVEN>SP16</GIVEN>
      <TABLE>0.31029411764705883 0.28088235294117647 0.20661764705882352 0.20220588235294118 0.2813425468904245 0.2033563672260612 0.2063178677196446 0.3089832181638697 0.3470648815653965 0.09268795056642637 0.2451081359423275 0.31513903192584963 0.27427184466019416 0.27993527508090615 0.19174757281553398 0.2540453074433657 </TABLE>
    </DEFINITION>
    <DEFINITION>
      <FOR>SP16</FOR>
      <GIVEN>SP17</GIVEN>
      <TABLE>0.3161290322580645 0.2724014336917563 0.21003584229390682 0.2014336917562724 0.28641732283464566 0.20669291338582677 0.2047244094488189 0.3021653543307087 0.33263598326359833 0.09832635983263599 0.24163179916317992 0.3274058577405858 0.25556471558120364 0.27122835943940643 0.19703215169002472 0.2761747732893652 </TABLE>
    </DEFINITION>
    <DEFINITION>
      <FOR>SP17</FOR>
      <GIVEN>SP18</GIVEN>
      <TABLE>0.32751091703056767 0.2787481804949054 0.19941775836972345 0.1943231441048035 0.28529698149951316 0.20934761441090555 0.20253164556962025 0.3028237585199611 0.34421052631578947 0.09157894736842105 0.24526315789473685 0.31894736842105265 0.2644426362896664 0.2693246541903987 0.19609438567941415 0.2701383238405207 </TABLE>
    </DEFINITION>
    <DEFINITION>
      <FOR>SP18</FOR>
      <GIVEN>SP19</GIVEN>
      <TABLE>0.31834403997144894 0.2833690221270521 0.1998572448251249 0.198429693076374 0.27837051406401553 0.20950533462657614 0.21435499515033948 0.29776915615906885 0.33125 0.09791666666666667 0.240625 0.3302083333333333 0.2718855218855219 0.26936026936026936 0.1835016835016835 0.27525252525252525 </TABLE>
    </DEFINITION>
    <DEFINITION>
      <FOR>SP19</FOR>
      <GIVEN>SP20</GIVEN>
      <TABLE>0.32008670520231214 0.2774566473988439 0.20086705202312138 0.20158959537572255 0.29764243614931235 0.20726915520628683 0.20530451866404714 0.28978388998035365 0.34968017057569295 0.09168443496801706 0.2526652452025586 0.30597014925373134 0.26370967741935486 0.28225806451612906 0.19032258064516128 0.26370967741935486 </TABLE>
    </DEFINITION>
    <DEFINITION>
      <FOR>SP20</FOR>
      <GIVEN>SP21</GIVEN>
      <TABLE>0.3123644251626898 0.28633405639913234 0.19956616052060738 0.2017353579175705 0.29218900675024106 0.20925747348119575 0.2073288331726133 0.29122468659594986 0.32094943240454077 0.1021671826625387 0.22807017543859648 0.34881320949432404 0.2837951301427372 0.25692695214105793 0.1897565071368598 0.2695214105793451 </TABLE>
    </DEFINITION>
    <DEFINITION>
      <FOR>SP21</FOR>
      <GIVEN>SP22</GIVEN>
      <TABLE>0.3184438040345821 0.28170028818443804 0.20317002881844382 0.19668587896253603 0.2952286282306163 0.21669980119284293 0.19284294234592445 0.2952286282306163 0.33739837398373984 0.10060975609756098 0.25 0.3119918699186992 0.259567387687188 0.2737104825291181 0.20549084858569053 0.2612312811980033 </TABLE>
    </DEFINITION>
    <DEFINITION>
      <FOR>SP22</FOR>
      <GIVEN>SP23</GIVEN>
      <TABLE>0.32153179190751446 0.27239884393063585 0.2023121387283237 0.203757225433526 0.2898832684824903 0.20622568093385213 0.2178988326848249 0.28599221789883267 0.3382352941176471 0.10189075630252101 0.24579831932773108 0.31407563025210083 0.265625 0.2631578947368421 0.20230263157894737 0.2689144736842105 </TABLE>
    </DEFINITION>
    <DEFINITION>
      <FOR>SP23</FOR>
      <GIVEN>SP24</GIVEN>
      <TABLE>0.3145817912657291 0.2871946706143597 0.19393042190969653 0.20429311621021465 0.2909796314258002 0.21144519883608148 0.20077594568380214 0.2967992240543162 0.3384146341463415 0.09959349593495935 0.241869918699187 0.3201219512195122 0.2685337726523888 0.26688632619439867 0.20181219110378912 0.2627677100494234 </TABLE>
    </DEFINITION>
    <DEFINITION>
      <FOR>SP24</FOR>
      <GIVEN>log_fold_change</GIVEN>
      <TABLE>0.0 1.0 0.0 0.0 0.23076923076923078 0.5384615384615384 0.07692307692307693 0.15384615384615385 0.13333333333333333 0.4 0.3 0.16666666666666666 0.22727272727272727 0.42207792207792205 0.17532467532467533 0.17532467532467533 0.2593516209476309 0.30423940149625933 0.24189526184538654 0.19451371571072318 0.25339366515837103 0.27601809954751133 0.2420814479638009 0.22850678733031674 0.310290027810886 0.1911005164878824 0.21176003178386968 0.28684942391736196 0.3463587921847247 0.16873889875666073 0.17761989342806395 0.30728241563055064 0.3076923076923077 0.23076923076923078 0.23076923076923078 0.23076923076923078 0.0 0.0 0.0 1.0 0.0 1.0 0.0 0.0 1.0 0.0 0.0 0.0 </TABLE>
    </DEFINITION>
    <DEFINITION>
      <FOR>SP25</FOR>
      <GIVEN>log_fold_change</GIVEN>
      <TABLE>1.0 0.0 0.0 0.0 0.15384615384615385 0.5384615384615384 0.23076923076923078 0.07692307692307693 0.3 0.3333333333333333 0.16666666666666666 0.2 0.24675324675324675 0.4155844155844156 0.15584415584415584 0.18181818181818182 0.2119700748129676 0.32418952618453867 0.2119700748129676 0.2518703241895262 0.2737556561085973 0.27828054298642535 0.18552036199095023 0.26244343891402716 0.30870083432657924 0.1855383392928089 0.2280492649980135 0.27771156138259834 0.3872113676731794 0.14564831261101244 0.1936056838365897 0.27353463587921845 0.23076923076923078 0.23076923076923078 0.23076923076923078 0.3076923076923077 0.0 0.0 0.5 0.5 1.0 0.0 0.0 0.0 0.0 1.0 0.0 0.0 </TABLE>
    </DEFINITION>
    <DEFINITION>
      <FOR>SP26</FOR>
      <GIVEN>log_fold_change</GIVEN>
      <TABLE>0.0 1.0 0.0 0.0 0.07692307692307693 0.3076923076923077 0.23076923076923078 0.38461538461538464 0.26666666666666666 0.2 0.3333333333333333 0.2 0.2012987012987013 0.37012987012987014 0.2012987012987013 0.22727272727272727 0.2344139650872818 0.35910224438902744 0.20448877805486285 0.20199501246882792 0.25339366515837103 0.26244343891402716 0.2228506787330317 0.26131221719457015 0.30512514898688914 0.19348430671434247 0.2093762415574096 0.29201430274135876 0.3623445825932504 0.14209591474245115 0.19538188277087035 0.30017761989342806 0.46153846153846156 0.0 0.23076923076923078 0.3076923076923077 0.0 0.5 0.5 0.0 0.0 1.0 0.0 0.0 1.0 0.0 0.0 0.0 </TABLE>
    </DEFINITION>
    <DEFINITION>
      <FOR>SP27</FOR>
      <GIVEN>SP26</GIVEN>
      <TABLE>0.3238593866866118 0.20718025430067316 0.2243829468960359 0.24457741211667913 0.386969397828233 0.21224086870681144 0.08983218163869694 0.3109575518262586 0.266597510373444 0.229253112033195 0.25933609958506226 0.24481327800829875 0.22669826224328593 0.23933649289099526 0.25355450236966826 0.2804107424960506 </TABLE>
    </DEFINITION>
    <DEFINITION>
      <FOR>SP28</FOR>
      <GIVEN>SP27</GIVEN>
      <TABLE>0.30314097881665447 0.21037253469685901 0.2279035792549306 0.25858290723155586 0.3809055118110236 0.2106299212598425 0.09153543307086615 0.3169291338582677 0.2796257796257796 0.23076923076923078 0.2442827442827443 0.24532224532224534 0.22627737226277372 0.23357664233576642 0.24168694241686942 0.2984590429845904 </TABLE>
    </DEFINITION>
    <DEFINITION>
      <FOR>SP29</FOR>
      <GIVEN>SP28</GIVEN>
      <TABLE>0.31037037037037035 0.2088888888888889 0.22740740740740742 0.0 0.25333333333333335 0.37549407114624506 0.21541501976284586 0.08695652173913043 0.0 0.3221343873517787 0.28038379530916846 0.22281449893390193 0.2505330490405117 0.0010660980810234541 0.24520255863539445 0.21484375 0.2125 0.23046875 0.0 0.3421875 </TABLE>
    </DEFINITION>
    <DEFINITION>
      <FOR>SP30</FOR>
      <GIVEN>SP29</GIVEN>
      <TABLE>0.32161555721765145 0.19670905011219147 0.23261032161555723 0.0 0.24906507105459985 0.36493374108053006 0.22324159021406728 0.09785932721712538 0.0010193679918450561 0.3129459734964322 0.2756756756756757 0.2172972972972973 0.2562162162162162 0.0 0.2508108108108108 0.0 0.0 0.0 1.0 0.0 0.2215568862275449 0.2125748502994012 0.23278443113772454 0.0 0.33308383233532934 </TABLE>
    </DEFINITION>
    <DEFINITION>
      <FOR>SP31</FOR>
      <GIVEN>SP32</GIVEN>
      <TABLE>0.33406593406593404 0.2681318681318681 0.1772893772893773 0.0 0.2205128205128205 0.2755417956656347 0.20949432404540763 0.21465428276573786 0.0 0.30030959752321984 0.32438238453276047 0.10096670247046187 0.2545649838882922 0.0 0.3200859291084855 0.0 0.0 0.0 1.0 0.0 0.2517162471395881 0.2532418001525553 0.17696414950419528 0.0 0.3180778032036613 </TABLE>
    </DEFINITION>
    <DEFINITION>
      <FOR>SP32</FOR>
      <GIVEN>SP30</GIVEN>
      <TABLE>0.33159073935772965 0.19790888722927558 0.19118745332337567 0.0 0.2793129200896191 0.2595656670113754 0.21820062047569805 0.2512926577042399 0.001034126163391934 0.26990692864529475 0.31518324607329845 0.22094240837696336 0.21151832460732983 0.0010471204188481676 0.2513089005235602 0.0 0.0 0.0 1.0 0.0 0.28018223234624146 0.214123006833713 0.17463933181473046 0.0 0.3310554290053151 </TABLE>
    </DEFINITION>
    <DEFINITION>
      <FOR>SP33</FOR>
      <GIVEN>SP32</GIVEN>
      <TABLE>0.31868131868131866 0.20732600732600734 0.23076923076923078 0.0 0.24322344322344322 0.3684210526315789 0.2218782249742002 0.08668730650154799 0.0010319917440660474 0.3219814241486068 0.27604726100966703 0.22663802363050484 0.2502685284640172 0.0010741138560687433 0.24597207303974222 0.0 0.0 0.0 1.0 0.0 0.2204424103737605 0.22654462242562928 0.2379862700228833 0.0 0.3150266971777269 </TABLE>
    </DEFINITION>
    <DEFINITION>
      <FOR>log_fold_change</FOR>
      <TABLE>0.0002183406113537118 0.0028384279475982535 0.006550218340611353 0.033624454148471615 0.08755458515283843 0.1930131004366812 0.5495633187772926 0.12292576419213974 0.0028384279475982535 0.0004366812227074236 0.0002183406113537118 0.0002183406113537118 </TABLE>
    </DEFINITION>
  </NETWORK>
</BIF>
