<?xml version='1.0' encoding='utf-8'?>
<BIF VERSION="0.3">
  <NETWORK>
    <NAME>UNTITLED</NAME>
    <VARIABLE TYPE="nature">
      <NAME>SP01</NAME>
      <OUTCOME>A</OUTCOME>
      <OUTCOME>C</OUTCOME>
      <OUTCOME>G</OUTCOME>
      <OUTCOME>N</OUTCOME>
      <OUTCOME>T</OUTCOME>
      <PROPERTY>weight = None</PROPERTY>
    </VARIABLE>
    <VARIABLE TYPE="nature">
      <NAME>SP02</NAME>
      <OUTCOME>A</OUTCOME>
      <OUTCOME>C</OUTCOME>
      <OUTCOME>G</OUTCOME>
      <OUTCOME>N</OUTCOME>
      <OUTCOME>T</OUTCOME>
      <PROPERTY>weight = None</PROPERTY>
    </VARIABLE>
    <VARIABLE TYPE="nature">
      <NAME>SP03</NAME>
      <OUTCOME>A</OUTCOME>
      <OUTCOME>C</OUTCOME>
      <OUTCOME>G</OUTCOME>
      <OUTCOME>N</OUTCOME>
      <OUTCOME>T</OUTCOME>
      <PROPERTY>weight = None</PROPERTY>
    </VARIABLE>
    <VARIABLE TYPE="nature">
      <NAME>SP04</NAME>
      <OUTCOME>A</OUTCOME>
      <OUTCOME>C</OUTCOME>
      <OUTCOME>G</OUTCOME>
      <OUTCOME>N</OUTCOME>
      <OUTCOME>T</OUTCOME>
      <PROPERTY>weight = None</PROPERTY>
    </VARIABLE>
    <VARIABLE TYPE="nature">
      <NAME>SP05</NAME>
      <OUTCOME>A</OUTCOME>
      <OUTCOME>C</OUTCOME>
      <OUTCOME>G</OUTCOME>
      <OUTCOME>N</OUTCOME>
      <OUTCOME>T</OUTCOME>
      <PROPERTY>weight = None</PROPERTY>
    </VARIABLE>
    <VARIABLE TYPE="nature">
      <NAME>SP06</NAME>
      <OUTCOME>A</OUTCOME>
      <OUTCOME>C</OUTCOME>
      <OUTCOME>G</OUTCOME>
      <OUTCOME>T</OUTCOME>
      <PROPERTY>weight = None</PROPERTY>
    </VARIABLE>
    <VARIABLE TYPE="nature">
      <NAME>SP07</NAME>
      <OUTCOME>A</OUTCOME>
      <OUTCOME>C</OUTCOME>
      <OUTCOME>G</OUTCOME>
      <OUTCOME>T</OUTCOME>
      <PROPERTY>weight = None</PROPERTY>
    </VARIABLE>
    <VARIABLE TYPE="nature">
      <NAME>SP08</NAME>
      <OUTCOME>A</OUTCOME>
      <OUTCOME>C</OUTCOME>
      <OUTCOME>G</OUTCOME>
      <OUTCOME>T</OUTCOME>
      <PROPERTY>weight = None</PROPERTY>
    </VARIABLE>
    <VARIABLE TYPE="nature">
      <NAME>SP09</NAME>
      <OUTCOME>A</OUTCOME>
      <OUTCOME>C</OUTCOME>
      <OUTCOME>G</OUTCOME>
      <OUTCOME>T</OUTCOME>
      <PROPERTY>weight = None</PROPERTY>
    </VARIABLE>
    <VARIABLE TYPE="nature">
      <NAME>SP10</NAME>
      <OUTCOME>A</OUTCOME>
      <OUTCOME>C</OUTCOME>
      <OUTCOME>G</OUTCOME>
      <OUTCOME>T</OUTCOME>
      <PROPERTY>weight = None</PROPERTY>
    </VARIABLE>
    <VARIABLE TYPE="nature">
      <NAME>SP11</NAME>
      <OUTCOME>A</OUTCOME>
      <OUTCOME>C</OUTCOME>
      <OUTCOME>G</OUTCOME>
      <OUTCOME>T</OUTCOME>
      <PROPERTY>weight = None</PROPERTY>
    </VARIABLE>
    <VARIABLE TYPE="nature">
      <NAME>SP12</NAME>
      <OUTCOME>A</OUTCOME>
      <OUTCOME>C</OUTCOME>
      <OUTCOME>G</OUTCOME>
      <OUTCOME>T</OUTCOME>
      <PROPERTY>weight = None</PROPERTY>
    </VARIABLE>
    <VARIABLE TYPE="nature">
      <NAME>SP13</NAME>
      <OUTCOME>A</OUTCOME>
      <OUTCOME>C</OUTCOME>
      <OUTCOME>G</OUTCOME>
      <OUTCOME>T</OUTCOME>
      <PROPERTY>weight = None</PROPERTY>
    </VARIABLE>
    <VARIABLE TYPE="nature">
      <NAME>SP14</NAME>
      <OUTCOME>A</OUTCOME>
      <OUTCOME>C</OUTCOME>
      <OUTCOME>G</OUTCOME>
      <OUTCOME>T</OUTCOME>
      <PROPERTY>weight = None</PROPERTY>
    </VARIABLE>
    <VARIABLE TYPE="nature">
      <NAME>SP15</NAME>
      <OUTCOME>A</OUTCOME>
      <OUTCOME>C</OUTCOME>
      <OUTCOME>G</OUTCOME>
      <OUTCOME>T</OUTCOME>
      <PROPERTY>weight = None</PROPERTY>
    </VARIABLE>
    <VARIABLE TYPE="nature">
      <NAME>SP16</NAME>
      <OUTCOME>A</OUTCOME>
      <OUTCOME>C</OUTCOME>
      <OUTCOME>G</OUTCOME>
      <OUTCOME>T</OUTCOME>
      <PROPERTY>weight = None</PROPERTY>
    </VARIABLE>
    <VARIABLE TYPE="nature">
      <NAME>SP17</NAME>
      <OUTCOME>A</OUTCOME>
      <OUTCOME>C</OUTCOME>
      <OUTCOME>G</OUTCOME>
      <OUTCOME>T</OUTCOME>
      <PROPERTY>weight = None</PROPERTY>
    </VARIABLE>
    <VARIABLE TYPE="nature">
      <NAME>SP18</NAME>
      <OUTCOME>A</OUTCOME>
      <OUTCOME>C</OUTCOME>
      <OUTCOME>G</OUTCOME>
      <OUTCOME>T</OUTCOME>
      <PROPERTY>weight = None</PROPERTY>
    </VARIABLE>
    <VARIABLE TYPE="nature">
      <NAME>SP19</NAME>
      <OUTCOME>A</OUTCOME>
      <OUTCOME>C</OUTCOME>
      <OUTCOME>G</OUTCOME>
      <OUTCOME>T</OUTCOME>
      <PROPERTY>weight = None</PROPERTY>
    </VARIABLE>
    <VARIABLE TYPE="nature">
      <NAME>SP20</NAME>
      <OUTCOME>A</OUTCOME>
      <OUTCOME>C</OUTCOME>
      <OUTCOME>G</OUTCOME>
      <OUTCOME>T</OUTCOME>
      <PROPERTY>weight = None</PROPERTY>
    </VARIABLE>
    <VARIABLE TYPE="nature">
      <NAME>SP21</NAME>
      <OUTCOME>A</OUTCOME>
      <OUTCOME>C</OUTCOME>
      <OUTCOME>G</OUTCOME>
      <OUTCOME>T</OUTCOME>
      <PROPERTY>weight = None</PROPERTY>
    </VARIABLE>
    <VARIABLE TYPE="nature">
      <NAME>SP22</NAME>
      <OUTCOME>A</OUTCOME>
      <OUTCOME>C</OUTCOME>
      <OUTCOME>G</OUTCOME>
      <OUTCOME>T</OUTCOME>
      <PROPERTY>weight = None</PROPERTY>
    </VARIABLE>
    <VARIABLE TYPE="nature">
      <NAME>SP23</NAME>
      <OUTCOME>A</OUTCOME>
      <OUTCOME>C</OUTCOME>
      <OUTCOME>G</OUTCOME>
      <OUTCOME>T</OUTCOME>
      <PROPERTY>weight = None</PROPERTY>
    </VARIABLE>
    <VARIABLE TYPE="nature">
      <NAME>SP24</NAME>
      <OUTCOME>A</OUTCOME>
      <OUTCOME>C</OUTCOME>
      <OUTCOME>G</OUTCOME>
      <OUTCOME>T</OUTCOME>
      <PROPERTY>weight = None</PROPERTY>
    </VARIABLE>
    <VARIABLE TYPE="nature">
      <NAME>SP25</NAME>
      <OUTCOME>A</OUTCOME>
      <OUTCOME>C</OUTCOME>
      <OUTCOME>G</OUTCOME>
      <OUTCOME>T</OUTCOME>
      <PROPERTY>weight = None</PROPERTY>
    </VARIABLE>
    <VARIABLE TYPE="nature">
      <NAME>SP26</NAME>
      <OUTCOME>A</OUTCOME>
      <OUTCOME>C</OUTCOME>
      <OUTCOME>G</OUTCOME>
      <OUTCOME>T</OUTCOME>
      <PROPERTY>weight = None</PROPERTY>
    </VARIABLE>
    <VARIABLE TYPE="nature">
      <NAME>SP27</NAME>
      <OUTCOME>A</OUTCOME>
      <OUTCOME>C</OUTCOME>
      <OUTCOME>G</OUTCOME>
      <OUTCOME>T</OUTCOME>
      <PROPERTY>weight = None</PROPERTY>
    </VARIABLE>
    <VARIABLE TYPE="nature">
      <NAME>SP28</NAME>
      <OUTCOME>A</OUTCOME>
      <OUTCOME>C</OUTCOME>
      <OUTCOME>G</OUTCOME>
      <OUTCOME>T</OUTCOME>
      <PROPERTY>weight = None</PROPERTY>
    </VARIABLE>
    <VARIABLE TYPE="nature">
      <NAME>SP29</NAME>
      <OUTCOME>A</OUTCOME>
      <OUTCOME>C</OUTCOME>
      <OUTCOME>G</OUTCOME>
      <OUTCOME>N</OUTCOME>
      <OUTCOME>T</OUTCOME>
      <PROPERTY>weight = None</PROPERTY>
    </VARIABLE>
    <VARIABLE TYPE="nature">
      <NAME>SP30</NAME>
      <OUTCOME>A</OUTCOME>
      <OUTCOME>C</OUTCOME>
      <OUTCOME>G</OUTCOME>
      <OUTCOME>N</OUTCOME>
      <OUTCOME>T</OUTCOME>
      <PROPERTY>weight = None</PROPERTY>
    </VARIABLE>
    <VARIABLE TYPE="nature">
      <NAME>SP31</NAME>
      <OUTCOME>A</OUTCOME>
      <OUTCOME>C</OUTCOME>
      <OUTCOME>G</OUTCOME>
      <OUTCOME>N</OUTCOME>
      <OUTCOME>T</OUTCOME>
      <PROPERTY>weight = None</PROPERTY>
    </VARIABLE>
    <VARIABLE TYPE="nature">
      <NAME>SP32</NAME>
      <OUTCOME>A</OUTCOME>
      <OUTCOME>C</OUTCOME>
      <OUTCOME>G</OUTCOME>
      <OUTCOME>N</OUTCOME>
      <OUTCOME>T</OUTCOME>
      <PROPERTY>weight = None</PROPERTY>
    </VARIABLE>
    <VARIABLE TYPE="nature">
      <NAME>SP33</NAME>
      <OUTCOME>A</OUTCOME>
      <OUTCOME>C</OUTCOME>
      <OUTCOME>G</OUTCOME>
      <OUTCOME>N</OUTCOME>
      <OUTCOME>T</OUTCOME>
      <PROPERTY>weight = None</PROPERTY>
    </VARIABLE>
    <VARIABLE TYPE="nature">
      <NAME>log_fold_change</NAME>
      <OUTCOME>_2_5</OUTCOME>
      <OUTCOME>_1_5</OUTCOME>
      <OUTCOME>_0_5</OUTCOME>
      <OUTCOME>0_5</OUTCOME>
      <PROPERTY>weight = None</PROPERTY>
    </VARIABLE>
    <DEFINITION>
      <FOR>SP01</FOR>
      <GIVEN>SP02</GIVEN>
      <TABLE>0.3400431344356578 0.25305535585909417 0.18619698058950396 0.0 0.22070452911574406 0.2961418143899896 0.2210636079249218 0.2064650677789364 0.0 0.27632950990615224 0.3458980044345898 0.10643015521064302 0.25055432372505543 0.0 0.29711751662971175 0.0 0.0 0.0 1.0 0.0 0.24677296886864086 0.24297646165527714 0.18071374335611237 0.0 0.32953682611996965 </TABLE>
    </DEFINITION>
    <DEFINITION>
      <FOR>SP02</FOR>
      <TABLE>0.3042432195975503 0.20975503062117234 0.19728783902012248 0.0006561679790026247 0.28805774278215224 </TABLE>
    </DEFINITION>
    <DEFINITION>
      <FOR>SP03</FOR>
      <GIVEN>SP02</GIVEN>
      <TABLE>0.34148094895758446 0.19266714593817397 0.22429906542056074 0.0 0.2415528396836808 0.3743482794577685 0.21689259645464026 0.0948905109489051 0.0 0.31386861313868614 0.2838137472283814 0.21840354767184036 0.24722838137472283 0.0 0.25055432372505543 0.0 0.0 0.0 1.0 0.0 0.23386484434320426 0.21867881548974943 0.2164009111617312 0.0 0.3310554290053151 </TABLE>
    </DEFINITION>
    <DEFINITION>
      <FOR>SP04</FOR>
      <GIVEN>SP03</GIVEN>
      <TABLE>0.33047210300429186 0.20386266094420602 0.22532188841201717 0.0 0.24034334763948498 0.372528616024974 0.21436004162330904 0.09781477627471384 0.0 0.3152965660770031 0.3018660812294182 0.2074643249176729 0.23380900109769484 0.0 0.25686059275521406 0.0 0.0 0.0 0.6666666666666666 0.3333333333333333 0.23787528868360278 0.21939953810623555 0.21709006928406466 0.0 0.325635103926097 </TABLE>
    </DEFINITION>
    <DEFINITION>
      <FOR>SP05</FOR>
      <GIVEN>SP04</GIVEN>
      <TABLE>0.32834757834757833 0.19515669515669515 0.23575498575498577 0.0 0.24074074074074073 0.37512953367875645 0.21658031088082902 0.0849740932642487 0.0 0.3233160621761658 0.29535398230088494 0.22123893805309736 0.24336283185840707 0.0 0.24004424778761063 0.0 0.0 0.0 0.5 0.5 0.2112567463377024 0.220508866615266 0.2228218966846569 0.0 0.3454124903623747 </TABLE>
    </DEFINITION>
    <DEFINITION>
      <FOR>SP06</FOR>
      <GIVEN>SP05</GIVEN>
      <TABLE>0.34017595307917886 0.19574780058651026 0.23826979472140764 0.22580645161290322 0.3828689370485036 0.21362229102167182 0.08875128998968008 0.31475748194014447 0.289587852494577 0.2245119305856833 0.25379609544468545 0.23210412147505424 0.0 0.0 0.0 1.0 0.22264437689969604 0.22720364741641338 0.22720364741641338 0.3229483282674772 </TABLE>
    </DEFINITION>
    <DEFINITION>
      <FOR>SP07</FOR>
      <GIVEN>SP06</GIVEN>
      <TABLE>0.33906810035842294 0.2007168458781362 0.23655913978494625 0.22365591397849463 0.3877551020408163 0.21020408163265306 0.08877551020408163 0.31326530612244896 0.2966101694915254 0.21716101694915255 0.24258474576271186 0.24364406779661016 0.22106943335993615 0.23144453312051078 0.24660814046288906 0.300877893056664 </TABLE>
    </DEFINITION>
    <DEFINITION>
      <FOR>SP08</FOR>
      <GIVEN>SP07</GIVEN>
      <TABLE>0.32340425531914896 0.20851063829787234 0.24397163120567375 0.22411347517730495 0.382262996941896 0.21100917431192662 0.07951070336391437 0.327217125382263 0.27853403141361255 0.23141361256544501 0.24397905759162303 0.24607329842931938 0.23491027732463296 0.2398042414355628 0.24877650897226752 0.2765089722675367 </TABLE>
    </DEFINITION>
    <DEFINITION>
      <FOR>SP09</FOR>
      <GIVEN>SP10</GIVEN>
      <TABLE>0.32593123209169056 0.27578796561604585 0.19484240687679083 0.2034383954154728 0.2796528447444552 0.2227579556412729 0.2073288331726133 0.29026036644165865 0.3488372093023256 0.09725158562367865 0.23678646934460887 0.3171247357293869 0.269907795473596 0.2732606873428332 0.19111483654652137 0.26571668063704945 </TABLE>
    </DEFINITION>
    <DEFINITION>
      <FOR>SP10</FOR>
      <GIVEN>SP11</GIVEN>
      <TABLE>0.32549857549857547 0.2813390313390313 0.2022792022792023 0.1908831908831909 0.27529182879377434 0.23054474708171208 0.20038910505836577 0.29377431906614787 0.3512658227848101 0.09915611814345991 0.2320675105485232 0.31751054852320676 0.2709731543624161 0.2609060402684564 0.19798657718120805 0.2701342281879195 </TABLE>
    </DEFINITION>
    <DEFINITION>
      <FOR>SP11</FOR>
      <TABLE>0.30708661417322836 0.22484689413823272 0.2073490813648294 0.26071741032370954 </TABLE>
    </DEFINITION>
    <DEFINITION>
      <FOR>SP12</FOR>
      <GIVEN>SP11</GIVEN>
      <TABLE>0.31054131054131057 0.20797720797720798 0.2378917378917379 0.24358974358974358 0.38132295719844356 0.20817120622568094 0.08852140077821012 0.3219844357976654 0.2805907172995781 0.22362869198312235 0.22679324894514769 0.2689873417721519 0.23909395973154363 0.23993288590604026 0.25922818791946306 0.26174496644295303 </TABLE>
    </DEFINITION>
    <DEFINITION>
      <FOR>SP13</FOR>
      <GIVEN>SP12</GIVEN>
      <TABLE>0.32342277012327775 0.20522117476432197 0.23060188542422044 0.24075416968817984 0.3715139442231076 0.2300796812749004 0.09561752988047809 0.30278884462151395 0.28872497365648053 0.2297154899894626 0.23498419388830347 0.2465753424657534 0.23225806451612904 0.25 0.25483870967741934 0.2629032258064516 </TABLE>
    </DEFINITION>
    <DEFINITION>
      <FOR>SP14</FOR>
      <GIVEN>SP13</GIVEN>
      <TABLE>0.3142650253439537 0.22013034033309195 0.2331643736422882 0.23244026068066617 0.36084452975047987 0.21017274472168906 0.09692898272552783 0.33205374280230326 0.2885624344176285 0.22350472193074503 0.24554039874081846 0.24239244491080797 0.23662207357859533 0.2408026755852843 0.2625418060200669 0.2600334448160535 </TABLE>
    </DEFINITION>
    <DEFINITION>
      <FOR>SP15</FOR>
      <GIVEN>SP14</GIVEN>
      <TABLE>0.3165204678362573 0.19956140350877194 0.2361111111111111 0.24780701754385964 0.373046875 0.2294921875 0.091796875 0.3056640625 0.286302780638517 0.2368692070030896 0.23274974253347064 0.24407826982492276 0.23573200992555832 0.23573200992555832 0.2597187758478081 0.26881720430107525 </TABLE>
    </DEFINITION>
    <DEFINITION>
      <FOR>SP16</FOR>
      <GIVEN>SP15</GIVEN>
      <TABLE>0.3047895500725689 0.21480406386066764 0.23222060957910015 0.24818577648766327 0.3734115347018573 0.21114369501466276 0.09090909090909091 0.32453567937438904 0.28213166144200624 0.2225705329153605 0.24033437826541273 0.2549634273772205 0.2298187808896211 0.2602965403624382 0.2528830313014827 0.257001647446458 </TABLE>
    </DEFINITION>
    <DEFINITION>
      <FOR>SP17</FOR>
      <GIVEN>SP16</GIVEN>
      <TABLE>0.3131014063656551 0.21391561806069578 0.24204293116210215 0.230940044411547 0.37079731027857826 0.207492795389049 0.08645533141210375 0.33525456292026895 0.29368421052631577 0.2231578947368421 0.2431578947368421 0.24 0.2146341463414634 0.25691056910569104 0.25853658536585367 0.26991869918699185 </TABLE>
    </DEFINITION>
    <DEFINITION>
      <FOR>SP18</FOR>
      <GIVEN>SP17</GIVEN>
      <TABLE>0.3091715976331361 0.21671597633136094 0.23668639053254437 0.23742603550295857 0.3872216844143272 0.20135527589545016 0.09196515004840271 0.3194578896418199 0.2857142857142857 0.21739130434782608 0.2391304347826087 0.2577639751552795 0.23095823095823095 0.25061425061425063 0.25061425061425063 0.2678132678132678 </TABLE>
    </DEFINITION>
    <DEFINITION>
      <FOR>SP19</FOR>
      <GIVEN>SP20</GIVEN>
      <TABLE>0.31881918819188193 0.2745387453874539 0.2044280442804428 0.2022140221402214 0.2933070866141732 0.19980314960629922 0.20866141732283464 0.29822834645669294 0.33156216790648246 0.09564293304994687 0.24442082890541977 0.3283740701381509 0.2642857142857143 0.2761904761904762 0.2015873015873016 0.25793650793650796 </TABLE>
    </DEFINITION>
    <DEFINITION>
      <FOR>SP20</FOR>
      <GIVEN>log_fold_change</GIVEN>
      <TABLE>0.3125 0.21875 0.3125 0.15625 0.26285714285714284 0.18 0.32571428571428573 0.23142857142857143 0.2664590747330961 0.22597864768683273 0.2304270462633452 0.27713523131672596 0.3367662203913491 0.2255406797116375 0.15396498455200824 0.28372811534500514 </TABLE>
    </DEFINITION>
    <DEFINITION>
      <FOR>SP21</FOR>
      <GIVEN>log_fold_change</GIVEN>
      <TABLE>0.3125 0.1875 0.375 0.125 0.24 0.24 0.3485714285714286 0.17142857142857143 0.2940391459074733 0.23754448398576514 0.21841637010676157 0.25 0.3223480947476828 0.2008238928939238 0.16580844490216273 0.3110195674562307 </TABLE>
    </DEFINITION>
    <DEFINITION>
      <FOR>SP22</FOR>
      <GIVEN>SP23</GIVEN>
      <TABLE>0.308972503617945 0.2821997105643994 0.2040520984081042 0.20477568740955138 0.29698149951314506 0.21616358325219084 0.20642648490749757 0.2804284323271665 0.3284365162644281 0.10388247639034627 0.23504721930745015 0.33263378803777544 0.26859504132231404 0.2652892561983471 0.20330578512396694 0.2628099173553719 </TABLE>
    </DEFINITION>
    <DEFINITION>
      <FOR>SP23</FOR>
      <GIVEN>log_fold_change</GIVEN>
      <TABLE>0.21875 0.15625 0.46875 0.15625 0.2714285714285714 0.2857142857142857 0.26285714285714284 0.18 0.2802491103202847 0.2411032028469751 0.2313167259786477 0.24733096085409254 0.33470648815653964 0.1956745623069001 0.1678681771369722 0.30175077239958803 </TABLE>
    </DEFINITION>
    <DEFINITION>
      <FOR>SP24</FOR>
      <GIVEN>log_fold_change</GIVEN>
      <TABLE>0.15625 0.53125 0.21875 0.09375 0.2257142857142857 0.3742857142857143 0.22 0.18 0.2820284697508897 0.23754448398576514 0.2402135231316726 0.2402135231316726 0.33831101956745624 0.17713697219361482 0.1791967044284243 0.30535530381050463 </TABLE>
    </DEFINITION>
    <DEFINITION>
      <FOR>SP25</FOR>
      <GIVEN>SP26</GIVEN>
      <TABLE>0.3145574250182882 0.2831016825164594 0.20482809070958302 0.19751280175566935 0.28024193548387094 0.22076612903225806 0.19959677419354838 0.29939516129032256 0.328125 0.10208333333333333 0.24270833333333333 0.32708333333333334 0.27693535514764567 0.2761372705506784 0.19632881085395051 0.25059856344772546 </TABLE>
    </DEFINITION>
    <DEFINITION>
      <FOR>SP26</FOR>
      <GIVEN>log_fold_change</GIVEN>
      <TABLE>0.1875 0.3125 0.21875 0.28125 0.22 0.3628571428571429 0.20285714285714285 0.21428571428571427 0.2775800711743772 0.24332740213523132 0.22597864768683273 0.2531138790035587 0.33985581874356335 0.15859938208032956 0.19258496395468588 0.30895983522142123 </TABLE>
    </DEFINITION>
    <DEFINITION>
      <FOR>SP27</FOR>
      <GIVEN>SP26</GIVEN>
      <TABLE>0.3130943672275055 0.20848573518653987 0.22531089978054133 0.2531089978054133 0.3810483870967742 0.2157258064516129 0.09879032258064516 0.30443548387096775 0.2635416666666667 0.23958333333333334 0.24895833333333334 0.24791666666666667 0.2202713487629689 0.24102154828411812 0.25857940941739826 0.28012769353551475 </TABLE>
    </DEFINITION>
    <DEFINITION>
      <FOR>SP28</FOR>
      <GIVEN>SP27</GIVEN>
      <TABLE>0.300374531835206 0.21722846441947566 0.2292134831460674 0.2531835205992509 0.37827352085354027 0.22017458777885549 0.0921435499515034 0.30940834141610085 0.2951496388028896 0.21259029927760578 0.24664602683178535 0.24561403508771928 0.22473726758286175 0.23039611964430073 0.2497978981406629 0.2950687146321746 </TABLE>
    </DEFINITION>
    <DEFINITION>
      <FOR>SP29</FOR>
      <GIVEN>SP30</GIVEN>
      <TABLE>0.3295625942684766 0.2684766214177979 0.19909502262443438 0.0 0.2028657616892911 0.2742616033755274 0.22679324894514769 0.20569620253164558 0.0 0.29324894514767935 0.33298429319371725 0.10366492146596859 0.23455497382198953 0.0 0.3287958115183246 0.0 0.3333333333333333 0.0 0.6666666666666666 0.0 0.25671641791044775 0.24776119402985075 0.16716417910447762 0.0 0.3283582089552239 </TABLE>
    </DEFINITION>
    <DEFINITION>
      <FOR>SP30</FOR>
      <TABLE>0.2900262467191601 0.2073490813648294 0.20888013998250218 0.0006561679790026247 0.29308836395450566 </TABLE>
    </DEFINITION>
    <DEFINITION>
      <FOR>SP31</FOR>
      <GIVEN>SP30</GIVEN>
      <TABLE>0.30165912518853694 0.2187028657616893 0.22624434389140272 0.0 0.25339366515837103 0.370253164556962 0.23417721518987342 0.09071729957805907 0.0010548523206751054 0.3037974683544304 0.27958115183246074 0.2261780104712042 0.2534031413612565 0.0010471204188481676 0.23979057591623038 0.0 0.0 0.0 1.0 0.0 0.23656716417910448 0.22014925373134328 0.21940298507462686 0.0 0.3238805970149254 </TABLE>
    </DEFINITION>
    <DEFINITION>
      <FOR>SP32</FOR>
      <GIVEN>SP31</GIVEN>
      <TABLE>0.32209737827715357 0.19775280898876405 0.2202247191011236 0.0 0.2599250936329588 0.3724340175953079 0.20625610948191594 0.09286412512218964 0.0 0.3284457478005865 0.279826464208243 0.21149674620390455 0.2635574837310195 0.0 0.24511930585683298 0.0 0.0 0.0 1.0 0.0 0.23076923076923078 0.2198912198912199 0.22377622377622378 0.0 0.32556332556332557 </TABLE>
    </DEFINITION>
    <DEFINITION>
      <FOR>SP33</FOR>
      <GIVEN>SP32</GIVEN>
      <TABLE>0.31478770131771594 0.20863836017569545 0.22620790629575402 0.0 0.25036603221083453 0.36621196222455404 0.22560335781741866 0.09653725078698845 0.0 0.3116474291710388 0.2782608695652174 0.22391304347826088 0.2532608695652174 0.0010869565217391304 0.24347826086956523 0.0 0.0 0.0 1.0 0.0 0.22439759036144577 0.22213855421686746 0.23042168674698796 0.0 0.3230421686746988 </TABLE>
    </DEFINITION>
    <DEFINITION>
      <FOR>log_fold_change</FOR>
      <TABLE>0.00699912510936133 0.07655293088363954 0.4916885389326334 0.4247594050743657 </TABLE>
    </DEFINITION>
  </NETWORK>
</BIF>
